{"learner":{"attributes":{"scikit_learn":"{\"_estimator_type\": \"classifier\"}"},"feature_names":["peak1_price","peak2_price","trough_price","peak_gap_days","vol1","vol2","vol2_vol1_ratio","peak_height_diff","peak_height_diff_pct","retracement_depth1","retracement_depth2","volume_diff","peak1_to_trough","trough_to_peak2"],"feature_types":["float","float","float","int","float","float","float","float","float","float","float","float","int","int"],"gradient_booster":{"model":{"cats":{"enc":[],"feature_segments":[],"sorted_idx":[]},"gbtree_model_param":{"num_parallel_tree":"1","num_trees":"200"},"iteration_indptr":[0,1,2,3,4,5,6,7,8,9,10,11,12,13,14,15,16,17,18,19,20,21,22,23,24,25,26,27,28,29,30,31,32,33,34,35,36,37,38,39,40,41,42,43,44,45,46,47,48,49,50,51,52,53,54,55,56,57,58,59,60,61,62,63,64,65,66,67,68,69,70,71,72,73,74,75,76,77,78,79,80,81,82,83,84,85,86,87,88,89,90,91,92,93,94,95,96,97,98,99,100,101,102,103,104,105,106,107,108,109,110,111,112,113,114,115,116,117,118,119,120,121,122,123,124,125,126,127,128,129,130,131,132,133,134,135,136,137,138,139,140,141,142,143,144,145,146,147,148,149,150,151,152,153,154,155,156,157,158,159,160,161,162,163,164,165,166,167,168,169,170,171,172,173,174,175,176,177,178,179,180,181,182,183,184,185,186,187,188,189,190,191,192,193,194,195,196,197,198,199,200],"tree_info":[0,0,0,0,0,0,0,0,0,0,0,0,0,0,0,0,0,0,0,0,0,0,0,0,0,0,0,0,0,0,0,0,0,0,0,0,0,0,0,0,0,0,0,0,0,0,0,0,0,0,0,0,0,0,0,0,0,0,0,0,0,0,0,0,0,0,0,0,0,0,0,0,0,0,0,0,0,0,0,0,0,0,0,0,0,0,0,0,0,0,0,0,0,0,0,0,0,0,0,0,0,0,0,0,0,0,0,0,0,0,0,0,0,0,0,0,0,0,0,0,0,0,0,0,0,0,0,0,0,0,0,0,0,0,0,0,0,0,0,0,0,0,0,0,0,0,0,0,0,0,0,0,0,0,0,0,0,0,0,0,0,0,0,0,0,0,0,0,0,0,0,0,0,0,0,0,0,0,0,0,0,0,0,0,0,0,0,0,0,0,0,0,0,0,0,0,0,0,0,0],"trees":[{"base_weights":[-5.412156E-3,4.4185138E-1,-3.6020887E-1,5.529954E-3,1.4229445E-3,-1.3965085E-3,-8.020361E-3],"categories":[],"categories_nodes":[],"categories_segments":[],"categories_sizes":[],"default_left":[0,0,0,0,0,0,0],"id":0,"left_children":[1,3,5,-1,-1,-1,-1],"loss_changes":[2.9002472E2,2.6838715E1,9.920422E1,0E0,0E0,0E0,0E0],"parents":[2147483647,0,0,1,1,2,2],"right_children":[2,4,6,-1,-1,-1,-1],"split_conditions":[5.8044683E-2,5.1183935E-2,9.588279E-2,5.529954E-3,1.4229445E-3,-1.3965085E-3,-8.020361E-3],"split_indices":[9,10,10,0,0,0,0],"split_type":[0,0,0,0,0,0,0],"sum_hessian":[1.8256425E3,8.0747656E2,1.01816583E3,5.8833984E2,2.1913672E2,6.8001953E2,3.3814633E2],"tree_param":{"num_deleted":"0","num_feature":"14","num_nodes":"7","size_leaf_vector":"1"}},{"base_weights":[-5.856777E-4,3.0954683E-1,-5.1510656E-1,5.378839E-3,6.7105127E-4,-2.7174037E-3,-8.6824475E-3],"categories":[],"categories_nodes":[],"categories_segments":[],"categories_sizes":[],"default_left":[0,0,0,0,0,0,0],"id":1,"left_children":[1,3,5,-1,-1,-1,-1],"loss_changes":[2.9496606E2,6.3810463E1,5.950914E1,0E0,0E0,0E0,0E0],"parents":[2147483647,0,0,1,1,2,2],"right_children":[2,4,6,-1,-1,-1,-1],"split_conditions":[7.2810255E-2,5.1183935E-2,1.0225848E-1,5.378839E-3,6.7105127E-4,-2.7174037E-3,-8.6824475E-3],"split_indices":[10,10,10,0,0,0,0],"split_type":[0,0,0,0,0,0,0],"sum_hessian":[1.8465106E3,1.1523304E3,6.941801E2,5.927997E2,5.595308E2,4.1201108E2,2.8216907E2],"tree_param":{"num_deleted":"0","num_feature":"14","num_nodes":"7","size_leaf_vector":"1"}},{"base_weights":[-1.3939285E-2,1.9679824E-1,-7.211885E-1,5.481834E-3,-5.9232436E-5,-5.196602E-3,-1.0035553E-2],"categories":[],"categories_nodes":[],"categories_segments":[],"categories_sizes":[],"default_left":[0,0,0,0,0,0,0],"id":2,"left_children":[1,3,5,-1,-1,-1,-1],"loss_changes":[2.7353433E2,1.0072721E2,2.3452911E1,0E0,0E0,0E0,0E0],"parents":[2147483647,0,0,1,1,2,2],"right_children":[2,4,6,-1,-1,-1,-1],"split_conditions":[8.857866E-2,4.8712015E-2,1.1736422E-1,5.481834E-3,-5.9232436E-5,-5.196602E-3,-1.0035553E-2],"split_indices":[9,10,10,0,0,0,0],"split_type":[0,0,0,0,0,0,0],"sum_hessian":[1.8333074E3,1.4130005E3,4.2030692E2,5.1632666E2,8.9667377E2,2.469187E2,1.7338823E2],"tree_param":{"num_deleted":"0","num_feature":"14","num_nodes":"7","size_leaf_vector":"1"}},{"base_weights":[-1.1382287E-2,2.9287058E-1,-5.1498795E-1,5.6596044E-3,7.50729E-4,-3.5302087E-3,-9.74025E-3],"categories":[],"categories_nodes":[],"categories_segments":[],"categories_sizes":[],"default_left":[0,0,0,0,0,0,0],"id":3,"left_children":[1,3,5,-1,-1,-1,-1],"loss_changes":[2.847498E2,6.886417E1,5.169252E1,0E0,0E0,0E0,0E0],"parents":[2147483647,0,0,1,1,2,2],"right_children":[2,4,6,-1,-1,-1,-1],"split_conditions":[7.2810255E-2,4.8712015E-2,1.1736422E-1,5.6596044E-3,7.50729E-4,-3.5302087E-3,-9.74025E-3],"split_indices":[10,10,10,0,0,0,0],"split_type":[0,0,0,0,0,0,0],"sum_hessian":[1.8564111E3,1.1575168E3,6.988943E2,5.1285944E2,6.446574E2,5.1792E2,1.8097429E2],"tree_param":{"num_deleted":"0","num_feature":"14","num_nodes":"7","size_leaf_vector":"1"}},{"base_weights":[1.7529355E-2,3.057311E-1,-4.8827597E-1,5.411415E-3,6.166473E-4,-2.2390026E-3,-7.4827587E-3],"categories":[],"categories_nodes":[],"categories_segments":[],"categories_sizes":[],"default_left":[0,0,0,0,0,0,0],"id":4,"left_children":[1,3,5,-1,-1,-1,-1],"loss_changes":[2.678912E2,6.72267E1,4.5684036E1,0E0,0E0,0E0,0E0],"parents":[2147483647,0,0,1,1,2,2],"right_children":[2,4,6,-1,-1,-1,-1],"split_conditions":[7.3382124E-2,5.1183935E-2,9.588279E-2,5.411415E-3,6.166473E-4,-2.2390026E-3,-7.4827587E-3],"split_indices":[10,10,10,0,0,0,0],"split_type":[0,0,0,0,0,0,0],"sum_hessian":[1.8356923E3,1.1696407E3,6.660515E2,5.947584E2,5.748823E2,3.311695E2,3.34882E2],"tree_param":{"num_deleted":"0","num_feature":"14","num_nodes":"7","size_leaf_vector":"1"}},{"base_weights":[1.2596806E-3,4.1637594E-1,-3.1966433E-1,2.6643013E-3,5.6293625E-3,-1.8501731E-3,-8.716774E-3],"categories":[],"categories_nodes":[],"categories_segments":[],"categories_sizes":[],"default_left":[0,0,0,0,0,0,0],"id":5,"left_children":[1,3,5,-1,-1,-1,-1],"loss_changes":[2.4705592E2,1.7619446E1,7.757762E1,0E0,0E0,0E0,0E0],"parents":[2147483647,0,0,1,1,2,2],"right_children":[2,4,6,-1,-1,-1,-1],"split_conditions":[5.7540137E-2,1.5599E6,1.12116285E-1,2.6643013E-3,5.6293625E-3,-1.8501731E-3,-8.716774E-3],"split_indices":[9,5,10,0,0,0,0],"split_type":[0,0,0,0,0,0,0],"sum_hessian":[1.8524857E3,8.075804E2,1.0449053E3,4.005726E2,4.070078E2,8.4108344E2,2.0382188E2],"tree_param":{"num_deleted":"0","num_feature":"14","num_nodes":"7","size_leaf_vector":"1"}},{"base_weights":[6.439417E-3,2.9713133E-1,-4.9243447E-1,5.179403E-3,7.169909E-4,-3.3053462E-3,-8.6821355E-3],"categories":[],"categories_nodes":[],"categories_segments":[],"categories_sizes":[],"default_left":[0,0,0,0,0,0,0],"id":6,"left_children":[1,3,5,-1,-1,-1,-1],"loss_changes":[2.6691E2,5.7848526E1,4.093869E1,0E0,0E0,0E0,0E0],"parents":[2147483647,0,0,1,1,2,2],"right_children":[2,4,6,-1,-1,-1,-1],"split_conditions":[7.3382124E-2,5.1183935E-2,1.12116285E-1,5.179403E-3,7.169909E-4,-3.3053462E-3,-8.6821355E-3],"split_indices":[10,10,10,0,0,0,0],"split_type":[0,0,0,0,0,0,0],"sum_hessian":[1.8385132E3,1.1618892E3,6.7662396E2,5.86308E2,5.7558124E2,4.7420016E2,2.0242381E2],"tree_param":{"num_deleted":"0","num_feature":"14","num_nodes":"7","size_leaf_vector":"1"}},{"base_weights":[-5.98765E-3,2.1777673E-1,-5.71133E-1,5.048889E-3,-1.4923271E-4,-3.666758E-3,-8.761979E-3],"categories":[],"categories_nodes":[],"categories_segments":[],"categories_sizes":[],"default_left":[0,0,0,0,0,0,0],"id":7,"left_children":[1,3,5,-1,-1,-1,-1],"loss_changes":[2.3244435E2,8.7981705E1,3.219673E1,0E0,0E0,0E0,0E0],"parents":[2147483647,0,0,1,1,2,2],"right_children":[2,4,6,-1,-1,-1,-1],"split_conditions":[8.1754126E-2,5.1183935E-2,1.11360155E-1,5.048889E-3,-1.4923271E-4,-3.666758E-3,-8.761979E-3],"split_indices":[10,10,9,0,0,0,0],"split_type":[0,0,0,0,0,0,0],"sum_hessian":[1.836111E3,1.3157614E3,5.203496E2,5.8849225E2,7.272691E2,3.1286597E2,2.0748363E2],"tree_param":{"num_deleted":"0","num_feature":"14","num_nodes":"7","size_leaf_vector":"1"}},{"base_weights":[1.3165221E-2,2.817109E-1,-5.1284015E-1,5.2987398E-3,4.5468594E-4,-3.5575915E-3,-9.047154E-3],"categories":[],"categories_nodes":[],"categories_segments":[],"categories_sizes":[],"default_left":[0,0,0,0,0,0,0],"id":8,"left_children":[1,3,5,-1,-1,-1,-1],"loss_changes":[2.644414E2,7.26322E1,3.862703E1,0E0,0E0,0E0,0E0],"parents":[2147483647,0,0,1,1,2,2],"right_children":[2,4,6,-1,-1,-1,-1],"split_conditions":[7.594206E-2,5.1183935E-2,1.1736422E-1,5.2987398E-3,4.5468594E-4,-3.5575915E-3,-9.047154E-3],"split_indices":[10,10,10,0,0,0,0],"split_type":[0,0,0,0,0,0,0],"sum_hessian":[1.8700431E3,1.2383055E3,6.317374E2,6.0330975E2,6.349958E2,4.52331E2,1.7940645E2],"tree_param":{"num_deleted":"0","num_feature":"14","num_nodes":"7","size_leaf_vector":"1"}},{"base_weights":[4.440045E-3,2.9065016E-1,-4.8257393E-1,5.265803E-3,5.036868E-4,-3.208252E-3,-9.067846E-3],"categories":[],"categories_nodes":[],"categories_segments":[],"categories_sizes":[],"default_left":[0,0,0,0,0,0,0],"id":9,"left_children":[1,3,5,-1,-1,-1,-1],"loss_changes":[2.571461E2,6.5843796E1,4.65643E1,0E0,0E0,0E0,0E0],"parents":[2147483647,0,0,1,1,2,2],"right_children":[2,4,6,-1,-1,-1,-1],"split_conditions":[7.2810255E-2,5.1183935E-2,1.1438963E-1,5.265803E-3,5.036868E-4,-3.208252E-3,-9.067846E-3],"split_indices":[10,10,10,0,0,0,0],"split_type":[0,0,0,0,0,0,0],"sum_hessian":[1.8428118E3,1.160946E3,6.818657E2,5.8517584E2,5.7577014E2,4.9491443E2,1.869513E2],"tree_param":{"num_deleted":"0","num_feature":"14","num_nodes":"7","size_leaf_vector":"1"}},{"base_weights":[-3.409892E-3,2.7461442E-1,-4.7883293E-1,5.189553E-3,7.9395203E-4,-3.1090197E-3,-8.728041E-3],"categories":[],"categories_nodes":[],"categories_segments":[],"categories_sizes":[],"default_left":[0,0,0,0,0,0,0],"id":10,"left_children":[1,3,5,-1,-1,-1,-1],"loss_changes":[2.4395097E2,5.5509354E1,4.478575E1,0E0,0E0,0E0,0E0],"parents":[2147483647,0,0,1,1,2,2],"right_children":[2,4,6,-1,-1,-1,-1],"split_conditions":[7.2810255E-2,4.8712015E-2,1.12116285E-1,5.189553E-3,7.9395203E-4,-3.1090197E-3,-8.728041E-3],"split_indices":[10,10,10,0,0,0,0],"split_type":[0,0,0,0,0,0,0],"sum_hessian":[1.8436138E3,1.1635813E3,6.800325E2,5.16038E2,6.475433E2,4.780513E2,2.0198116E2],"tree_param":{"num_deleted":"0","num_feature":"14","num_nodes":"7","size_leaf_vector":"1"}},{"base_weights":[-1.1119076E-4,2.769667E-1,-4.7406912E-1,4.947848E-3,5.172025E-4,-3.1578455E-3,-8.423473E-3],"categories":[],"categories_nodes":[],"categories_segments":[],"categories_sizes":[],"default_left":[0,0,0,0,0,0,0],"id":11,"left_children":[1,3,5,-1,-1,-1,-1],"loss_changes":[2.4469464E2,5.7666206E1,3.980577E1,0E0,0E0,0E0,0E0],"parents":[2147483647,0,0,1,1,2,2],"right_children":[2,4,6,-1,-1,-1,-1],"split_conditions":[7.2810255E-2,5.1183935E-2,1.12116285E-1,4.947848E-3,5.172025E-4,-3.1578455E-3,-8.423473E-3],"split_indices":[10,10,10,0,0,0,0],"split_type":[0,0,0,0,0,0,0],"sum_hessian":[1.8613003E3,1.1748774E3,6.8642285E2,5.966792E2,5.781983E2,4.8138345E2,2.0503938E2],"tree_param":{"num_deleted":"0","num_feature":"14","num_nodes":"7","size_leaf_vector":"1"}},{"base_weights":[-1.1867579E-2,3.254175E-1,-3.9312217E-1,4.7766217E-3,9.687544E-4,-1.822776E-3,-7.2315233E-3],"categories":[],"categories_nodes":[],"categories_segments":[],"categories_sizes":[],"default_left":[0,0,0,0,0,0,0],"id":12,"left_children":[1,3,5,-1,-1,-1,-1],"loss_changes":[2.3722125E2,3.4011986E1,6.0123703E1,0E0,0E0,0E0,0E0],"parents":[2147483647,0,0,1,1,2,2],"right_children":[2,4,6,-1,-1,-1,-1],"split_conditions":[6.4811036E-2,5.1183935E-2,9.588279E-2,4.7766217E-3,9.687544E-4,-1.822776E-3,-7.2315233E-3],"split_indices":[10,10,10,0,0,0,0],"split_type":[0,0,0,0,0,0,0],"sum_hessian":[1.8427719E3,9.778459E2,8.6492596E2,5.862331E2,3.9161282E2,5.287065E2,3.3621948E2],"tree_param":{"num_deleted":"0","num_feature":"14","num_nodes":"7","size_leaf_vector":"1"}},{"base_weights":[3.203095E-3,3.764869E-1,-3.114895E-1,5.0611245E-3,1.3774468E-3,-1.3694135E-3,-7.512361E-3],"categories":[],"categories_nodes":[],"categories_segments":[],"categories_sizes":[],"default_left":[0,0,0,0,0,0,0],"id":13,"left_children":[1,3,5,-1,-1,-1,-1],"loss_changes":[2.191891E2,2.634365E1,7.760749E1,0E0,0E0,0E0,0E0],"parents":[2147483647,0,0,1,1,2,2],"right_children":[2,4,6,-1,-1,-1,-1],"split_conditions":[5.9402242E-2,4.979447E-2,1.0225848E-1,5.0611245E-3,1.3774468E-3,-1.3694135E-3,-7.512361E-3],"split_indices":[9,10,10,0,0,0,0],"split_type":[0,0,0,0,0,0,0],"sum_hessian":[1.8639229E3,8.5250146E2,1.0114214E3,5.5178754E2,3.00714E2,7.249709E2,2.864505E2],"tree_param":{"num_deleted":"0","num_feature":"14","num_nodes":"7","size_leaf_vector":"1"}},{"base_weights":[-1.2012365E-2,2.407036E-1,-4.6133247E-1,4.8792437E-3,5.098176E-4,-3.1127122E-3,-7.96523E-3],"categories":[],"categories_nodes":[],"categories_segments":[],"categories_sizes":[],"default_left":[0,0,0,0,0,0,0],"id":14,"left_children":[1,3,5,-1,-1,-1,-1],"loss_changes":[2.1043965E2,5.5610268E1,3.3307785E1,0E0,0E0,0E0,0E0],"parents":[2147483647,0,0,1,1,2,2],"right_children":[2,4,6,-1,-1,-1,-1],"split_conditions":[7.377885E-2,4.8712015E-2,1.12116285E-1,4.8792437E-3,5.098176E-4,-3.1127122E-3,-7.96523E-3],"split_indices":[10,10,10,0,0,0,0],"split_type":[0,0,0,0,0,0,0],"sum_hessian":[1.8512935E3,1.1851698E3,6.661236E2,5.1392194E2,6.7124786E2,4.614611E2,2.0466252E2],"tree_param":{"num_deleted":"0","num_feature":"14","num_nodes":"7","size_leaf_vector":"1"}},{"base_weights":[3.1651475E-3,2.8299373E-1,-4.1111547E-1,4.7719562E-3,8.789054E-4,-2.1790594E-3,-7.2825872E-3],"categories":[],"categories_nodes":[],"categories_segments":[],"categories_sizes":[],"default_left":[0,0,0,0,0,0,0],"id":15,"left_children":[1,3,5,-1,-1,-1,-1],"loss_changes":[2.1323297E2,4.155388E1,4.5279175E1,0E0,0E0,0E0,0E0],"parents":[2147483647,0,0,1,1,2,2],"right_children":[2,4,6,-1,-1,-1,-1],"split_conditions":[6.990483E-2,4.979447E-2,1.0225848E-1,4.7719562E-3,8.789054E-4,-2.1790594E-3,-7.2825872E-3],"split_indices":[10,10,10,0,0,0,0],"split_type":[0,0,0,0,0,0,0],"sum_hessian":[1.8373604E3,1.0968218E3,7.4053864E2,5.4895593E2,5.478658E2,4.6123367E2,2.7930496E2],"tree_param":{"num_deleted":"0","num_feature":"14","num_nodes":"7","size_leaf_vector":"1"}},{"base_weights":[-3.982732E-3,2.5520742E-1,-4.5711175E-1,4.7217854E-3,3.774475E-4,-1.9848435E-3,-7.050464E-3],"categories":[],"categories_nodes":[],"categories_segments":[],"categories_sizes":[],"default_left":[0,0,0,0,0,0,0],"id":16,"left_children":[1,3,5,-1,-1,-1,-1],"loss_changes":[2.1644283E2,5.5296852E1,4.2858887E1,0E0,0E0,0E0,0E0],"parents":[2147483647,0,0,1,1,2,2],"right_children":[2,4,6,-1,-1,-1,-1],"split_conditions":[7.3382124E-2,5.1183935E-2,9.588279E-2,4.7217854E-3,3.774475E-4,-1.9848435E-3,-7.050464E-3],"split_indices":[10,10,10,0,0,0,0],"split_type":[0,0,0,0,0,0,0],"sum_hessian":[1.8409115E3,1.1713406E3,6.695709E2,5.857466E2,5.85594E2,3.2859995E2,3.4097095E2],"tree_param":{"num_deleted":"0","num_feature":"14","num_nodes":"7","size_leaf_vector":"1"}},{"base_weights":[1.3169088E-2,2.3487279E-1,-5.38254E-1,4.8973793E-3,2.959783E-4,-3.7432325E-3,-8.714529E-3],"categories":[],"categories_nodes":[],"categories_segments":[],"categories_sizes":[],"default_left":[0,0,0,0,0,0,0],"id":17,"left_children":[1,3,5,-1,-1,-1,-1],"loss_changes":[2.259117E2,6.893767E1,2.8618774E1,0E0,0E0,0E0,0E0],"parents":[2147483647,0,0,1,1,2,2],"right_children":[2,4,6,-1,-1,-1,-1],"split_conditions":[8.1754126E-2,5.1183935E-2,1.1736422E-1,4.8973793E-3,2.959783E-4,-3.7432325E-3,-8.714529E-3],"split_indices":[10,10,10,0,0,0,0],"split_type":[0,0,0,0,0,0,0],"sum_hessian":[1.845876E3,1.3169575E3,5.289184E2,5.86895E2,7.3006256E2,3.559283E2,1.7299005E2],"tree_param":{"num_deleted":"0","num_feature":"14","num_nodes":"7","size_leaf_vector":"1"}},{"base_weights":[-1.6435368E-2,3.541211E-1,-3.0342314E-1,4.488116E-3,1.0618115E-3,-1.3329716E-3,-6.742261E-3],"categories":[],"categories_nodes":[],"categories_segments":[],"categories_sizes":[],"default_left":[0,0,0,0,0,0,0],"id":18,"left_children":[1,3,5,-1,-1,-1,-1],"loss_changes":[1.9685246E2,1.8920517E1,6.57143E1,0E0,0E0,0E0,0E0],"parents":[2147483647,0,0,1,1,2,2],"right_children":[2,4,6,-1,-1,-1,-1],"split_conditions":[5.8044683E-2,5.1183935E-2,9.729382E-2,4.488116E-3,1.0618115E-3,-1.3329716E-3,-6.742261E-3],"split_indices":[9,10,10,0,0,0,0],"split_type":[0,0,0,0,0,0,0],"sum_hessian":[1.8490605E3,8.069277E2,1.0421328E3,5.833361E2,2.235916E2,7.153066E2,3.2682626E2],"tree_param":{"num_deleted":"0","num_feature":"14","num_nodes":"7","size_leaf_vector":"1"}},{"base_weights":[1.5837633E-3,2.9436526E-1,-4.1393906E-1,5.056232E-3,9.919811E-4,-2.294244E-3,-7.4807396E-3],"categories":[],"categories_nodes":[],"categories_segments":[],"categories_sizes":[],"default_left":[0,0,0,0,0,0,0],"id":19,"left_children":[1,3,5,-1,-1,-1,-1],"loss_changes":[2.2471928E2,4.4628014E1,4.6902176E1,0E0,0E0,0E0,0E0],"parents":[2147483647,0,0,1,1,2,2],"right_children":[2,4,6,-1,-1,-1,-1],"split_conditions":[6.938555E-2,4.899005E-2,1.0355611E-1,5.056232E-3,9.919811E-4,-2.294244E-3,-7.4807396E-3],"split_indices":[10,10,10,0,0,0,0],"split_type":[0,0,0,0,0,0,0],"sum_hessian":[1.8451471E3,1.0826165E3,7.625307E2,5.1911334E2,5.6350305E2,4.9233957E2,2.701911E2],"tree_param":{"num_deleted":"0","num_feature":"14","num_nodes":"7","size_leaf_vector":"1"}},{"base_weights":[5.807243E-3,3.2539114E-1,-3.2942942E-1,6.3829767E-3,2.4385594E-3,-1.4150393E-3,-6.5903952E-3],"categories":[],"categories_nodes":[],"categories_segments":[],"categories_sizes":[],"default_left":[0,0,0,0,0,0,0],"id":20,"left_children":[1,3,5,-1,-1,-1,-1],"loss_changes":[1.9777722E2,2.3955872E1,5.571427E1,0E0,0E0,0E0,0E0],"parents":[2147483647,0,0,1,1,2,2],"right_children":[2,4,6,-1,-1,-1,-1],"split_conditions":[6.335312E-2,3.794416E-2,9.729382E-2,6.3829767E-3,2.4385594E-3,-1.4150393E-3,-6.5903952E-3],"split_indices":[10,10,10,0,0,0,0],"split_type":[0,0,0,0,0,0,0],"sum_hessian":[1.8440342E3,9.440719E2,8.999622E2,1.9373795E2,7.503339E2,5.740818E2,3.2588046E2],"tree_param":{"num_deleted":"0","num_feature":"14","num_nodes":"7","size_leaf_vector":"1"}},{"base_weights":[1.4422223E-2,2.672689E-1,-4.272577E-1,4.676639E-3,6.771958E-4,-2.9277648E-3,-8.120514E-3],"categories":[],"categories_nodes":[],"categories_segments":[],"categories_sizes":[],"default_left":[0,0,0,0,0,0,0],"id":21,"left_children":[1,3,5,-1,-1,-1,-1],"loss_changes":[2.0349797E2,4.6306396E1,3.409127E1,0E0,0E0,0E0,0E0],"parents":[2147483647,0,0,1,1,2,2],"right_children":[2,4,6,-1,-1,-1,-1],"split_conditions":[7.3382124E-2,5.1183935E-2,1.1736422E-1,4.676639E-3,6.771958E-4,-2.9277648E-3,-8.120514E-3],"split_indices":[10,10,10,0,0,0,0],"split_type":[0,0,0,0,0,0,0],"sum_hessian":[1.820174E3,1.1577795E3,6.623944E2,5.769953E2,5.807843E2,4.9215317E2,1.7024124E2],"tree_param":{"num_deleted":"0","num_feature":"14","num_nodes":"7","size_leaf_vector":"1"}},{"base_weights":[-9.032927E-3,2.4573642E-1,-4.5572126E-1,4.384602E-3,5.4521766E-4,-3.1538168E-3,-8.333128E-3],"categories":[],"categories_nodes":[],"categories_segments":[],"categories_sizes":[],"default_left":[0,0,0,0,0,0,0],"id":22,"left_children":[1,3,5,-1,-1,-1,-1],"loss_changes":[2.0882732E2,4.3039032E1,3.5053802E1,0E0,0E0,0E0,0E0],"parents":[2147483647,0,0,1,1,2,2],"right_children":[2,4,6,-1,-1,-1,-1],"split_conditions":[7.3382124E-2,5.1183935E-2,1.1736422E-1,4.384602E-3,5.4521766E-4,-3.1538168E-3,-8.333128E-3],"split_indices":[10,10,10,0,0,0,0],"split_type":[0,0,0,0,0,0,0],"sum_hessian":[1.8330137E3,1.1675498E3,6.6546387E2,5.808363E2,5.867135E2,4.8648645E2,1.789774E2],"tree_param":{"num_deleted":"0","num_feature":"14","num_nodes":"7","size_leaf_vector":"1"}},{"base_weights":[-1.3399487E-2,3.2624692E-1,-3.1679368E-1,4.4549066E-3,8.574724E-4,-1.3995881E-3,-6.5598837E-3],"categories":[],"categories_nodes":[],"categories_segments":[],"categories_sizes":[],"default_left":[0,0,0,0,0,0,0],"id":23,"left_children":[1,3,5,-1,-1,-1,-1],"loss_changes":[1.8995877E2,2.4905098E1,5.8309227E1,0E0,0E0,0E0,0E0],"parents":[2147483647,0,0,1,1,2,2],"right_children":[2,4,6,-1,-1,-1,-1],"split_conditions":[6.0290966E-2,5.1183935E-2,9.729382E-2,4.4549066E-3,8.574724E-4,-1.3995881E-3,-6.5598837E-3],"split_indices":[9,10,10,0,0,0,0],"split_type":[0,0,0,0,0,0,0],"sum_hessian":[1.8414202E3,8.687684E2,9.726518E2,5.802288E2,2.8853952E2,6.4026855E2,3.3238327E2],"tree_param":{"num_deleted":"0","num_feature":"14","num_nodes":"7","size_leaf_vector":"1"}},{"base_weights":[1.0165436E-2,3.5535288E-1,-2.8068745E-1,6.3974727E-3,2.7072201E-3,-1.7761703E-3,-7.6255416E-3],"categories":[],"categories_nodes":[],"categories_segments":[],"categories_sizes":[],"default_left":[0,0,0,0,0,0,0],"id":24,"left_children":[1,3,5,-1,-1,-1,-1],"loss_changes":[1.847649E2,2.0081367E1,4.947017E1,0E0,0E0,0E0,0E0],"parents":[2147483647,0,0,1,1,2,2],"right_children":[2,4,6,-1,-1,-1,-1],"split_conditions":[5.9402242E-2,3.794416E-2,1.1736422E-1,6.3974727E-3,2.7072201E-3,-1.7761703E-3,-7.6255416E-3],"split_indices":[9,10,10,0,0,0,0],"split_type":[0,0,0,0,0,0,0],"sum_hessian":[1.8383169E3,8.4053674E2,9.977802E2,1.9126125E2,6.492755E2,8.230911E2,1.7468906E2],"tree_param":{"num_deleted":"0","num_feature":"14","num_nodes":"7","size_leaf_vector":"1"}},{"base_weights":[-1.3433663E-2,2.2185065E-1,-4.1710857E-1,4.3677725E-3,6.863975E-5,-2.5670137E-3,-6.80631E-3],"categories":[],"categories_nodes":[],"categories_segments":[],"categories_sizes":[],"default_left":[0,0,0,0,0,0,0],"id":25,"left_children":[1,3,5,-1,-1,-1,-1],"loss_changes":[1.7417336E2,5.353121E1,2.8369019E1,0E0,0E0,0E0,0E0],"parents":[2147483647,0,0,1,1,2,2],"right_children":[2,4,6,-1,-1,-1,-1],"split_conditions":[7.3382124E-2,5.1183935E-2,1.0561481E-1,4.3677725E-3,6.863975E-5,-2.5670137E-3,-6.80631E-3],"split_indices":[10,10,10,0,0,0,0],"split_type":[0,0,0,0,0,0,0],"sum_hessian":[1.8318473E3,1.1575897E3,6.742576E2,5.783598E2,5.7922986E2,4.2035806E2,2.5389954E2],"tree_param":{"num_deleted":"0","num_feature":"14","num_nodes":"7","size_leaf_vector":"1"}},{"base_weights":[-1.2273283E-2,1.92231E-1,-5.1258624E-1,4.224304E-3,1.0031143E-4,-3.3392448E-3,-7.722747E-3],"categories":[],"categories_nodes":[],"categories_segments":[],"categories_sizes":[],"default_left":[0,0,0,0,0,0,0],"id":26,"left_children":[1,3,5,-1,-1,-1,-1],"loss_changes":[1.8722012E2,5.447619E1,2.4374863E1,0E0,0E0,0E0,0E0],"parents":[2147483647,0,0,1,1,2,2],"right_children":[2,4,6,-1,-1,-1,-1],"split_conditions":[8.1754126E-2,5.1183935E-2,1.11360155E-1,4.224304E-3,1.0031143E-4,-3.3392448E-3,-7.722747E-3],"split_indices":[10,10,9,0,0,0,0],"split_type":[0,0,0,0,0,0,0],"sum_hessian":[1.8278569E3,1.2979373E3,5.299196E2,5.72852E2,7.2508527E2,3.1529047E2,2.1462917E2],"tree_param":{"num_deleted":"0","num_feature":"14","num_nodes":"7","size_leaf_vector":"1"}},{"base_weights":[-3.576396E-3,1.6061692E-1,-5.195128E-1,4.1557485E-3,1.1588374E-4,4.027407E-3,-5.7566226E-3],"categories":[],"categories_nodes":[],"categories_segments":[],"categories_sizes":[],"default_left":[0,0,0,0,0,0,0],"id":27,"left_children":[1,3,5,-1,-1,-1,-1],"loss_changes":[1.5522607E2,5.281059E1,2.3139015E1,0E0,0E0,0E0,0E0],"parents":[2147483647,0,0,1,1,2,2],"right_children":[2,4,6,-1,-1,-1,-1],"split_conditions":[8.801328E-2,4.8712015E-2,5E0,4.1557485E-3,1.1588374E-4,4.027407E-3,-5.7566226E-3],"split_indices":[9,10,13,0,0,0,0],"split_type":[0,0,0,0,0,0,0],"sum_hessian":[1.8303845E3,1.3890251E3,4.413593E2,5.117445E2,8.772807E2,2.4974894E1,4.1638443E2],"tree_param":{"num_deleted":"0","num_feature":"14","num_nodes":"7","size_leaf_vector":"1"}},{"base_weights":[7.6603596E-3,1.7763072E-1,-5.425758E-1,3.6472823E-3,-3.5963175E-4,2.9153575E-3,-5.8939583E-3],"categories":[],"categories_nodes":[],"categories_segments":[],"categories_sizes":[],"default_left":[0,0,0,0,0,0,0],"id":28,"left_children":[1,3,5,-1,-1,-1,-1],"loss_changes":[1.7193243E2,5.614039E1,1.7115631E1,0E0,0E0,0E0,0E0],"parents":[2147483647,0,0,1,1,2,2],"right_children":[2,4,6,-1,-1,-1,-1],"split_conditions":[8.801328E-2,5.6405928E-2,5E0,3.6472823E-3,-3.5963175E-4,2.9153575E-3,-5.8939583E-3],"split_indices":[9,10,13,0,0,0,0],"split_type":[0,0,0,0,0,0,0],"sum_hessian":[1.8363502E3,1.4034847E3,4.3286548E2,7.477691E2,6.557157E2,2.2728287E1,4.101372E2],"tree_param":{"num_deleted":"0","num_feature":"14","num_nodes":"7","size_leaf_vector":"1"}},{"base_weights":[-1.20320665E-2,2.1927413E-1,-4.105691E-1,5.5415593E-3,1.3742481E-3,-2.7348085E-3,-7.2254012E-3],"categories":[],"categories_nodes":[],"categories_segments":[],"categories_sizes":[],"default_left":[0,0,0,0,0,0,0],"id":29,"left_children":[1,3,5,-1,-1,-1,-1],"loss_changes":[1.6888268E2,3.1698788E1,2.857582E1,0E0,0E0,0E0,0E0],"parents":[2147483647,0,0,1,1,2,2],"right_children":[2,4,6,-1,-1,-1,-1],"split_conditions":[7.3382124E-2,3.9407335E-2,1.12116285E-1,5.5415593E-3,1.3742481E-3,-2.7348085E-3,-7.2254012E-3],"split_indices":[10,10,10,0,0,0,0],"split_type":[0,0,0,0,0,0,0],"sum_hessian":[1.8300388E3,1.1582526E3,6.717863E2,2.2635666E2,9.318959E2,4.6800797E2,2.0377834E2],"tree_param":{"num_deleted":"0","num_feature":"14","num_nodes":"7","size_leaf_vector":"1"}},{"base_weights":[1.0301845E-2,2.9468742E-1,-3.027665E-1,4.570049E-3,1.1040486E-3,-1.3418078E-3,-5.7455697E-3],"categories":[],"categories_nodes":[],"categories_segments":[],"categories_sizes":[],"default_left":[0,0,0,0,0,0,0],"id":30,"left_children":[1,3,5,-1,-1,-1,-1],"loss_changes":[1.6307077E2,2.8657707E1,3.987097E1,0E0,0E0,0E0,0E0],"parents":[2147483647,0,0,1,1,2,2],"right_children":[2,4,6,-1,-1,-1,-1],"split_conditions":[6.4204276E-2,4.8712015E-2,9.663642E-2,4.570049E-3,1.1040486E-3,-1.3418078E-3,-5.7455697E-3],"split_indices":[10,10,10,0,0,0,0],"split_type":[0,0,0,0,0,0,0],"sum_hessian":[1.8295928E3,9.5874506E2,8.708477E2,5.089649E2,4.4978012E2,5.3838983E2,3.3245786E2],"tree_param":{"num_deleted":"0","num_feature":"14","num_nodes":"7","size_leaf_vector":"1"}},{"base_weights":[-8.3104465E-3,2.8029585E-1,-3.0606574E-1,1.5756086E-3,4.8983777E-3,-1.89634E-3,-7.821699E-3],"categories":[],"categories_nodes":[],"categories_segments":[],"categories_sizes":[],"default_left":[0,0,0,0,0,0,0],"id":31,"left_children":[1,3,5,-1,-1,-1,-1],"loss_changes":[1.5794899E2,2.3927269E1,5.0000267E1,0E0,0E0,0E0,0E0],"parents":[2147483647,0,0,1,1,2,2],"right_children":[2,4,6,-1,-1,-1,-1],"split_conditions":[6.335312E-2,2.3095E6,1.1736422E-1,1.5756086E-3,4.8983777E-3,-1.89634E-3,-7.821699E-3],"split_indices":[10,5,10,0,0,0,0],"split_type":[0,0,0,0,0,0,0],"sum_hessian":[1.8360275E3,9.3236725E2,9.036602E2,5.8907837E2,3.4328888E2,7.272169E2,1.7644328E2],"tree_param":{"num_deleted":"0","num_feature":"14","num_nodes":"7","size_leaf_vector":"1"}},{"base_weights":[-9.396889E-3,2.219868E-1,-3.939296E-1,4.0528765E-3,3.3451244E-4,-2.2005953E-3,-6.335263E-3],"categories":[],"categories_nodes":[],"categories_segments":[],"categories_sizes":[],"default_left":[0,0,0,0,0,0,0],"id":32,"left_children":[1,3,5,-1,-1,-1,-1],"loss_changes":[1.6369592E2,3.9682827E1,2.8653336E1,0E0,0E0,0E0,0E0],"parents":[2147483647,0,0,1,1,2,2],"right_children":[2,4,6,-1,-1,-1,-1],"split_conditions":[7.2810255E-2,5.1183935E-2,1.0149921E-1,4.0528765E-3,3.3451244E-4,-2.2005953E-3,-6.335263E-3],"split_indices":[10,10,9,0,0,0,0],"split_type":[0,0,0,0,0,0,0],"sum_hessian":[1.8378223E3,1.1476644E3,6.901579E2,5.813277E2,5.663367E2,4.0104602E2,2.8911185E2],"tree_param":{"num_deleted":"0","num_feature":"14","num_nodes":"7","size_leaf_vector":"1"}},{"base_weights":[1.2660186E-2,3.3432007E-1,-2.5664726E-1,1.5717393E-3,5.0370744E-3,-6.472355E-4,-5.0776834E-3],"categories":[],"categories_nodes":[],"categories_segments":[],"categories_sizes":[],"default_left":[0,0,0,0,0,0,0],"id":33,"left_children":[1,3,5,-1,-1,-1,-1],"loss_changes":[1.587429E2,2.4978325E1,4.804065E1,0E0,0E0,0E0,0E0],"parents":[2147483647,0,0,1,1,2,2],"right_children":[2,4,6,-1,-1,-1,-1],"split_conditions":[5.9402242E-2,1.5123E6,8.801328E-2,1.5717393E-3,5.0370744E-3,-6.472355E-4,-5.0776834E-3],"split_indices":[9,5,9,0,0,0,0],"split_type":[0,0,0,0,0,0,0],"sum_hessian":[1.8305311E3,8.340742E2,9.9645685E2,4.0864218E2,4.2543207E2,5.655121E2,4.309448E2],"tree_param":{"num_deleted":"0","num_feature":"14","num_nodes":"7","size_leaf_vector":"1"}},{"base_weights":[-4.5333295E-3,2.8204498E-1,-3.235409E-1,5.7758205E-3,2.0947643E-3,-1.1094675E-3,-5.410457E-3],"categories":[],"categories_nodes":[],"categories_segments":[],"categories_sizes":[],"default_left":[0,0,0,0,0,0,0],"id":34,"left_children":[1,3,5,-1,-1,-1,-1],"loss_changes":[1.6910202E2,2.077649E1,4.0415176E1,0E0,0E0,0E0,0E0],"parents":[2147483647,0,0,1,1,2,2],"right_children":[2,4,6,-1,-1,-1,-1],"split_conditions":[6.448525E-2,3.794416E-2,8.857866E-2,5.7758205E-3,2.0947643E-3,-1.1094675E-3,-5.410457E-3],"split_indices":[10,10,9,0,0,0,0],"split_type":[0,0,0,0,0,0,0],"sum_hessian":[1.8477156E3,9.733916E2,8.74324E2,1.9052304E2,7.828685E2,4.4291702E2,4.3140698E2],"tree_param":{"num_deleted":"0","num_feature":"14","num_nodes":"7","size_leaf_vector":"1"}},{"base_weights":[8.576034E-3,3.005844E-1,-2.3901103E-1,1.5873736E-3,4.575111E-3,-1.419242E-3,-6.9537377E-3],"categories":[],"categories_nodes":[],"categories_segments":[],"categories_sizes":[],"default_left":[0,0,0,0,0,0,0],"id":35,"left_children":[1,3,5,-1,-1,-1,-1],"loss_changes":[1.3251349E2,1.8647423E1,4.3849686E1,0E0,0E0,0E0,0E0],"parents":[2147483647,0,0,1,1,2,2],"right_children":[2,4,6,-1,-1,-1,-1],"split_conditions":[5.9402242E-2,1.706E6,1.1736422E-1,1.5873736E-3,4.575111E-3,-1.419242E-3,-6.9537377E-3],"split_indices":[9,5,10,0,0,0,0],"split_type":[0,0,0,0,0,0,0],"sum_hessian":[1.8308982E3,8.3998804E2,9.9091016E2,4.4224847E2,3.977396E2,8.181644E2,1.7274571E2],"tree_param":{"num_deleted":"0","num_feature":"14","num_nodes":"7","size_leaf_vector":"1"}},{"base_weights":[1.2146439E-2,2.2978751E-1,-3.5348243E-1,3.9811037E-3,6.10277E-4,-2.2985595E-3,-7.0740012E-3],"categories":[],"categories_nodes":[],"categories_segments":[],"categories_sizes":[],"default_left":[0,0,0,0,0,0,0],"id":36,"left_children":[1,3,5,-1,-1,-1,-1],"loss_changes":[1.4572507E2,3.2583626E1,2.9735695E1,0E0,0E0,0E0,0E0],"parents":[2147483647,0,0,1,1,2,2],"right_children":[2,4,6,-1,-1,-1,-1],"split_conditions":[7.3382124E-2,5.1183935E-2,1.1736422E-1,3.9811037E-3,6.10277E-4,-2.2985595E-3,-7.0740012E-3],"split_indices":[10,10,10,0,0,0,0],"split_type":[0,0,0,0,0,0,0],"sum_hessian":[1.8292518E3,1.1469185E3,6.8233325E2,5.735222E2,5.733963E2,5.0691354E2,1.7541971E2],"tree_param":{"num_deleted":"0","num_feature":"14","num_nodes":"7","size_leaf_vector":"1"}},{"base_weights":[-9.723145E-3,2.1736738E-1,-3.9117703E-1,3.9541437E-3,3.5732784E-4,-2.3765615E-3,-7.857165E-3],"categories":[],"categories_nodes":[],"categories_segments":[],"categories_sizes":[],"default_left":[0,0,0,0,0,0,0],"id":37,"left_children":[1,3,5,-1,-1,-1,-1],"loss_changes":[1.5808456E2,3.6980774E1,4.10617E1,0E0,0E0,0E0,0E0],"parents":[2147483647,0,0,1,1,2,2],"right_children":[2,4,6,-1,-1,-1,-1],"split_conditions":[7.2810255E-2,5.1183935E-2,1.1438963E-1,3.9541437E-3,3.5732784E-4,-2.3765615E-3,-7.857165E-3],"split_indices":[10,10,10,0,0,0,0],"split_type":[0,0,0,0,0,0,0],"sum_hessian":[1.8229578E3,1.1429542E3,6.8000354E2,5.765829E2,5.663714E2,4.906767E2,1.8932683E2],"tree_param":{"num_deleted":"0","num_feature":"14","num_nodes":"7","size_leaf_vector":"1"}},{"base_weights":[-7.147812E-4,2.0147137E-1,-3.4110376E-1,4.0936605E-3,3.8072406E-4,-2.2826956E-3,-6.80805E-3],"categories":[],"categories_nodes":[],"categories_segments":[],"categories_sizes":[],"default_left":[0,0,0,0,0,0,0],"id":38,"left_children":[1,3,5,-1,-1,-1,-1],"loss_changes":[1.26503944E2,3.9157375E1,2.6099236E1,0E0,0E0,0E0,0E0],"parents":[2147483647,0,0,1,1,2,2],"right_children":[2,4,6,-1,-1,-1,-1],"split_conditions":[7.2810255E-2,4.8712015E-2,1.1736422E-1,4.0936605E-3,3.8072406E-4,-2.2826956E-3,-6.80805E-3],"split_indices":[10,10,10,0,0,0,0],"split_type":[0,0,0,0,0,0,0],"sum_hessian":[1.8361355E3,1.1521708E3,6.839648E2,5.06385E2,6.457857E2,5.146816E2,1.6928319E2],"tree_param":{"num_deleted":"0","num_feature":"14","num_nodes":"7","size_leaf_vector":"1"}},{"base_weights":[-2.178579E-3,2.1962732E-1,-3.6652595E-1,3.9441986E-3,7.6172885E-4,-9.718202E-4,-4.9600494E-3],"categories":[],"categories_nodes":[],"categories_segments":[],"categories_sizes":[],"default_left":[0,0,0,0,0,0,0],"id":39,"left_children":[1,3,5,-1,-1,-1,-1],"loss_changes":[1.4808205E2,2.85299E1,2.4133163E1,0E0,0E0,0E0,0E0],"parents":[2147483647,0,0,1,1,2,2],"right_children":[2,4,6,-1,-1,-1,-1],"split_conditions":[7.2810255E-2,4.899005E-2,1E1,3.9441986E-3,7.6172885E-4,-9.718202E-4,-4.9600494E-3],"split_indices":[10,10,13,0,0,0,0],"split_type":[0,0,0,0,0,0,0],"sum_hessian":[1.8303761E3,1.1379916E3,6.9238464E2,5.1217755E2,6.25814E2,2.2535301E2,4.6703162E2],"tree_param":{"num_deleted":"0","num_feature":"14","num_nodes":"7","size_leaf_vector":"1"}},{"base_weights":[-4.3175025E-3,2.838389E-1,-3.168826E-1,4.202862E-3,7.867026E-4,-1.3380286E-3,-5.940204E-3],"categories":[],"categories_nodes":[],"categories_segments":[],"categories_sizes":[],"default_left":[0,0,0,0,0,0,0],"id":40,"left_children":[1,3,5,-1,-1,-1,-1],"loss_changes":[1.6678836E2,2.694085E1,4.4990257E1,0E0,0E0,0E0,0E0],"parents":[2147483647,0,0,1,1,2,2],"right_children":[2,4,6,-1,-1,-1,-1],"split_conditions":[6.4204276E-2,5.1183935E-2,9.506137E-2,4.202862E-3,7.867026E-4,-1.3380286E-3,-5.940204E-3],"split_indices":[10,10,10,0,0,0,0],"split_type":[0,0,0,0,0,0,0],"sum_hessian":[1.8498138E3,9.625359E2,8.8727795E2,5.774527E2,3.8508313E2,5.352017E2,3.5207626E2],"tree_param":{"num_deleted":"0","num_feature":"14","num_nodes":"7","size_leaf_vector":"1"}},{"base_weights":[-6.613636E-5,1.7014574E-1,-4.2290395E-1,4.1425386E-3,8.571783E-5,-2.827233E-3,-7.063892E-3],"categories":[],"categories_nodes":[],"categories_segments":[],"categories_sizes":[],"default_left":[0,0,0,0,0,0,0],"id":41,"left_children":[1,3,5,-1,-1,-1,-1],"loss_changes":[1.3205095E2,5.1592255E1,2.0726715E1,0E0,0E0,0E0,0E0],"parents":[2147483647,0,0,1,1,2,2],"right_children":[2,4,6,-1,-1,-1,-1],"split_conditions":[8.1754126E-2,4.899005E-2,1.1736422E-1,4.1425386E-3,8.571783E-5,-2.827233E-3,-7.063892E-3],"split_indices":[10,10,10,0,0,0,0],"split_type":[0,0,0,0,0,0,0],"sum_hessian":[1.8327544E3,1.3071595E3,5.2559485E2,5.199891E2,7.8717053E2,3.5302487E2,1.7256999E2],"tree_param":{"num_deleted":"0","num_feature":"14","num_nodes":"7","size_leaf_vector":"1"}},{"base_weights":[9.035924E-4,1.644477E-1,-4.0884006E-1,3.602056E-3,2.814666E-4,-9.942638E-4,-5.4033417E-3],"categories":[],"categories_nodes":[],"categories_segments":[],"categories_sizes":[],"default_left":[0,0,0,0,0,0,0],"id":42,"left_children":[1,3,5,-1,-1,-1,-1],"loss_changes":[1.2285513E2,3.4952404E1,2.1225441E1,0E0,0E0,0E0,0E0],"parents":[2147483647,0,0,1,1,2,2],"right_children":[2,4,6,-1,-1,-1,-1],"split_conditions":[8.1754126E-2,4.979447E-2,1E1,3.602056E-3,2.814666E-4,-9.942638E-4,-5.4033417E-3],"split_indices":[10,10,13,0,0,0,0],"split_type":[0,0,0,0,0,0,0],"sum_hessian":[1.8313502E3,1.3093414E3,5.220088E2,5.3677423E2,7.725672E2,1.5620497E2,3.658038E2],"tree_param":{"num_deleted":"0","num_feature":"14","num_nodes":"7","size_leaf_vector":"1"}},{"base_weights":[1.4052705E-2,2.1684724E-1,-3.3625188E-1,3.863472E-3,4.8453375E-4,-2.2641025E-3,-6.3556796E-3],"categories":[],"categories_nodes":[],"categories_segments":[],"categories_sizes":[],"default_left":[0,0,0,0,0,0,0],"id":43,"left_children":[1,3,5,-1,-1,-1,-1],"loss_changes":[1.300414E2,3.307172E1,2.1922935E1,0E0,0E0,0E0,0E0],"parents":[2147483647,0,0,1,1,2,2],"right_children":[2,4,6,-1,-1,-1,-1],"split_conditions":[7.3382124E-2,5.1183935E-2,1.1736422E-1,3.863472E-3,4.8453375E-4,-2.2641025E-3,-6.3556796E-3],"split_indices":[10,10,10,0,0,0,0],"split_type":[0,0,0,0,0,0,0],"sum_hessian":[1.8285149E3,1.1583287E3,6.701861E2,5.766234E2,5.817053E2,4.9155423E2,1.786319E2],"tree_param":{"num_deleted":"0","num_feature":"14","num_nodes":"7","size_leaf_vector":"1"}},{"base_weights":[-2.9311266E-3,1.6882513E-1,-4.2111227E-1,3.837988E-3,2.7672085E-4,-2.8409297E-3,-6.9619245E-3],"categories":[],"categories_nodes":[],"categories_segments":[],"categories_sizes":[],"default_left":[0,0,0,0,0,0,0],"id":44,"left_children":[1,3,5,-1,-1,-1,-1],"loss_changes":[1.311457E2,3.9264294E1,1.9838776E1,0E0,0E0,0E0,0E0],"parents":[2147483647,0,0,1,1,2,2],"right_children":[2,4,6,-1,-1,-1,-1],"split_conditions":[8.1754126E-2,4.899005E-2,1.1736422E-1,3.837988E-3,2.7672085E-4,-2.8409297E-3,-6.9619245E-3],"split_indices":[10,10,10,0,0,0,0],"split_type":[0,0,0,0,0,0,0],"sum_hessian":[1.8239106E3,1.2933141E3,5.305965E2,5.1193176E2,7.813824E2,3.5553488E2,1.7506158E2],"tree_param":{"num_deleted":"0","num_feature":"14","num_nodes":"7","size_leaf_vector":"1"}},{"base_weights":[-5.3924294E-3,1.4049128E-1,-4.8332202E-1,3.5667224E-3,-1.0677645E-4,-1.4163038E-3,-6.148228E-3],"categories":[],"categories_nodes":[],"categories_segments":[],"categories_sizes":[],"default_left":[0,0,0,0,0,0,0],"id":45,"left_children":[1,3,5,-1,-1,-1,-1],"loss_changes":[1.2756171E2,4.5812477E1,1.9137718E1,0E0,0E0,0E0,0E0],"parents":[2147483647,0,0,1,1,2,2],"right_children":[2,4,6,-1,-1,-1,-1],"split_conditions":[8.857866E-2,5.1183935E-2,1E1,3.5667224E-3,-1.0677645E-4,-1.4163038E-3,-6.148228E-3],"split_indices":[9,10,13,0,0,0,0],"split_type":[0,0,0,0,0,0,0],"sum_hessian":[1.8275984E3,1.400741E3,4.268575E2,5.758624E2,8.248785E2,1.1920145E2,3.0765607E2],"tree_param":{"num_deleted":"0","num_feature":"14","num_nodes":"7","size_leaf_vector":"1"}},{"base_weights":[1.6266344E-2,3.250914E-1,-1.9139755E-1,5.697364E-3,2.355874E-3,7.356467E-4,-3.3346799E-3],"categories":[],"categories_nodes":[],"categories_segments":[],"categories_sizes":[],"default_left":[0,0,0,0,0,0,0],"id":46,"left_children":[1,3,5,-1,-1,-1,-1],"loss_changes":[1.1815362E2,1.6085388E1,4.1494354E1,0E0,0E0,0E0,0E0],"parents":[2147483647,0,0,1,1,2,2],"right_children":[2,4,6,-1,-1,-1,-1],"split_conditions":[5.5924326E-2,3.815356E-2,1E1,5.697364E-3,2.355874E-3,7.356467E-4,-3.3346799E-3],"split_indices":[10,10,13,0,0,0,0],"split_type":[0,0,0,0,0,0,0],"sum_hessian":[1.8403856E3,7.397336E2,1.1006521E3,1.9670523E2,5.430284E2,3.8433926E2,7.163128E2],"tree_param":{"num_deleted":"0","num_feature":"14","num_nodes":"7","size_leaf_vector":"1"}},{"base_weights":[1.3911933E-2,2.3256318E-1,-3.4346655E-1,4.14086E-3,5.075865E-4,-6.844751E-4,-4.744206E-3],"categories":[],"categories_nodes":[],"categories_segments":[],"categories_sizes":[],"default_left":[0,0,0,0,0,0,0],"id":47,"left_children":[1,3,5,-1,-1,-1,-1],"loss_changes":[1.436586E2,3.761956E1,2.5100845E1,0E0,0E0,0E0,0E0],"parents":[2147483647,0,0,1,1,2,2],"right_children":[2,4,6,-1,-1,-1,-1],"split_conditions":[7.2810255E-2,5.1183935E-2,1E1,4.14086E-3,5.075865E-4,-6.844751E-4,-4.744206E-3],"split_indices":[10,10,13,0,0,0,0],"split_type":[0,0,0,0,0,0,0],"sum_hessian":[1.8364253E3,1.1395657E3,6.968596E2,5.6958527E2,5.699804E2,2.2527605E2,4.715836E2],"tree_param":{"num_deleted":"0","num_feature":"14","num_nodes":"7","size_leaf_vector":"1"}},{"base_weights":[1.7779404E-3,1.6919234E-1,-4.1785142E-1,3.7037178E-3,4.2811333E-4,-1.0351058E-3,-5.5307695E-3],"categories":[],"categories_nodes":[],"categories_segments":[],"categories_sizes":[],"default_left":[0,0,0,0,0,0,0],"id":48,"left_children":[1,3,5,-1,-1,-1,-1],"loss_changes":[1.2872163E2,3.3284668E1,2.2154144E1,0E0,0E0,0E0,0E0],"parents":[2147483647,0,0,1,1,2,2],"right_children":[2,4,6,-1,-1,-1,-1],"split_conditions":[8.21512E-2,4.8712015E-2,1E1,3.7037178E-3,4.2811333E-4,-1.0351058E-3,-5.5307695E-3],"split_indices":[10,10,13,0,0,0,0],"split_type":[0,0,0,0,0,0,0],"sum_hessian":[1.8302778E3,1.308742E3,5.21536E2,5.0420044E2,8.0454144E2,1.574044E2,3.641316E2],"tree_param":{"num_deleted":"0","num_feature":"14","num_nodes":"7","size_leaf_vector":"1"}},{"base_weights":[3.4067947E-3,2.0065756E-1,-3.243307E-1,3.4071084E-3,5.63494E-4,-2.2209606E-3,-6.2815472E-3],"categories":[],"categories_nodes":[],"categories_segments":[],"categories_sizes":[],"default_left":[0,0,0,0,0,0,0],"id":49,"left_children":[1,3,5,-1,-1,-1,-1],"loss_changes":[1.1858939E2,2.312582E1,2.126931E1,0E0,0E0,0E0,0E0],"parents":[2147483647,0,0,1,1,2,2],"right_children":[2,4,6,-1,-1,-1,-1],"split_conditions":[7.2810255E-2,5.1183935E-2,1.1736422E-1,3.4071084E-3,5.63494E-4,-2.2209606E-3,-6.2815472E-3],"split_indices":[10,10,10,0,0,0,0],"split_type":[0,0,0,0,0,0,0],"sum_hessian":[1.8324227E3,1.1441793E3,6.8824347E2,5.7995917E2,5.6422015E2,5.162575E2,1.7198595E2],"tree_param":{"num_deleted":"0","num_feature":"14","num_nodes":"7","size_leaf_vector":"1"}},{"base_weights":[-1.9298797E-2,1.9728954E-1,-3.2583657E-1,5.073707E-3,1.1374888E-3,-6.024313E-4,-4.601634E-3],"categories":[],"categories_nodes":[],"categories_segments":[],"categories_sizes":[],"default_left":[0,0,0,0,0,0,0],"id":50,"left_children":[1,3,5,-1,-1,-1,-1],"loss_changes":[1.2148006E2,2.771762E1,2.6998245E1,0E0,0E0,0E0,0E0],"parents":[2147483647,0,0,1,1,2,2],"right_children":[2,4,6,-1,-1,-1,-1],"split_conditions":[6.938555E-2,3.9407335E-2,1E1,5.073707E-3,1.1374888E-3,-6.024313E-4,-4.601634E-3],"split_indices":[10,10,13,0,0,0,0],"split_type":[0,0,0,0,0,0,0],"sum_hessian":[1.8277572E3,1.0712251E3,7.5653204E2,2.2627565E2,8.449495E2,2.5459357E2,5.0193845E2],"tree_param":{"num_deleted":"0","num_feature":"14","num_nodes":"7","size_leaf_vector":"1"}},{"base_weights":[-5.026827E-3,1.1521945E-1,-5.405096E-1,3.4063421E-3,-2.6956075E-4,-2.430737E-3,-6.516598E-3],"categories":[],"categories_nodes":[],"categories_segments":[],"categories_sizes":[],"default_left":[0,0,0,0,0,0,0],"id":51,"left_children":[1,3,5,-1,-1,-1,-1],"loss_changes":[1.1818344E2,4.8046394E1,1.0968864E1,0E0,0E0,0E0,0E0],"parents":[2147483647,0,0,1,1,2,2],"right_children":[2,4,6,-1,-1,-1,-1],"split_conditions":[9.663642E-2,5.1183935E-2,1E1,3.4063421E-3,-2.6956075E-4,-2.430737E-3,-6.516598E-3],"split_indices":[10,10,13,0,0,0,0],"split_type":[0,0,0,0,0,0,0],"sum_hessian":[1.8334698E3,1.4978927E3,3.3557715E2,5.788108E2,9.19082E2,9.215613E1,2.4342102E2],"tree_param":{"num_deleted":"0","num_feature":"14","num_nodes":"7","size_leaf_vector":"1"}},{"base_weights":[-1.0903944E-3,1.5254956E-1,-3.9561805E-1,3.4261541E-3,5.7136433E-5,6.7274175E-3,-4.3457407E-3],"categories":[],"categories_nodes":[],"categories_segments":[],"categories_sizes":[],"default_left":[0,0,0,0,0,0,0],"id":52,"left_children":[1,3,5,-1,-1,-1,-1],"loss_changes":[1.1109302E2,3.681156E1,2.1671349E1,0E0,0E0,0E0,0E0],"parents":[2147483647,0,0,1,1,2,2],"right_children":[2,4,6,-1,-1,-1,-1],"split_conditions":[8.253741E-2,5.1183935E-2,4E0,3.4261541E-3,5.7136433E-5,6.7274175E-3,-4.3457407E-3],"split_indices":[10,10,13,0,0,0,0],"split_type":[0,0,0,0,0,0,0],"sum_hessian":[1.8307622E3,1.3180792E3,5.1268304E2,5.73893E2,7.4418616E2,1.7464127E1,4.9521893E2],"tree_param":{"num_deleted":"0","num_feature":"14","num_nodes":"7","size_leaf_vector":"1"}},{"base_weights":[1.238483E-2,2.1164091E-1,-3.2963505E-1,4.972755E-3,1.4269549E-3,-1.5262184E-3,-5.2303737E-3],"categories":[],"categories_nodes":[],"categories_segments":[],"categories_sizes":[],"default_left":[0,0,0,0,0,0,0],"id":53,"left_children":[1,3,5,-1,-1,-1,-1],"loss_changes":[1.2466599E2,2.269152E1,2.2974602E1,0E0,0E0,0E0,0E0],"parents":[2147483647,0,0,1,1,2,2],"right_children":[2,4,6,-1,-1,-1,-1],"split_conditions":[7.3382124E-2,3.9407335E-2,9.729382E-2,4.972755E-3,1.4269549E-3,-1.5262184E-3,-5.2303737E-3],"split_indices":[10,10,10,0,0,0,0],"split_type":[0,0,0,0,0,0,0],"sum_hessian":[1.8272769E3,1.1548552E3,6.7242163E2,2.2334492E2,9.315104E2,3.520207E2,3.2040094E2],"tree_param":{"num_deleted":"0","num_feature":"14","num_nodes":"7","size_leaf_vector":"1"}},{"base_weights":[-2.491032E-3,3.0207327E-1,-2.2642645E-1,1.3214675E-3,4.891558E-3,-1.0097976E-3,-5.088976E-3],"categories":[],"categories_nodes":[],"categories_segments":[],"categories_sizes":[],"default_left":[0,0,0,0,0,0,0],"id":54,"left_children":[1,3,5,-1,-1,-1,-1],"loss_changes":[1.2499852E2,2.4622887E1,3.7374146E1,0E0,0E0,0E0,0E0],"parents":[2147483647,0,0,1,1,2,2],"right_children":[2,4,6,-1,-1,-1,-1],"split_conditions":[5.7255078E-2,1.706E6,9.729382E-2,1.3214675E-3,4.891558E-3,-1.0097976E-3,-5.088976E-3],"split_indices":[9,5,10,0,0,0,0],"split_type":[0,0,0,0,0,0,0],"sum_hessian":[1.8307465E3,7.755744E2,1.0551721E3,4.073164E2,3.68258E2,7.316158E2,3.2355634E2],"tree_param":{"num_deleted":"0","num_feature":"14","num_nodes":"7","size_leaf_vector":"1"}},{"base_weights":[-6.1711143E-3,1.9130558E-1,-3.3883834E-1,3.7398504E-3,4.9690355E-4,-2.168469E-3,-6.8251053E-3],"categories":[],"categories_nodes":[],"categories_segments":[],"categories_sizes":[],"default_left":[0,0,0,0,0,0,0],"id":55,"left_children":[1,3,5,-1,-1,-1,-1],"loss_changes":[1.207409E2,2.9818207E1,2.8554535E1,0E0,0E0,0E0,0E0],"parents":[2147483647,0,0,1,1,2,2],"right_children":[2,4,6,-1,-1,-1,-1],"split_conditions":[7.3382124E-2,4.8712015E-2,1.1736422E-1,3.7398504E-3,4.9690355E-4,-2.168469E-3,-6.8251053E-3],"split_indices":[10,10,10,0,0,0,0],"split_type":[0,0,0,0,0,0,0],"sum_hessian":[1.8359414E3,1.1523265E3,6.836149E2,5.0248926E2,6.498373E2,5.0572977E2,1.7788515E2],"tree_param":{"num_deleted":"0","num_feature":"14","num_nodes":"7","size_leaf_vector":"1"}},{"base_weights":[-1.5368889E-4,3.1271085E-1,-2.3075198E-1,2.0787572E-3,4.9937516E-3,-9.409611E-4,-5.6564785E-3],"categories":[],"categories_nodes":[],"categories_segments":[],"categories_sizes":[],"default_left":[0,0,0,0,0,0,0],"id":56,"left_children":[1,3,5,-1,-1,-1,-1],"loss_changes":[1.3210506E2,1.5100327E1,4.8189453E1,0E0,0E0,0E0,0E0],"parents":[2147483647,0,0,1,1,2,2],"right_children":[2,4,6,-1,-1,-1,-1],"split_conditions":[5.7255078E-2,3.8897E6,9.900096E-2,2.0787572E-3,4.9937516E-3,-9.409611E-4,-5.6564785E-3],"split_indices":[9,4,9,0,0,0,0],"split_type":[0,0,0,0,0,0,0],"sum_hessian":[1.8290787E3,7.7595056E2,1.0531282E3,4.982405E2,2.7771008E2,7.4884094E2,3.0428717E2],"tree_param":{"num_deleted":"0","num_feature":"14","num_nodes":"7","size_leaf_vector":"1"}},{"base_weights":[-7.5190887E-4,1.8216677E-1,-2.555305E-1,4.760834E-3,1.177559E-3,-1.4469543E-3,-6.131383E-3],"categories":[],"categories_nodes":[],"categories_segments":[],"categories_sizes":[],"default_left":[0,0,0,0,0,0,0],"id":57,"left_children":[1,3,5,-1,-1,-1,-1],"loss_changes":[8.457808E1,1.9943024E1,2.9972355E1,0E0,0E0,0E0,0E0],"parents":[2147483647,0,0,1,1,2,2],"right_children":[2,4,6,-1,-1,-1,-1],"split_conditions":[6.938555E-2,3.794416E-2,1.1736422E-1,4.760834E-3,1.177559E-3,-1.4469543E-3,-6.131383E-3],"split_indices":[10,10,10,0,0,0,0],"split_type":[0,0,0,0,0,0,0],"sum_hessian":[1.8128346E3,1.0553962E3,7.5743835E2,1.8856303E2,8.6683325E2,5.792983E2,1.7814006E2],"tree_param":{"num_deleted":"0","num_feature":"14","num_nodes":"7","size_leaf_vector":"1"}},{"base_weights":[1.5731934E-2,2.674275E-1,-2.2272804E-1,6.676715E-3,2.2777792E-3,-7.858347E-4,-4.7604204E-3],"categories":[],"categories_nodes":[],"categories_segments":[],"categories_sizes":[],"default_left":[0,0,0,0,0,0,0],"id":58,"left_children":[1,3,5,-1,-1,-1,-1],"loss_changes":[1.1083913E2,1.4105087E1,3.458982E1,0E0,0E0,0E0,0E0],"parents":[2147483647,0,0,1,1,2,2],"right_children":[2,4,6,-1,-1,-1,-1],"split_conditions":[6.136784E-2,3.3682235E-2,9.506137E-2,6.676715E-3,2.2777792E-3,-7.858347E-4,-4.7604204E-3],"split_indices":[10,10,10,0,0,0,0],"split_type":[0,0,0,0,0,0,0],"sum_hessian":[1.8447318E3,8.974003E2,9.473315E2,7.945904E1,8.179413E2,6.04602E2,3.4272952E2],"tree_param":{"num_deleted":"0","num_feature":"14","num_nodes":"7","size_leaf_vector":"1"}},{"base_weights":[-2.4664714E-3,1.4439823E-1,-3.6486125E-1,3.2565428E-3,2.4145174E-4,-9.087532E-4,-4.8439936E-3],"categories":[],"categories_nodes":[],"categories_segments":[],"categories_sizes":[],"default_left":[0,0,0,0,0,0,0],"id":59,"left_children":[1,3,5,-1,-1,-1,-1],"loss_changes":[9.810072E1,2.8581755E1,1.7365395E1,0E0,0E0,0E0,0E0],"parents":[2147483647,0,0,1,1,2,2],"right_children":[2,4,6,-1,-1,-1,-1],"split_conditions":[8.1754126E-2,4.9212214E-2,1E1,3.2565428E-3,2.4145174E-4,-9.087532E-4,-4.8439936E-3],"split_indices":[10,10,13,0,0,0,0],"split_type":[0,0,0,0,0,0,0],"sum_hessian":[1.8412119E3,1.3106552E3,5.305567E2,5.2205676E2,7.885984E2,1.6169824E2,3.6885843E2],"tree_param":{"num_deleted":"0","num_feature":"14","num_nodes":"7","size_leaf_vector":"1"}},{"base_weights":[4.5332967E-5,1.2699148E-1,-4.2042366E-1,3.3142772E-3,-1.1299925E-4,6.676974E-3,-4.599623E-3],"categories":[],"categories_nodes":[],"categories_segments":[],"categories_sizes":[],"default_left":[0,0,0,0,0,0,0],"id":60,"left_children":[1,3,5,-1,-1,-1,-1],"loss_changes":[9.7182236E1,3.954073E1,1.84721E1,0E0,0E0,0E0,0E0],"parents":[2147483647,0,0,1,1,2,2],"right_children":[2,4,6,-1,-1,-1,-1],"split_conditions":[8.857866E-2,5.1183935E-2,4E0,3.3142772E-3,-1.1299925E-4,6.676974E-3,-4.599623E-3],"split_indices":[9,10,13,0,0,0,0],"split_type":[0,0,0,0,0,0,0],"sum_hessian":[1.8186786E3,1.3974613E3,4.2121735E2,5.633153E2,8.3414594E2,1.421192E1,4.0700543E2],"tree_param":{"num_deleted":"0","num_feature":"14","num_nodes":"7","size_leaf_vector":"1"}},{"base_weights":[-7.099909E-3,3.3379993E-1,-1.5942387E-1,2.3486433E-3,5.2244095E-3,-5.8149756E-4,-4.353968E-3],"categories":[],"categories_nodes":[],"categories_segments":[],"categories_sizes":[],"default_left":[0,0,0,0,0,0,0],"id":61,"left_children":[1,3,5,-1,-1,-1,-1],"loss_changes":[9.4946686E1,1.0416382E1,3.529476E1,0E0,0E0,0E0,0E0],"parents":[2147483647,0,0,1,1,2,2],"right_children":[2,4,6,-1,-1,-1,-1],"split_conditions":[5.1183935E-2,2.5355E6,9.588279E-2,2.3486433E-3,5.2244095E-3,-5.8149756E-4,-4.353968E-3],"split_indices":[10,5,10,0,0,0,0],"split_type":[0,0,0,0,0,0,0],"sum_hessian":[1.8264324E3,5.636953E2,1.262737E3,3.712387E2,1.924566E2,9.246337E2,3.3810327E2],"tree_param":{"num_deleted":"0","num_feature":"14","num_nodes":"7","size_leaf_vector":"1"}},{"base_weights":[-1.3789103E-2,1.663957E-1,-3.1404662E-1,2.8680072E-3,4.172679E-4,-2.1153404E-3,-6.2055574E-3],"categories":[],"categories_nodes":[],"categories_segments":[],"categories_sizes":[],"default_left":[0,0,0,0,0,0,0],"id":62,"left_children":[1,3,5,-1,-1,-1,-1],"loss_changes":[9.9286316E1,1.7204807E1,2.1494156E1,0E0,0E0,0E0,0E0],"parents":[2147483647,0,0,1,1,2,2],"right_children":[2,4,6,-1,-1,-1,-1],"split_conditions":[7.2810255E-2,5.1183935E-2,1.1736422E-1,2.8680072E-3,4.172679E-4,-2.1153404E-3,-6.2055574E-3],"split_indices":[10,10,10,0,0,0,0],"split_type":[0,0,0,0,0,0,0],"sum_hessian":[1.8332086E3,1.1459618E3,6.872468E2,5.822882E2,5.636736E2,5.162696E2,1.7097725E2],"tree_param":{"num_deleted":"0","num_feature":"14","num_nodes":"7","size_leaf_vector":"1"}},{"base_weights":[7.53754E-3,1.5248509E-1,-3.507962E-1,3.5422489E-3,2.7714408E-4,-6.001058E-4,-4.7842287E-3],"categories":[],"categories_nodes":[],"categories_segments":[],"categories_sizes":[],"default_left":[0,0,0,0,0,0,0],"id":63,"left_children":[1,3,5,-1,-1,-1,-1],"loss_changes":[9.4287544E1,3.252322E1,1.9374588E1,0E0,0E0,0E0,0E0],"parents":[2147483647,0,0,1,1,2,2],"right_children":[2,4,6,-1,-1,-1,-1],"split_conditions":[8.1754126E-2,4.8712015E-2,1E1,3.5422489E-3,2.7714408E-4,-6.001058E-4,-4.7842287E-3],"split_indices":[10,10,13,0,0,0,0],"split_type":[0,0,0,0,0,0,0],"sum_hessian":[1.8133009E3,1.2914701E3,5.2183075E2,4.9281155E2,7.9865857E2,1.5962045E2,3.622103E2],"tree_param":{"num_deleted":"0","num_feature":"14","num_nodes":"7","size_leaf_vector":"1"}},{"base_weights":[-1.7110127E-3,2.88661E-1,-1.7419204E-1,1.7547243E-3,4.3598497E-3,5.55099E-4,-3.0218686E-3],"categories":[],"categories_nodes":[],"categories_segments":[],"categories_sizes":[],"default_left":[0,0,0,0,0,0,0],"id":64,"left_children":[1,3,5,-1,-1,-1,-1],"loss_changes":[9.1501366E1,1.12764015E1,3.3714294E1,0E0,0E0,0E0,0E0],"parents":[2147483647,0,0,1,1,2,2],"right_children":[2,4,6,-1,-1,-1,-1],"split_conditions":[5.4645553E-2,3.0665E6,1E1,1.7547243E-3,4.3598497E-3,5.55099E-4,-3.0218686E-3],"split_indices":[9,4,13,0,0,0,0],"split_type":[0,0,0,0,0,0,0],"sum_hessian":[1.8249662E3,6.7981805E2,1.1451481E3,3.8568698E2,2.941311E2,4.0997165E2,7.3517645E2],"tree_param":{"num_deleted":"0","num_feature":"14","num_nodes":"7","size_leaf_vector":"1"}},{"base_weights":[-8.672439E-3,2.3138621E-1,-2.0868608E-1,4.531754E-3,1.5101826E-3,-8.7917043E-4,-4.74097E-3],"categories":[],"categories_nodes":[],"categories_segments":[],"categories_sizes":[],"default_left":[0,0,0,0,0,0,0],"id":65,"left_children":[1,3,5,-1,-1,-1,-1],"loss_changes":[8.8062904E1,1.4790367E1,3.2026474E1,0E0,0E0,0E0,0E0],"parents":[2147483647,0,0,1,1,2,2],"right_children":[2,4,6,-1,-1,-1,-1],"split_conditions":[5.9402242E-2,3.9407335E-2,9.900096E-2,4.531754E-3,1.5101826E-3,-8.7917043E-4,-4.74097E-3],"split_indices":[9,10,9,0,0,0,0],"split_type":[0,0,0,0,0,0,0],"sum_hessian":[1.832065E3,8.3260547E2,9.994595E2,2.2022311E2,6.123824E2,6.878161E2,3.1164334E2],"tree_param":{"num_deleted":"0","num_feature":"14","num_nodes":"7","size_leaf_vector":"1"}},{"base_weights":[-8.018838E-3,1.5349841E-1,-3.1919238E-1,3.0546233E-3,1.3679992E-4,3.8828375E-3,-3.6718808E-3],"categories":[],"categories_nodes":[],"categories_segments":[],"categories_sizes":[],"default_left":[0,0,0,0,0,0,0],"id":66,"left_children":[1,3,5,-1,-1,-1,-1],"loss_changes":[9.1802795E1,2.5544992E1,2.1335194E1,0E0,0E0,0E0,0E0],"parents":[2147483647,0,0,1,1,2,2],"right_children":[2,4,6,-1,-1,-1,-1],"split_conditions":[7.594206E-2,5.1183935E-2,5E0,3.0546233E-3,1.3679992E-4,3.8828375E-3,-3.6718808E-3],"split_indices":[10,10,13,0,0,0,0],"split_type":[0,0,0,0,0,0,0],"sum_hessian":[1.8245868E3,1.2014636E3,6.2312317E2,5.751585E2,6.263051E2,3.9137074E1,5.839861E2],"tree_param":{"num_deleted":"0","num_feature":"14","num_nodes":"7","size_leaf_vector":"1"}},{"base_weights":[-9.827286E-3,2.5132707E-1,-1.8303926E-1,1.5228041E-3,4.2244205E-3,6.4268074E-4,-3.1639703E-3],"categories":[],"categories_nodes":[],"categories_segments":[],"categories_sizes":[],"default_left":[0,0,0,0,0,0,0],"id":67,"left_children":[1,3,5,-1,-1,-1,-1],"loss_changes":[8.2717285E1,1.2294579E1,3.6278404E1,0E0,0E0,0E0,0E0],"parents":[2147483647,0,0,1,1,2,2],"right_children":[2,4,6,-1,-1,-1,-1],"split_conditions":[5.5924326E-2,3.7297E6,1E1,1.5228041E-3,4.2244205E-3,6.4268074E-4,-3.1639703E-3],"split_indices":[10,4,13,0,0,0,0],"split_type":[0,0,0,0,0,0,0],"sum_hessian":[1.826593E3,7.282094E2,1.0983835E3,4.6243036E2,2.6577908E2,3.8497644E2,7.134071E2],"tree_param":{"num_deleted":"0","num_feature":"14","num_nodes":"7","size_leaf_vector":"1"}},{"base_weights":[1.0039416E-2,1.8487237E-1,-2.788398E-1,2.968671E-3,3.321662E-4,-1.8173442E-3,-5.7505313E-3],"categories":[],"categories_nodes":[],"categories_segments":[],"categories_sizes":[],"default_left":[0,0,0,0,0,0,0],"id":68,"left_children":[1,3,5,-1,-1,-1,-1],"loss_changes":[9.181054E1,1.9223885E1,1.9609928E1,0E0,0E0,0E0,0E0],"parents":[2147483647,0,0,1,1,2,2],"right_children":[2,4,6,-1,-1,-1,-1],"split_conditions":[7.2810255E-2,5.3597663E-2,1.1736422E-1,2.968671E-3,3.321662E-4,-1.8173442E-3,-5.7505313E-3],"split_indices":[10,10,10,0,0,0,0],"split_type":[0,0,0,0,0,0,0],"sum_hessian":[1.8158077E3,1.1314198E3,6.8438794E2,6.502591E2,4.811607E2,5.166365E2,1.677515E2],"tree_param":{"num_deleted":"0","num_feature":"14","num_nodes":"7","size_leaf_vector":"1"}},{"base_weights":[-2.6393405E-4,1.2704518E-1,-4.2031756E-1,3.1785066E-3,-7.540989E-5,1.2420305E-3,-4.701906E-3],"categories":[],"categories_nodes":[],"categories_segments":[],"categories_sizes":[],"default_left":[0,0,0,0,0,0,0],"id":69,"left_children":[1,3,5,-1,-1,-1,-1],"loss_changes":[9.773983E1,3.602115E1,1.1602806E1,0E0,0E0,0E0,0E0],"parents":[2147483647,0,0,1,1,2,2],"right_children":[2,4,6,-1,-1,-1,-1],"split_conditions":[8.857866E-2,5.1183935E-2,-9.8604053E-1,3.1785066E-3,-7.540989E-5,1.2420305E-3,-4.701906E-3],"split_indices":[9,10,7,0,0,0,0],"split_type":[0,0,0,0,0,0,0],"sum_hessian":[1.8257118E3,1.4016113E3,4.2410037E2,5.7916125E2,8.2245013E2,3.5459396E1,3.8864096E2],"tree_param":{"num_deleted":"0","num_feature":"14","num_nodes":"7","size_leaf_vector":"1"}},{"base_weights":[-3.23652E-3,1.1644318E-1,-3.833719E-1,2.8469786E-3,3.3439348E-6,6.122979E-3,-4.4616875E-3],"categories":[],"categories_nodes":[],"categories_segments":[],"categories_sizes":[],"default_left":[0,0,0,0,0,0,0],"id":70,"left_children":[1,3,5,-1,-1,-1,-1],"loss_changes":[8.244205E1,2.692503E1,2.740334E1,0E0,0E0,0E0,0E0],"parents":[2147483647,0,0,1,1,2,2],"right_children":[2,4,6,-1,-1,-1,-1],"split_conditions":[8.801328E-2,5.1183935E-2,5E0,2.8469786E-3,3.3439348E-6,6.122979E-3,-4.4616875E-3],"split_indices":[9,10,13,0,0,0,0],"split_type":[0,0,0,0,0,0,0],"sum_hessian":[1.8101515E3,1.377242E3,4.329095E2,5.617504E2,8.154915E2,2.516456E1,4.0774493E2],"tree_param":{"num_deleted":"0","num_feature":"14","num_nodes":"7","size_leaf_vector":"1"}},{"base_weights":[-1.0058824E-2,1.4657138E-1,-2.7987564E-1,4.4808625E-3,8.960383E-4,-1.7946131E-3,-5.6980136E-3],"categories":[],"categories_nodes":[],"categories_segments":[],"categories_sizes":[],"default_left":[0,0,0,0,0,0,0],"id":71,"left_children":[1,3,5,-1,-1,-1,-1],"loss_changes":[7.708537E1,1.9783495E1,1.9401222E1,0E0,0E0,0E0,0E0],"parents":[2147483647,0,0,1,1,2,2],"right_children":[2,4,6,-1,-1,-1,-1],"split_conditions":[7.3382124E-2,3.7603367E-2,1.1736422E-1,4.4808625E-3,8.960383E-4,-1.7946131E-3,-5.6980136E-3],"split_indices":[10,10,10,0,0,0,0],"split_type":[0,0,0,0,0,0,0],"sum_hessian":[1.8220404E3,1.1531101E3,6.689303E2,1.8215324E2,9.709569E2,4.980516E2,1.7087868E2],"tree_param":{"num_deleted":"0","num_feature":"14","num_nodes":"7","size_leaf_vector":"1"}},{"base_weights":[1.6589168E-2,1.4889668E-1,-3.047835E-1,3.1276117E-3,4.688832E-4,-5.018627E-3,-1.2050297E-3],"categories":[],"categories_nodes":[],"categories_segments":[],"categories_sizes":[],"default_left":[0,0,0,0,0,0,0],"id":72,"left_children":[1,3,5,-1,-1,-1,-1],"loss_changes":[7.761306E1,2.1597227E1,1.9273003E1,0E0,0E0,0E0,0E0],"parents":[2147483647,0,0,1,1,2,2],"right_children":[2,4,6,-1,-1,-1,-1],"split_conditions":[8.1754126E-2,4.8712015E-2,1.881E6,3.1276117E-3,4.688832E-4,-5.018627E-3,-1.2050297E-3],"split_indices":[10,10,5,0,0,0,0],"split_type":[0,0,0,0,0,0,0],"sum_hessian":[1.8232626E3,1.2919216E3,5.3134094E2,4.9488333E2,7.970383E2,2.5592165E2,2.754193E2],"tree_param":{"num_deleted":"0","num_feature":"14","num_nodes":"7","size_leaf_vector":"1"}},{"base_weights":[6.8747834E-3,1.1808903E-1,-3.5752395E-1,2.9923895E-3,1.8071565E-4,-6.5690707E-3,-2.3039759E-3],"categories":[],"categories_nodes":[],"categories_segments":[],"categories_sizes":[],"default_left":[0,0,0,0,0,0,0],"id":73,"left_children":[1,3,5,-1,-1,-1,-1],"loss_changes":[7.3234604E1,2.5078873E1,1.5931141E1,0E0,0E0,0E0,0E0],"parents":[2147483647,0,0,1,1,2,2],"right_children":[2,4,6,-1,-1,-1,-1],"split_conditions":[8.857866E-2,4.8712015E-2,3.856E5,2.9923895E-3,1.8071565E-4,-6.5690707E-3,-2.3039759E-3],"split_indices":[9,10,11,0,0,0,0],"split_type":[0,0,0,0,0,0,0],"sum_hessian":[1.805045E3,1.3834829E3,4.2156213E2,4.9142697E2,8.9205597E2,1.2440962E2,2.9715253E2],"tree_param":{"num_deleted":"0","num_feature":"14","num_nodes":"7","size_leaf_vector":"1"}},{"base_weights":[4.8160157E-3,2.7576026E-1,-1.7680247E-1,1.8885976E-3,4.526147E-3,7.457701E-4,-3.1403792E-3],"categories":[],"categories_nodes":[],"categories_segments":[],"categories_sizes":[],"default_left":[0,0,0,0,0,0,0],"id":74,"left_children":[1,3,5,-1,-1,-1,-1],"loss_changes":[8.988441E1,1.11802635E1,3.775005E1,0E0,0E0,0E0,0E0],"parents":[2147483647,0,0,1,1,2,2],"right_children":[2,4,6,-1,-1,-1,-1],"split_conditions":[5.619939E-2,2.613111E6,1E1,1.8885976E-3,4.526147E-3,7.457701E-4,-3.1403792E-3],"split_indices":[10,5,13,0,0,0,0],"split_type":[0,0,0,0,0,0,0],"sum_hessian":[1.824613E3,7.320296E2,1.0925834E3,4.9223117E2,2.3979842E2,3.8599603E2,7.0658734E2],"tree_param":{"num_deleted":"0","num_feature":"14","num_nodes":"7","size_leaf_vector":"1"}},{"base_weights":[7.0317816E-3,2.0158158E-1,-1.9927569E-1,4.3652286E-3,1.2892988E-3,-9.849898E-4,-4.6265484E-3],"categories":[],"categories_nodes":[],"categories_segments":[],"categories_sizes":[],"default_left":[0,0,0,0,0,0,0],"id":75,"left_children":[1,3,5,-1,-1,-1,-1],"loss_changes":[7.31297E1,1.5949253E1,2.3425835E1,0E0,0E0,0E0,0E0],"parents":[2147483647,0,0,1,1,2,2],"right_children":[2,4,6,-1,-1,-1,-1],"split_conditions":[6.4204276E-2,3.9407335E-2,1.0655062E-1,4.3652286E-3,1.2892988E-3,-9.849898E-4,-4.6265484E-3],"split_indices":[10,10,9,0,0,0,0],"split_type":[0,0,0,0,0,0,0],"sum_hessian":[1.8199978E3,9.3670215E2,8.8329565E2,2.2006073E2,7.166414E2,6.3984564E2,2.4345001E2],"tree_param":{"num_deleted":"0","num_feature":"14","num_nodes":"7","size_leaf_vector":"1"}},{"base_weights":[-2.4149774E-3,1.5888768E-1,-2.7088046E-1,4.218092E-3,1.0769862E-3,3.0173725E-3,-3.1264084E-3],"categories":[],"categories_nodes":[],"categories_segments":[],"categories_sizes":[],"default_left":[0,0,0,0,0,0,0],"id":76,"left_children":[1,3,5,-1,-1,-1,-1],"loss_changes":[7.954793E1,1.5398577E1,1.6581024E1,0E0,0E0,0E0,0E0],"parents":[2147483647,0,0,1,1,2,2],"right_children":[2,4,6,-1,-1,-1,-1],"split_conditions":[7.2810255E-2,3.794416E-2,5E0,4.218092E-3,1.0769862E-3,3.0173725E-3,-3.1264084E-3],"split_indices":[10,10,13,0,0,0,0],"split_type":[0,0,0,0,0,0,0],"sum_hessian":[1.8349625E3,1.1465104E3,6.884521E2,1.8566129E2,9.608491E2,4.637217E1,6.420799E2],"tree_param":{"num_deleted":"0","num_feature":"14","num_nodes":"7","size_leaf_vector":"1"}},{"base_weights":[-2.1086931E-3,1.6115806E-1,-2.3068996E-1,5.580036E-4,3.505754E-3,5.7788253E-5,-3.5123276E-3],"categories":[],"categories_nodes":[],"categories_segments":[],"categories_sizes":[],"default_left":[0,0,0,0,0,0,0],"id":77,"left_children":[1,3,5,-1,-1,-1,-1],"loss_changes":[6.74121E1,2.1009102E1,2.1455246E1,0E0,0E0,0E0,0E0],"parents":[2147483647,0,0,1,1,2,2],"right_children":[2,4,6,-1,-1,-1,-1],"split_conditions":[6.938555E-2,3.8478E6,1E1,5.580036E-4,3.505754E-3,5.7788253E-5,-3.5123276E-3],"split_indices":[10,4,13,0,0,0,0],"split_type":[0,0,0,0,0,0,0],"sum_hessian":[1.8043438E3,1.052721E3,7.516228E2,6.772921E2,3.7542874E2,2.5410236E2,4.9752048E2],"tree_param":{"num_deleted":"0","num_feature":"14","num_nodes":"7","size_leaf_vector":"1"}},{"base_weights":[8.841055E-3,1.2596975E-1,-3.7031668E-1,4.0243223E-4,3.3422404E-3,4.48681E-3,-4.1781077E-3],"categories":[],"categories_nodes":[],"categories_segments":[],"categories_sizes":[],"default_left":[0,0,0,0,0,0,0],"id":78,"left_children":[1,3,5,-1,-1,-1,-1],"loss_changes":[8.0417656E1,2.4683718E1,1.681115E1,0E0,0E0,0E0,0E0],"parents":[2147483647,0,0,1,1,2,2],"right_children":[2,4,6,-1,-1,-1,-1],"split_conditions":[8.801328E-2,3.0044E6,5E0,4.0243223E-4,3.3422404E-3,4.48681E-3,-4.1781077E-3],"split_indices":[9,5,13,0,0,0,0],"split_type":[0,0,0,0,0,0,0],"sum_hessian":[1.80874E3,1.3823689E3,4.2637106E2,9.8010736E2,4.022616E2,2.2907228E1,4.0346384E2],"tree_param":{"num_deleted":"0","num_feature":"14","num_nodes":"7","size_leaf_vector":"1"}},{"base_weights":[2.6328925E-3,2.538124E-1,-1.8943462E-1,1.0410137E-3,4.1661784E-3,2.7660522E-4,-3.0474144E-3],"categories":[],"categories_nodes":[],"categories_segments":[],"categories_sizes":[],"default_left":[0,0,0,0,0,0,0],"id":79,"left_children":[1,3,5,-1,-1,-1,-1],"loss_changes":[8.675397E1,1.8949013E1,2.5517712E1,0E0,0E0,0E0,0E0],"parents":[2147483647,0,0,1,1,2,2],"right_children":[2,4,6,-1,-1,-1,-1],"split_conditions":[5.8044683E-2,1.706E6,1E1,1.0410137E-3,4.1661784E-3,2.7660522E-4,-3.0474144E-3],"split_indices":[9,5,13,0,0,0,0],"split_type":[0,0,0,0,0,0,0],"sum_hessian":[1.7962583E3,7.782142E2,1.0180441E3,4.0626468E2,3.7194946E2,3.5341275E2,6.6463135E2],"tree_param":{"num_deleted":"0","num_feature":"14","num_nodes":"7","size_leaf_vector":"1"}},{"base_weights":[-2.540933E-2,1.3691168E-1,-2.9395407E-1,4.4599397E-4,3.1555467E-3,-1.9419875E-3,-5.8410848E-3],"categories":[],"categories_nodes":[],"categories_segments":[],"categories_sizes":[],"default_left":[0,0,0,0,0,0,0],"id":80,"left_children":[1,3,5,-1,-1,-1,-1],"loss_changes":[8.0028915E1,1.8857853E1,1.9905209E1,0E0,0E0,0E0,0E0],"parents":[2147483647,0,0,1,1,2,2],"right_children":[2,4,6,-1,-1,-1,-1],"split_conditions":[7.2810255E-2,2.511729E6,1.1736422E-1,4.4599397E-4,3.1555467E-3,-1.9419875E-3,-5.8410848E-3],"split_indices":[10,5,10,0,0,0,0],"split_type":[0,0,0,0,0,0,0],"sum_hessian":[1.8340042E3,1.1433812E3,6.906229E2,7.5466437E2,3.8871686E2,5.151747E2,1.7544823E2],"tree_param":{"num_deleted":"0","num_feature":"14","num_nodes":"7","size_leaf_vector":"1"}},{"base_weights":[6.0209706E-3,1.7389604E-1,-1.7783672E-1,3.4006312E-3,9.331566E-4,6.538467E-4,-2.9969495E-3],"categories":[],"categories_nodes":[],"categories_segments":[],"categories_sizes":[],"default_left":[0,0,0,0,0,0,0],"id":81,"left_children":[1,3,5,-1,-1,-1,-1],"loss_changes":[5.618137E1,1.270797E1,2.5768717E1,0E0,0E0,0E0,0E0],"parents":[2147483647,0,0,1,1,2,2],"right_children":[2,4,6,-1,-1,-1,-1],"split_conditions":[6.4204276E-2,8E0,1E1,3.4006312E-3,9.331566E-4,6.538467E-4,-2.9969495E-3],"split_indices":[10,13,13,0,0,0,0],"split_type":[0,0,0,0,0,0,0],"sum_hessian":[1.81822E3,9.5044794E2,8.6777203E2,3.0933643E2,6.411115E2,2.898043E2,5.779678E2],"tree_param":{"num_deleted":"0","num_feature":"14","num_nodes":"7","size_leaf_vector":"1"}},{"base_weights":[1.4537731E-2,1.1878397E-1,-3.2142764E-1,3.891975E-4,3.117254E-3,4.9367133E-3,-3.778359E-3],"categories":[],"categories_nodes":[],"categories_segments":[],"categories_sizes":[],"default_left":[0,0,0,0,0,0,0],"id":82,"left_children":[1,3,5,-1,-1,-1,-1],"loss_changes":[6.3872257E1,2.1433372E1,2.0043869E1,0E0,0E0,0E0,0E0],"parents":[2147483647,0,0,1,1,2,2],"right_children":[2,4,6,-1,-1,-1,-1],"split_conditions":[8.801328E-2,2.973642E6,5E0,3.891975E-4,3.117254E-3,4.9367133E-3,-3.778359E-3],"split_indices":[9,5,13,0,0,0,0],"split_type":[0,0,0,0,0,0,0],"sum_hessian":[1.8216262E3,1.3907415E3,4.3088483E2,9.844499E2,4.062915E2,2.738727E1,4.0349756E2],"tree_param":{"num_deleted":"0","num_feature":"14","num_nodes":"7","size_leaf_vector":"1"}},{"base_weights":[-1.953239E-3,1.4321066E-1,-2.4103747E-1,5.5784715E-4,2.9146592E-3,-1.4463759E-3,-5.328818E-3],"categories":[],"categories_nodes":[],"categories_segments":[],"categories_sizes":[],"default_left":[0,0,0,0,0,0,0],"id":83,"left_children":[1,3,5,-1,-1,-1,-1],"loss_changes":[6.3051556E1,1.4635143E1,1.9231892E1,0E0,0E0,0E0,0E0],"parents":[2147483647,0,0,1,1,2,2],"right_children":[2,4,6,-1,-1,-1,-1],"split_conditions":[7.2810255E-2,3.6868E6,1.1736422E-1,5.5784715E-4,2.9146592E-3,-1.4463759E-3,-5.328818E-3],"split_indices":[10,4,10,0,0,0,0],"split_type":[0,0,0,0,0,0,0],"sum_hessian":[1.8147181E3,1.129391E3,6.8532715E2,7.1130914E2,4.1808182E2,5.1628674E2,1.6904044E2],"tree_param":{"num_deleted":"0","num_feature":"14","num_nodes":"7","size_leaf_vector":"1"}},{"base_weights":[1.0640395E-3,1.3784243E-1,-3.4145072E-1,2.7454416E-3,4.9514405E-4,-6.714989E-4,-4.6296995E-3],"categories":[],"categories_nodes":[],"categories_segments":[],"categories_sizes":[],"default_left":[0,0,0,0,0,0,0],"id":84,"left_children":[1,3,5,-1,-1,-1,-1],"loss_changes":[8.4391266E1,1.5529928E1,1.7104141E1,0E0,0E0,0E0,0E0],"parents":[2147483647,0,0,1,1,2,2],"right_children":[2,4,6,-1,-1,-1,-1],"split_conditions":[8.1754126E-2,4.899005E-2,1E1,2.7454416E-3,4.9514405E-4,-6.714989E-4,-4.6296995E-3],"split_indices":[10,10,13,0,0,0,0],"split_type":[0,0,0,0,0,0,0],"sum_hessian":[1.7993563E3,1.2862916E3,5.130647E2,5.0406387E2,7.822277E2,1.5799074E2,3.5507394E2],"tree_param":{"num_deleted":"0","num_feature":"14","num_nodes":"7","size_leaf_vector":"1"}},{"base_weights":[-1.0387573E-3,9.9206135E-2,-3.2800093E-1,2.6291492E-3,1.2334784E-5,-4.152673E-3,8.013992E-4],"categories":[],"categories_nodes":[],"categories_segments":[],"categories_sizes":[],"default_left":[0,0,0,0,0,0,0],"id":85,"left_children":[1,3,5,-1,-1,-1,-1],"loss_changes":[5.912204E1,2.214225E1,1.5108711E1,0E0,0E0,0E0,0E0],"parents":[2147483647,0,0,1,1,2,2],"right_children":[2,4,6,-1,-1,-1,-1],"split_conditions":[8.857866E-2,4.979447E-2,1.4855952E2,2.6291492E-3,1.2334784E-5,-4.152673E-3,8.013992E-4],"split_indices":[9,10,2,0,0,0,0],"split_type":[0,0,0,0,0,0,0],"sum_hessian":[1.8018124E3,1.3795471E3,4.2226532E2,5.158675E2,8.636796E2,3.4786856E2,7.439675E1],"tree_param":{"num_deleted":"0","num_feature":"14","num_nodes":"7","size_leaf_vector":"1"}},{"base_weights":[-3.395878E-3,1.7876555E-1,-2.1893905E-1,9.866541E-4,3.2578644E-3,-1.1847893E-3,-5.2043837E-3],"categories":[],"categories_nodes":[],"categories_segments":[],"categories_sizes":[],"default_left":[0,0,0,0,0,0,0],"id":86,"left_children":[1,3,5,-1,-1,-1,-1],"loss_changes":[7.133616E1,1.1563892E1,2.5143593E1,0E0,0E0,0E0,0E0],"parents":[2147483647,0,0,1,1,2,2],"right_children":[2,4,6,-1,-1,-1,-1],"split_conditions":[6.598932E-2,3.8478E6,1.11360155E-1,9.866541E-4,3.2578644E-3,-1.1847893E-3,-5.2043837E-3],"split_indices":[10,4,9,0,0,0,0],"split_type":[0,0,0,0,0,0,0],"sum_hessian":[1.814853E3,9.836848E2,8.311683E2,6.3784454E2,3.4584027E2,6.2448254E2,2.0668573E2],"tree_param":{"num_deleted":"0","num_feature":"14","num_nodes":"7","size_leaf_vector":"1"}},{"base_weights":[1.3210854E-2,2.4664685E-1,-1.5150894E-1,1.0706239E-3,3.953542E-3,5.9645344E-4,-2.6959123E-3],"categories":[],"categories_nodes":[],"categories_segments":[],"categories_sizes":[],"default_left":[0,0,0,0,0,0,0],"id":87,"left_children":[1,3,5,-1,-1,-1,-1],"loss_changes":[6.936057E1,1.5447575E1,2.6386614E1,0E0,0E0,0E0,0E0],"parents":[2147483647,0,0,1,1,2,2],"right_children":[2,4,6,-1,-1,-1,-1],"split_conditions":[5.7105906E-2,1.706E6,1E1,1.0706239E-3,3.953542E-3,5.9645344E-4,-2.6959123E-3],"split_indices":[9,5,13,0,0,0,0],"split_type":[0,0,0,0,0,0,0],"sum_hessian":[1.8018724E3,7.452413E2,1.0566311E3,3.852993E2,3.59942E2,3.7914337E2,6.774878E2],"tree_param":{"num_deleted":"0","num_feature":"14","num_nodes":"7","size_leaf_vector":"1"}},{"base_weights":[-6.074945E-3,2.315962E-1,-1.6260475E-1,1.3209006E-3,4.1941553E-3,4.8063355E-4,-2.76835E-3],"categories":[],"categories_nodes":[],"categories_segments":[],"categories_sizes":[],"default_left":[0,0,0,0,0,0,0],"id":88,"left_children":[1,3,5,-1,-1,-1,-1],"loss_changes":[6.77329E1,1.3456051E1,2.6428635E1,0E0,0E0,0E0,0E0],"parents":[2147483647,0,0,1,1,2,2],"right_children":[2,4,6,-1,-1,-1,-1],"split_conditions":[5.5924326E-2,3.8897E6,1E1,1.3209006E-3,4.1941553E-3,4.8063355E-4,-2.76835E-3],"split_indices":[10,4,13,0,0,0,0],"split_type":[0,0,0,0,0,0,0],"sum_hessian":[1.8186366E3,7.2195605E2,1.0966805E3,4.730427E2,2.4891336E2,3.85783E2,7.1089746E2],"tree_param":{"num_deleted":"0","num_feature":"14","num_nodes":"7","size_leaf_vector":"1"}},{"base_weights":[1.0038543E-2,1.14643835E-1,-3.262925E-1,5.903818E-4,3.7383314E-3,3.9925305E-3,-3.714084E-3],"categories":[],"categories_nodes":[],"categories_segments":[],"categories_sizes":[],"default_left":[0,0,0,0,0,0,0],"id":89,"left_children":[1,3,5,-1,-1,-1,-1],"loss_changes":[6.3743767E1,1.9894833E1,1.4218372E1,0E0,0E0,0E0,0E0],"parents":[2147483647,0,0,1,1,2,2],"right_children":[2,4,6,-1,-1,-1,-1],"split_conditions":[8.801328E-2,7.7544E6,5E0,5.903818E-4,3.7383314E-3,3.9925305E-3,-3.714084E-3],"split_indices":[9,4,13,0,0,0,0],"split_type":[0,0,0,0,0,0,0],"sum_hessian":[1.8097653E3,1.3809293E3,4.2883588E2,1.1380117E3,2.4291763E2,2.4645288E1,4.041906E2],"tree_param":{"num_deleted":"0","num_feature":"14","num_nodes":"7","size_leaf_vector":"1"}},{"base_weights":[1.2423975E-2,1.2579429E-1,-2.695163E-1,2.732766E-3,3.2209943E-4,-3.7306445E-3,1.1806308E-3],"categories":[],"categories_nodes":[],"categories_segments":[],"categories_sizes":[],"default_left":[0,0,0,0,0,0,0],"id":90,"left_children":[1,3,5,-1,-1,-1,-1],"loss_changes":[5.777114E1,1.7781826E1,2.0847256E1,0E0,0E0,0E0,0E0],"parents":[2147483647,0,0,1,1,2,2],"right_children":[2,4,6,-1,-1,-1,-1],"split_conditions":[8.1754126E-2,4.8314393E-2,8.5278E6,2.732766E-3,3.2209943E-4,-3.7306445E-3,1.1806308E-3],"split_indices":[10,9,4,0,0,0,0],"split_type":[0,0,0,0,0,0,0],"sum_hessian":[1.8053403E3,1.2879855E3,5.173549E2,4.9926257E2,7.8872284E2,4.0830655E2,1.0904834E2],"tree_param":{"num_deleted":"0","num_feature":"14","num_nodes":"7","size_leaf_vector":"1"}},{"base_weights":[-4.6019875E-3,2.4242783E-1,-1.5141204E-1,1.6034208E-3,4.0103896E-3,2.8938666E-4,-2.533287E-3],"categories":[],"categories_nodes":[],"categories_segments":[],"categories_sizes":[],"default_left":[0,0,0,0,0,0,0],"id":91,"left_children":[1,3,5,-1,-1,-1,-1],"loss_changes":[6.556006E1,8.7092705E0,2.084838E1,0E0,0E0,0E0,0E0],"parents":[2147483647,0,0,1,1,2,2],"right_children":[2,4,6,-1,-1,-1,-1],"split_conditions":[5.4645553E-2,2.555069E6,1E1,1.6034208E-3,4.0103896E-3,2.8938666E-4,-2.533287E-3],"split_indices":[9,5,13,0,0,0,0],"split_type":[0,0,0,0,0,0,0],"sum_hessian":[1.8057202E3,6.728681E2,1.1328522E3,4.4472253E2,2.2814554E2,4.09291E2,7.235612E2],"tree_param":{"num_deleted":"0","num_feature":"14","num_nodes":"7","size_leaf_vector":"1"}},{"base_weights":[1.6195895E-3,1.6546437E-1,-2.2685334E-1,8.2861516E-4,3.2666204E-3,-1.371142E-3,-5.3980094E-3],"categories":[],"categories_nodes":[],"categories_segments":[],"categories_sizes":[],"default_left":[0,0,0,0,0,0,0],"id":92,"left_children":[1,3,5,-1,-1,-1,-1],"loss_changes":[6.7698616E1,1.39965725E1,2.1137047E1,0E0,0E0,0E0,0E0],"parents":[2147483647,0,0,1,1,2,2],"right_children":[2,4,6,-1,-1,-1,-1],"split_conditions":[6.938555E-2,2.511729E6,1.1736422E-1,8.2861516E-4,3.2666204E-3,-1.371142E-3,-5.3980094E-3],"split_indices":[10,5,10,0,0,0,0],"split_type":[0,0,0,0,0,0,0],"sum_hessian":[1.8064719E3,1.0521904E3,7.542815E2,6.966954E2,3.55495E2,5.8730676E2,1.6697475E2],"tree_param":{"num_deleted":"0","num_feature":"14","num_nodes":"7","size_leaf_vector":"1"}},{"base_weights":[1.2522878E-3,1.03453234E-1,-3.2632017E-1,2.3189243E-3,-1.751933E-4,-4.245821E-3,9.294643E-4],"categories":[],"categories_nodes":[],"categories_segments":[],"categories_sizes":[],"default_left":[0,0,0,0,0,0,0],"id":93,"left_children":[1,3,5,-1,-1,-1,-1],"loss_changes":[6.056686E1,2.1429134E1,1.7763596E1,0E0,0E0,0E0,0E0],"parents":[2147483647,0,0,1,1,2,2],"right_children":[2,4,6,-1,-1,-1,-1],"split_conditions":[8.801328E-2,5.4645553E-2,9.8953E6,2.3189243E-3,-1.751933E-4,-4.245821E-3,9.294643E-4],"split_indices":[9,9,4,0,0,0,0],"split_type":[0,0,0,0,0,0,0],"sum_hessian":[1.8071342E3,1.3779156E3,4.292185E2,6.6788776E2,7.100279E2,3.477135E2,8.1505005E1],"tree_param":{"num_deleted":"0","num_feature":"14","num_nodes":"7","size_leaf_vector":"1"}},{"base_weights":[-2.2434548E-3,6.886603E-2,-3.9208046E-1,2.2721454E-3,-2.1944204E-4,3.7438073E-3,-4.4256896E-3],"categories":[],"categories_nodes":[],"categories_segments":[],"categories_sizes":[],"default_left":[0,0,0,0,0,0,0],"id":94,"left_children":[1,3,5,-1,-1,-1,-1],"loss_changes":[5.0274704E1,2.2061045E1,1.099242E1,0E0,0E0,0E0,0E0],"parents":[2147483647,0,0,1,1,2,2],"right_children":[2,4,6,-1,-1,-1,-1],"split_conditions":[1.0225848E-1,5.1183935E-2,-1.0208203E0,2.2721454E-3,-2.1944204E-4,3.7438073E-3,-4.4256896E-3],"split_indices":[10,10,7,0,0,0,0],"split_type":[0,0,0,0,0,0,0],"sum_hessian":[1.8116154E3,1.5328365E3,2.7877872E2,5.5812146E2,9.7471515E2,1.6832405E1,2.619463E2],"tree_param":{"num_deleted":"0","num_feature":"14","num_nodes":"7","size_leaf_vector":"1"}},{"base_weights":[-6.696711E-3,1.9351313E-1,-1.5445961E-1,4.379265E-3,1.1664269E-3,8.235941E-4,-2.8419658E-3],"categories":[],"categories_nodes":[],"categories_segments":[],"categories_sizes":[],"default_left":[0,0,0,0,0,0,0],"id":95,"left_children":[1,3,5,-1,-1,-1,-1],"loss_changes":[5.357994E1,1.4398806E1,3.2038994E1,0E0,0E0,0E0,0E0],"parents":[2147483647,0,0,1,1,2,2],"right_children":[2,4,6,-1,-1,-1,-1],"split_conditions":[5.7540137E-2,3.794416E-2,1E1,4.379265E-3,1.1664269E-3,8.235941E-4,-2.8419658E-3],"split_indices":[9,10,13,0,0,0,0],"split_type":[0,0,0,0,0,0,0],"sum_hessian":[1.8091272E3,7.6809503E2,1.0410322E3,1.8265077E2,5.854443E2,3.6858694E2,6.7244525E2],"tree_param":{"num_deleted":"0","num_feature":"14","num_nodes":"7","size_leaf_vector":"1"}},{"base_weights":[-1.8517705E-2,1.8855336E-1,-1.6632934E-1,3.8473757E-3,1.2445785E-3,4.959154E-4,-2.8400712E-3],"categories":[],"categories_nodes":[],"categories_segments":[],"categories_sizes":[],"default_left":[0,0,0,0,0,0,0],"id":96,"left_children":[1,3,5,-1,-1,-1,-1],"loss_changes":[5.5858532E1,9.51086E0,2.7069736E1,0E0,0E0,0E0,0E0],"parents":[2147483647,0,0,1,1,2,2],"right_children":[2,4,6,-1,-1,-1,-1],"split_conditions":[5.684293E-2,3.794416E-2,1E1,3.8473757E-3,1.2445785E-3,4.959154E-4,-2.8400712E-3],"split_indices":[10,10,13,0,0,0,0],"split_type":[0,0,0,0,0,0,0],"sum_hessian":[1.8229695E3,7.591673E2,1.0638021E3,1.8571779E2,5.734495E2,3.75463E2,6.883391E2],"tree_param":{"num_deleted":"0","num_feature":"14","num_nodes":"7","size_leaf_vector":"1"}},{"base_weights":[3.2231567E-4,1.921054E-1,-1.4171356E-1,-9.918158E-6,2.7994167E-3,-7.681467E-4,-4.774916E-3],"categories":[],"categories_nodes":[],"categories_segments":[],"categories_sizes":[],"default_left":[0,0,0,0,0,0,0],"id":97,"left_children":[1,3,5,-1,-1,-1,-1],"loss_changes":[4.9352886E1,1.3075247E1,2.2645958E1,0E0,0E0,0E0,0E0],"parents":[2147483647,0,0,1,1,2,2],"right_children":[2,4,6,-1,-1,-1,-1],"split_conditions":[5.7540137E-2,9.335E5,1.1736422E-1,-9.918158E-6,2.7994167E-3,-7.681467E-4,-4.774916E-3],"split_indices":[9,5,10,0,0,0,0],"split_type":[0,0,0,0,0,0,0],"sum_hessian":[1.8097753E3,7.698872E2,1.0398881E3,2.41021E2,5.288662E2,8.724839E2,1.6740417E2],"tree_param":{"num_deleted":"0","num_feature":"14","num_nodes":"7","size_leaf_vector":"1"}},{"base_weights":[1.578945E-3,1.980051E-1,-1.3786793E-1,4.176298E-3,1.2563145E-3,6.5405254E-4,-2.5295855E-3],"categories":[],"categories_nodes":[],"categories_segments":[],"categories_sizes":[],"default_left":[0,0,0,0,0,0,0],"id":98,"left_children":[1,3,5,-1,-1,-1,-1],"loss_changes":[4.9307686E1,1.1827078E1,2.4645931E1,0E0,0E0,0E0,0E0],"parents":[2147483647,0,0,1,1,2,2],"right_children":[2,4,6,-1,-1,-1,-1],"split_conditions":[5.7105906E-2,3.794416E-2,1E1,4.176298E-3,1.2563145E-3,6.5405254E-4,-2.5295855E-3],"split_indices":[9,10,13,0,0,0,0],"split_type":[0,0,0,0,0,0,0],"sum_hessian":[1.7981444E3,7.4637445E2,1.0517699E3,1.8381123E2,5.6256323E2,3.8037793E2,6.71392E2],"tree_param":{"num_deleted":"0","num_feature":"14","num_nodes":"7","size_leaf_vector":"1"}},{"base_weights":[-3.5274653E-3,1.9425268E-1,-1.344547E-1,3.6217754E-3,1.1989027E-3,7.9084054E-4,-2.492607E-3],"categories":[],"categories_nodes":[],"categories_segments":[],"categories_sizes":[],"default_left":[0,0,0,0,0,0,0],"id":99,"left_children":[1,3,5,-1,-1,-1,-1],"loss_changes":[4.7119583E1,9.007278E0,2.6860613E1,0E0,0E0,0E0,0E0],"parents":[2147483647,0,0,1,1,2,2],"right_children":[2,4,6,-1,-1,-1,-1],"split_conditions":[5.5924326E-2,3.9407335E-2,1E1,3.6217754E-3,1.1989027E-3,7.9084054E-4,-2.492607E-3],"split_indices":[10,10,13,0,0,0,0],"split_type":[0,0,0,0,0,0,0],"sum_hessian":[1.8176453E3,7.237925E2,1.0938528E3,2.2095728E2,5.028352E2,3.825753E2,7.1127747E2],"tree_param":{"num_deleted":"0","num_feature":"14","num_nodes":"7","size_leaf_vector":"1"}},{"base_weights":[1.3946589E-3,2.5084049E-1,-1.1035089E-1,3.5346495E-3,9.248596E-4,-5.265832E-4,-4.3992675E-3],"categories":[],"categories_nodes":[],"categories_segments":[],"categories_sizes":[],"default_left":[0,0,0,0,0,0,0],"id":100,"left_children":[1,3,5,-1,-1,-1,-1],"loss_changes":[5.0554028E1,9.085785E0,2.3792706E1,0E0,0E0,0E0,0E0],"parents":[2147483647,0,0,1,1,2,2],"right_children":[2,4,6,-1,-1,-1,-1],"split_conditions":[5.1183935E-2,6.438743E-2,1.1438963E-1,3.5346495E-3,9.248596E-4,-5.265832E-4,-4.3992675E-3],"split_indices":[10,7,10,0,0,0,0],"split_type":[0,0,0,0,0,0,0],"sum_hessian":[1.8116394E3,5.601007E2,1.2515387E3,3.3910532E2,2.209954E2,1.0660801E3,1.8545859E2],"tree_param":{"num_deleted":"0","num_feature":"14","num_nodes":"7","size_leaf_vector":"1"}},{"base_weights":[-2.5513798E-3,9.975569E-2,-2.9121295E-1,1.9638517E-3,-1.9922855E-4,-3.979431E-3,2.2935445E-4],"categories":[],"categories_nodes":[],"categories_segments":[],"categories_sizes":[],"default_left":[0,0,0,0,0,0,0],"id":101,"left_children":[1,3,5,-1,-1,-1,-1],"loss_changes":[5.331808E1,1.5419461E1,1.584943E1,0E0,0E0,0E0,0E0],"parents":[2147483647,0,0,1,1,2,2],"right_children":[2,4,6,-1,-1,-1,-1],"split_conditions":[8.457142E-2,5.6271963E-2,7.2038E6,1.9638517E-3,-1.9922855E-4,-3.979431E-3,2.2935445E-4],"split_indices":[10,9,4,0,0,0,0],"split_type":[0,0,0,0,0,0,0],"sum_hessian":[1.8034431E3,1.3320087E3,4.7143445E2,7.366169E2,5.9539185E2,3.5168478E2,1.1974969E2],"tree_param":{"num_deleted":"0","num_feature":"14","num_nodes":"7","size_leaf_vector":"1"}},{"base_weights":[-8.176491E-3,1.9413532E-1,-1.4250815E-1,1.0162864E-3,3.8202652E-3,3.837471E-4,-2.407946E-3],"categories":[],"categories_nodes":[],"categories_segments":[],"categories_sizes":[],"default_left":[0,0,0,0,0,0,0],"id":102,"left_children":[1,3,5,-1,-1,-1,-1],"loss_changes":[4.9501274E1,1.2594414E1,1.9469336E1,0E0,0E0,0E0,0E0],"parents":[2147483647,0,0,1,1,2,2],"right_children":[2,4,6,-1,-1,-1,-1],"split_conditions":[5.6405928E-2,2.555069E6,1E1,1.0162864E-3,3.8202652E-3,3.837471E-4,-2.407946E-3],"split_indices":[10,5,13,0,0,0,0],"split_type":[0,0,0,0,0,0,0],"sum_hessian":[1.8194299E3,7.2583386E2,1.0935961E3,4.8740494E2,2.3842891E2,3.8523428E2,7.0836176E2],"tree_param":{"num_deleted":"0","num_feature":"14","num_nodes":"7","size_leaf_vector":"1"}},{"base_weights":[1.955895E-3,1.6873421E-1,-1.8090509E-1,6.3870044E-4,2.8120908E-3,4.433341E-4,-2.9515903E-3],"categories":[],"categories_nodes":[],"categories_segments":[],"categories_sizes":[],"default_left":[0,0,0,0,0,0,0],"id":103,"left_children":[1,3,5,-1,-1,-1,-1],"loss_changes":[5.481616E1,1.106941E1,2.2077066E1,0E0,0E0,0E0,0E0],"parents":[2147483647,0,0,1,1,2,2],"right_children":[2,4,6,-1,-1,-1,-1],"split_conditions":[6.4204276E-2,1.6879E6,1E1,6.3870044E-4,2.8120908E-3,4.433341E-4,-2.9515903E-3],"split_indices":[10,5,13,0,0,0,0],"split_type":[0,0,0,0,0,0,0],"sum_hessian":[1.7954126E3,9.3903925E2,8.563733E2,4.867725E2,4.5226675E2,2.8841278E2,5.679605E2],"tree_param":{"num_deleted":"0","num_feature":"14","num_nodes":"7","size_leaf_vector":"1"}},{"base_weights":[-1.9680688E-3,8.387141E-2,-2.8750584E-1,2.1791374E-3,-7.394728E-5,6.9026556E-3,-3.2154694E-3],"categories":[],"categories_nodes":[],"categories_segments":[],"categories_sizes":[],"default_left":[0,0,0,0,0,0,0],"id":104,"left_children":[1,3,5,-1,-1,-1,-1],"loss_changes":[4.4509975E1,1.708257E1,1.4192657E1,0E0,0E0,0E0,0E0],"parents":[2147483647,0,0,1,1,2,2],"right_children":[2,4,6,-1,-1,-1,-1],"split_conditions":[8.857866E-2,5.1183935E-2,4E0,2.1791374E-3,-7.394728E-5,6.9026556E-3,-3.2154694E-3],"split_indices":[9,10,13,0,0,0,0],"split_type":[0,0,0,0,0,0,0],"sum_hessian":[1.8139781E3,1.3952415E3,4.187367E2,5.64611E2,8.3063043E2,1.3439294E1,4.052974E2],"tree_param":{"num_deleted":"0","num_feature":"14","num_nodes":"7","size_leaf_vector":"1"}},{"base_weights":[9.483881E-3,1.1340417E-1,-2.4447405E-1,4.4766846E-4,2.7374555E-3,-3.4915945E-3,1.3394852E-3],"categories":[],"categories_nodes":[],"categories_segments":[],"categories_sizes":[],"default_left":[0,0,0,0,0,0,0],"id":105,"left_children":[1,3,5,-1,-1,-1,-1],"loss_changes":[4.7765923E1,1.4121822E1,2.0867413E1,0E0,0E0,0E0,0E0],"parents":[2147483647,0,0,1,1,2,2],"right_children":[2,4,6,-1,-1,-1,-1],"split_conditions":[8.1754126E-2,2.8568E6,8.5278E6,4.4766846E-4,2.7374555E-3,-3.4915945E-3,1.3394852E-3],"split_indices":[10,5,4,0,0,0,0],"split_type":[0,0,0,0,0,0,0],"sum_hessian":[1.8078556E3,1.2832852E3,5.245704E2,8.9951086E2,3.837743E2,4.10961E2,1.13609375E2],"tree_param":{"num_deleted":"0","num_feature":"14","num_nodes":"7","size_leaf_vector":"1"}},{"base_weights":[-8.773645E-3,6.527698E-2,-3.3173695E-1,-6.038363E-4,1.9386142E-3,-4.2538024E-3,1.208508E-3],"categories":[],"categories_nodes":[],"categories_segments":[],"categories_sizes":[],"default_left":[0,0,0,0,0,0,0],"id":106,"left_children":[1,3,5,-1,-1,-1,-1],"loss_changes":[4.313367E1,2.3719917E1,1.4308498E1,0E0,0E0,0E0,0E0],"parents":[2147483647,0,0,1,1,2,2],"right_children":[2,4,6,-1,-1,-1,-1],"split_conditions":[9.588279E-2,1.6879E6,1.7098317E2,-6.038363E-4,1.9386142E-3,-4.2538024E-3,1.208508E-3],"split_indices":[10,5,0,0,0,0,0],"split_type":[0,0,0,0,0,0,0],"sum_hessian":[1.8016707E3,1.4662739E3,3.3539667E2,7.418363E2,7.244376E2,2.7794766E2,5.744902E1],"tree_param":{"num_deleted":"0","num_feature":"14","num_nodes":"7","size_leaf_vector":"1"}},{"base_weights":[-6.2521064E-4,2.148979E-1,-1.4335595E-1,4.2746654E-3,1.2399462E-3,4.5438597E-4,-2.4673827E-3],"categories":[],"categories_nodes":[],"categories_segments":[],"categories_sizes":[],"default_left":[0,0,0,0,0,0,0],"id":107,"left_children":[1,3,5,-1,-1,-1,-1],"loss_changes":[5.564339E1,1.3872414E1,2.1250494E1,0E0,0E0,0E0,0E0],"parents":[2147483647,0,0,1,1,2,2],"right_children":[2,4,6,-1,-1,-1,-1],"split_conditions":[5.5924326E-2,3.9407335E-2,1E1,4.2746654E-3,1.2399462E-3,4.5438597E-4,-2.4673827E-3],"split_indices":[10,10,13,0,0,0,0],"split_type":[0,0,0,0,0,0,0],"sum_hessian":[1.806847E3,7.196585E2,1.0871885E3,2.1446056E2,5.0519797E2,3.8488336E2,7.023051E2],"tree_param":{"num_deleted":"0","num_feature":"14","num_nodes":"7","size_leaf_vector":"1"}},{"base_weights":[2.5510998E-3,2.0216143E-1,-1.3087109E-1,1.8065628E-3,8.491618E-3,-1.0134027E-3,-1.0482237E-2],"categories":[],"categories_nodes":[],"categories_segments":[],"categories_sizes":[],"default_left":[0,0,0,0,0,0,0],"id":108,"left_children":[1,3,5,-1,-1,-1,-1],"loss_changes":[4.8001698E1,9.893471E0,2.9159428E1,0E0,0E0,0E0,0E0],"parents":[2147483647,0,0,1,1,2,2],"right_children":[2,4,6,-1,-1,-1,-1],"split_conditions":[5.5924326E-2,1.0447943E0,1.68929E-1,1.8065628E-3,8.491618E-3,-1.0134027E-3,-1.0482237E-2],"split_indices":[10,7,10,0,0,0,0],"split_type":[0,0,0,0,0,0,0],"sum_hessian":[1.8003832E3,7.210777E2,1.0793055E3,6.991194E2,2.1958282E1,1.0467207E3,3.2584866E1],"tree_param":{"num_deleted":"0","num_feature":"14","num_nodes":"7","size_leaf_vector":"1"}},{"base_weights":[-2.9979765E-3,7.762088E-2,-2.6776212E-1,2.239283E-3,-1.0505289E-4,-3.6281364E-3,1.6974213E-3],"categories":[],"categories_nodes":[],"categories_segments":[],"categories_sizes":[],"default_left":[0,0,0,0,0,0,0],"id":109,"left_children":[1,3,5,-1,-1,-1,-1],"loss_changes":[3.8535713E1,1.7846922E1,1.7585941E1,0E0,0E0,0E0,0E0],"parents":[2147483647,0,0,1,1,2,2],"right_children":[2,4,6,-1,-1,-1,-1],"split_conditions":[8.857866E-2,4.9241852E-2,1.4855952E2,2.239283E-3,-1.0505289E-4,-3.6281364E-3,1.6974213E-3],"split_indices":[9,9,2,0,0,0,0],"split_type":[0,0,0,0,0,0,0],"sum_hessian":[1.803402E3,1.3829961E3,4.2040594E2,5.193042E2,8.636919E2,3.4551135E2,7.4894585E1],"tree_param":{"num_deleted":"0","num_feature":"14","num_nodes":"7","size_leaf_vector":"1"}},{"base_weights":[-7.1396288E-3,5.2469287E-2,-3.338938E-1,3.307343E-3,4.8600625E-5,4.8302067E-3,-3.918923E-3],"categories":[],"categories_nodes":[],"categories_segments":[],"categories_sizes":[],"default_left":[0,0,0,0,0,0,0],"id":110,"left_children":[1,3,5,-1,-1,-1,-1],"loss_changes":[3.524711E1,2.027502E1,1.3417337E1,0E0,0E0,0E0,0E0],"parents":[2147483647,0,0,1,1,2,2],"right_children":[2,4,6,-1,-1,-1,-1],"split_conditions":[1.0225848E-1,3.9407335E-2,-9.8604053E-1,3.307343E-3,4.8600625E-5,4.8302067E-3,-3.918923E-3],"split_indices":[10,10,7,0,0,0,0],"split_type":[0,0,0,0,0,0,0],"sum_hessian":[1.8077361E3,1.5295447E3,2.7819144E2,2.2259296E2,1.3069517E3,1.7955696E1,2.6023575E2],"tree_param":{"num_deleted":"0","num_feature":"14","num_nodes":"7","size_leaf_vector":"1"}},{"base_weights":[-8.622391E-3,7.377935E-2,-3.7922055E-1,-1.1905873E-4,2.6547643E-3,4.309655E-3,-4.3845777E-3],"categories":[],"categories_nodes":[],"categories_segments":[],"categories_sizes":[],"default_left":[0,0,0,0,0,0,0],"id":111,"left_children":[1,3,5,-1,-1,-1,-1],"loss_changes":[5.4772087E1,2.410622E1,1.5846825E1,0E0,0E0,0E0,0E0],"parents":[2147483647,0,0,1,1,2,2],"right_children":[2,4,6,-1,-1,-1,-1],"split_conditions":[9.663642E-2,2.8568E6,-9.8604053E-1,-1.1905873E-4,2.6547643E-3,4.309655E-3,-4.3845777E-3],"split_indices":[10,5,7,0,0,0,0],"split_type":[0,0,0,0,0,0,0],"sum_hessian":[1.7916593E3,1.4664075E3,3.252518E2,1.0140727E3,4.5233478E2,2.173313E1,3.0351865E2],"tree_param":{"num_deleted":"0","num_feature":"14","num_nodes":"7","size_leaf_vector":"1"}},{"base_weights":[1.4000138E-3,1.7276534E-1,-1.5483108E-1,1.113014E-3,3.8474582E-3,-8.7830145E-4,-4.5521655E-3],"categories":[],"categories_nodes":[],"categories_segments":[],"categories_sizes":[],"default_left":[0,0,0,0,0,0,0],"id":112,"left_children":[1,3,5,-1,-1,-1,-1],"loss_changes":[4.8266674E1,1.1159281E1,1.8940302E1,0E0,0E0,0E0,0E0],"parents":[2147483647,0,0,1,1,2,2],"right_children":[2,4,6,-1,-1,-1,-1],"split_conditions":[6.136784E-2,3.7841E6,1.1736422E-1,1.113014E-3,3.8474582E-3,-8.7830145E-4,-4.5521655E-3],"split_indices":[10,5,10,0,0,0,0],"split_type":[0,0,0,0,0,0,0],"sum_hessian":[1.8008398E3,8.58772E2,9.420678E2,6.669223E2,1.918497E2,7.713179E2,1.7074992E2],"tree_param":{"num_deleted":"0","num_feature":"14","num_nodes":"7","size_leaf_vector":"1"}},{"base_weights":[4.973254E-3,1.801921E-1,-1.2220925E-1,6.6339865E-4,3.0464255E-3,9.666635E-4,-2.4365266E-3],"categories":[],"categories_nodes":[],"categories_segments":[],"categories_sizes":[],"default_left":[0,0,0,0,0,0,0],"id":113,"left_children":[1,3,5,-1,-1,-1,-1],"loss_changes":[4.028968E1,1.0753387E1,2.7869614E1,0E0,0E0,0E0,0E0],"parents":[2147483647,0,0,1,1,2,2],"right_children":[2,4,6,-1,-1,-1,-1],"split_conditions":[5.7105906E-2,1.6879E6,1E1,6.6339865E-4,3.0464255E-3,9.666635E-4,-2.4365266E-3],"split_indices":[9,5,13,0,0,0,0],"split_type":[0,0,0,0,0,0,0],"sum_hessian":[1.8059587E3,7.5936615E2,1.0465925E3,3.9736963E2,3.619965E2,3.7355115E2,6.7304144E2],"tree_param":{"num_deleted":"0","num_feature":"14","num_nodes":"7","size_leaf_vector":"1"}},{"base_weights":[1.2633625E-2,8.3221905E-2,-3.027327E-1,9.9939934E-5,2.6269334E-3,4.8091444E-3,-3.5815763E-3],"categories":[],"categories_nodes":[],"categories_segments":[],"categories_sizes":[],"default_left":[0,0,0,0,0,0,0],"id":114,"left_children":[1,3,5,-1,-1,-1,-1],"loss_changes":[4.018376E1,1.9379993E1,1.451181E1,0E0,0E0,0E0,0E0],"parents":[2147483647,0,0,1,1,2,2],"right_children":[2,4,6,-1,-1,-1,-1],"split_conditions":[9.588279E-2,3.0044E6,-9.8604053E-1,9.9939934E-5,2.6269334E-3,4.8091444E-3,-3.5815763E-3],"split_indices":[10,5,7,0,0,0,0],"split_type":[0,0,0,0,0,0,0],"sum_hessian":[1.8029741E3,1.4738248E3,3.2914932E2,1.0474856E3,4.2633923E2,2.1234873E1,3.0791446E2],"tree_param":{"num_deleted":"0","num_feature":"14","num_nodes":"7","size_leaf_vector":"1"}},{"base_weights":[1.4069951E-2,6.462483E-2,-4.81471E-1,-1.5704588E-4,2.5394484E-3,-6.0020266E-3,1.8226115E-3],"categories":[],"categories_nodes":[],"categories_segments":[],"categories_sizes":[],"default_left":[0,0,0,0,0,0,0],"id":115,"left_children":[1,3,5,-1,-1,-1,-1],"loss_changes":[4.5674736E1,2.5160526E1,1.3410744E1,0E0,0E0,0E0,0E0],"parents":[2147483647,0,0,1,1,2,2],"right_children":[2,4,6,-1,-1,-1,-1],"split_conditions":[1.1736422E-1,3.0044E6,1.8070699E2,-1.5704588E-4,2.5394484E-3,-6.0020266E-3,1.8226115E-3],"split_indices":[10,5,0,0,0,0,0],"split_type":[0,0,0,0,0,0,0],"sum_hessian":[1.8209541E3,1.6531682E3,1.6778593E2,1.161328E3,4.9184015E2,1.4240717E2,2.5378777E1],"tree_param":{"num_deleted":"0","num_feature":"14","num_nodes":"7","size_leaf_vector":"1"}},{"base_weights":[9.714591E-3,7.758377E-2,-3.6658472E-1,2.3689603E-3,-1.4889034E-4,6.5492315E-4,-4.5251558E-3],"categories":[],"categories_nodes":[],"categories_segments":[],"categories_sizes":[],"default_left":[0,0,0,0,0,0,0],"id":116,"left_children":[1,3,5,-1,-1,-1,-1],"loss_changes":[4.6157295E1,2.2558887E1,1.0283237E1,0E0,0E0,0E0,0E0],"parents":[2147483647,0,0,1,1,2,2],"right_children":[2,4,6,-1,-1,-1,-1],"split_conditions":[1.0225848E-1,5.1183935E-2,2.6004677E1,2.3689603E-3,-1.4889034E-4,6.5492315E-4,-4.5251558E-3],"split_indices":[10,10,1,0,0,0,0],"split_type":[0,0,0,0,0,0,0],"sum_hessian":[1.8052031E3,1.5300397E3,2.7516345E2,5.6136224E2,9.686774E2,4.5685543E1,2.2947792E2],"tree_param":{"num_deleted":"0","num_feature":"14","num_nodes":"7","size_leaf_vector":"1"}},{"base_weights":[-1.1173268E-2,1.3278037E-1,-1.3722502E-1,6.179644E-5,2.681019E-3,3.1858238E-3,-1.7526954E-3],"categories":[],"categories_nodes":[],"categories_segments":[],"categories_sizes":[],"default_left":[0,0,0,0,0,0,0],"id":117,"left_children":[1,3,5,-1,-1,-1,-1],"loss_changes":[3.267197E1,1.4399709E1,1.670176E1,0E0,0E0,0E0,0E0],"parents":[2147483647,0,0,1,1,2,2],"right_children":[2,4,6,-1,-1,-1,-1],"split_conditions":[6.0290966E-2,1.706E6,5E0,6.179644E-5,2.681019E-3,3.1858238E-3,-1.7526954E-3],"split_indices":[9,5,13,0,0,0,0],"split_type":[0,0,0,0,0,0,0],"sum_hessian":[1.79854E3,8.396217E2,9.5891833E2,4.3432886E2,4.0529288E2,7.330345E1,8.8561487E2],"tree_param":{"num_deleted":"0","num_feature":"14","num_nodes":"7","size_leaf_vector":"1"}},{"base_weights":[1.9499342E-3,4.4056654E-2,-4.1660807E-1,-3.2400893E-4,2.26257E-3,-5.5078897E-3,2.6286622E-3],"categories":[],"categories_nodes":[],"categories_segments":[],"categories_sizes":[],"default_left":[0,0,0,0,0,0,0],"id":118,"left_children":[1,3,5,-1,-1,-1,-1],"loss_changes":[3.175126E1,2.2809864E1,1.5158403E1,0E0,0E0,0E0,0E0],"parents":[2147483647,0,0,1,1,2,2],"right_children":[2,4,6,-1,-1,-1,-1],"split_conditions":[1.1736422E-1,3.0044E6,1.8070699E2,-3.2400893E-4,2.26257E-3,-5.5078897E-3,2.6286622E-3],"split_indices":[10,5,0,0,0,0,0],"split_type":[0,0,0,0,0,0,0],"sum_hessian":[1.79954E3,1.6358673E3,1.6367267E2,1.152895E3,4.8297232E2,1.3683936E2,2.6833313E1],"tree_param":{"num_deleted":"0","num_feature":"14","num_nodes":"7","size_leaf_vector":"1"}},{"base_weights":[-1.2866669E-2,4.8462536E-2,-4.100211E-1,2.0270583E-3,-3.597486E-4,8.453901E-3,-4.517269E-3],"categories":[],"categories_nodes":[],"categories_segments":[],"categories_sizes":[],"default_left":[0,0,0,0,0,0,0],"id":119,"left_children":[1,3,5,-1,-1,-1,-1],"loss_changes":[4.4282158E1,2.0520351E1,1.3114616E1,0E0,0E0,0E0,0E0],"parents":[2147483647,0,0,1,1,2,2],"right_children":[2,4,6,-1,-1,-1,-1],"split_conditions":[1.0655062E-1,5.1183935E-2,4E0,2.0270583E-3,-3.597486E-4,8.453901E-3,-4.517269E-3],"split_indices":[9,10,13,0,0,0,0],"split_type":[0,0,0,0,0,0,0],"sum_hessian":[1.8162183E3,1.5740317E3,2.4218646E2,5.563453E2,1.01768646E3,7.1673503E0,2.3501912E2],"tree_param":{"num_deleted":"0","num_feature":"14","num_nodes":"7","size_leaf_vector":"1"}},{"base_weights":[-1.4360427E-2,7.1453534E-2,-2.9655445E-1,3.5795346E-3,2.878747E-4,-5.415406E-3,-1.7026563E-3],"categories":[],"categories_nodes":[],"categories_segments":[],"categories_sizes":[],"default_left":[0,0,0,0,0,0,0],"id":120,"left_children":[1,3,5,-1,-1,-1,-1],"loss_changes":[4.3552303E1,1.6849226E1,1.2882641E1,0E0,0E0,0E0,0E0],"parents":[2147483647,0,0,1,1,2,2],"right_children":[2,4,6,-1,-1,-1,-1],"split_conditions":[8.857866E-2,3.794416E-2,4.63E5,3.5795346E-3,2.878747E-4,-5.415406E-3,-1.7026563E-3],"split_indices":[9,10,11,0,0,0,0],"split_type":[0,0,0,0,0,0,0],"sum_hessian":[1.796604E3,1.3782355E3,4.1836856E2,1.7768723E2,1.2005482E3,1.411892E2,2.7717935E2],"tree_param":{"num_deleted":"0","num_feature":"14","num_nodes":"7","size_leaf_vector":"1"}},{"base_weights":[1.6142335E-3,8.344739E-2,-2.6803628E-1,4.8461545E-5,2.6268954E-3,-5.323561E-3,-1.6028989E-3],"categories":[],"categories_nodes":[],"categories_segments":[],"categories_sizes":[],"default_left":[0,0,0,0,0,0,0],"id":121,"left_children":[1,3,5,-1,-1,-1,-1],"loss_changes":[3.9678177E1,1.9433619E1,1.1837488E1,0E0,0E0,0E0,0E0],"parents":[2147483647,0,0,1,1,2,2],"right_children":[2,4,6,-1,-1,-1,-1],"split_conditions":[8.857866E-2,2.8802E6,3.856E5,4.8461545E-5,2.6268954E-3,-5.323561E-3,-1.6028989E-3],"split_indices":[9,5,11,0,0,0,0],"split_type":[0,0,0,0,0,0,0],"sum_hessian":[1.7961168E3,1.378471E3,4.1764584E2,9.589705E2,4.1950046E2,1.1980456E2,2.978413E2],"tree_param":{"num_deleted":"0","num_feature":"14","num_nodes":"7","size_leaf_vector":"1"}},{"base_weights":[2.2063598E-3,8.189051E-2,-2.6569155E-1,2.261766E-3,6.5226304E-6,-6.634756E-3,-1.8761675E-3],"categories":[],"categories_nodes":[],"categories_segments":[],"categories_sizes":[],"default_left":[0,0,0,0,0,0,0],"id":122,"left_children":[1,3,5,-1,-1,-1,-1],"loss_changes":[3.842363E1,1.6260864E1,1.269092E1,0E0,0E0,0E0,0E0],"parents":[2147483647,0,0,1,1,2,2],"right_children":[2,4,6,-1,-1,-1,-1],"split_conditions":[8.857866E-2,4.899005E-2,1.879E5,2.261766E-3,6.5226304E-6,-6.634756E-3,-1.8761675E-3],"split_indices":[9,10,11,0,0,0,0],"split_type":[0,0,0,0,0,0,0],"sum_hessian":[1.7979172E3,1.3862749E3,4.1164233E2,4.9872043E2,8.8755444E2,6.630851E1,3.4533383E2],"tree_param":{"num_deleted":"0","num_feature":"14","num_nodes":"7","size_leaf_vector":"1"}},{"base_weights":[-4.5401547E-3,1.5068653E-1,-1.5502769E-1,-2.3750472E-3,1.8169342E-3,-2.2219205E-3,1.9329715E-3],"categories":[],"categories_nodes":[],"categories_segments":[],"categories_sizes":[],"default_left":[0,0,0,0,0,0,0],"id":123,"left_children":[1,3,5,-1,-1,-1,-1],"loss_changes":[4.225176E1,1.076017E1,2.1528425E1,0E0,0E0,0E0,0E0],"parents":[2147483647,0,0,1,1,2,2],"right_children":[2,4,6,-1,-1,-1,-1],"split_conditions":[6.2272765E-2,1.8243673E1,1.7642096E2,-2.3750472E-3,1.8169342E-3,-2.2219205E-3,1.9329715E-3],"split_indices":[10,2,0,0,0,0,0],"split_type":[0,0,0,0,0,0,0],"sum_hessian":[1.8067472E3,8.8936896E2,9.1737823E2,6.529148E1,8.2407745E2,7.693864E2,1.479918E2],"tree_param":{"num_deleted":"0","num_feature":"14","num_nodes":"7","size_leaf_vector":"1"}},{"base_weights":[5.697123E-4,9.364317E-2,-2.2873192E-1,4.6944665E-3,7.0812955E-4,-3.51057E-3,1.534568E-3],"categories":[],"categories_nodes":[],"categories_segments":[],"categories_sizes":[],"default_left":[0,0,0,0,0,0,0],"id":124,"left_children":[1,3,5,-1,-1,-1,-1],"loss_changes":[3.8399754E1,1.0946962E1,2.4339746E1,0E0,0E0,0E0,0E0],"parents":[2147483647,0,0,1,1,2,2],"right_children":[2,4,6,-1,-1,-1,-1],"split_conditions":[8.1754126E-2,3.3682235E-2,7.598E6,4.6944665E-3,7.0812955E-4,-3.51057E-3,1.534568E-3],"split_indices":[10,10,4,0,0,0,0],"split_type":[0,0,0,0,0,0,0],"sum_hessian":[1.7972626E3,1.2787927E3,5.184699E2,7.211758E1,1.206675E3,3.9282275E2,1.25647194E2],"tree_param":{"num_deleted":"0","num_feature":"14","num_nodes":"7","size_leaf_vector":"1"}},{"base_weights":[-1.3107017E-2,3.417809E-2,-4.126987E-1,-4.4662217E-4,1.7686307E-3,-5.4293284E-3,2.4192387E-3],"categories":[],"categories_nodes":[],"categories_segments":[],"categories_sizes":[],"default_left":[0,0,0,0,0,0,0],"id":125,"left_children":[1,3,5,-1,-1,-1,-1],"loss_changes":[3.3895542E1,1.8055784E1,1.6313961E1,0E0,0E0,0E0,0E0],"parents":[2147483647,0,0,1,1,2,2],"right_children":[2,4,6,-1,-1,-1,-1],"split_conditions":[1.12116285E-1,4.0047E6,1.8070699E2,-4.4662217E-4,1.7686307E-3,-5.4293284E-3,2.4192387E-3],"split_indices":[10,4,0,0,0,0,0],"split_type":[0,0,0,0,0,0,0],"sum_hessian":[1.7921681E3,1.6033523E3,1.888159E2,1.0331656E3,5.7018665E2,1.5762729E2,3.1188614E1],"tree_param":{"num_deleted":"0","num_feature":"14","num_nodes":"7","size_leaf_vector":"1"}},{"base_weights":[-4.306804E-3,5.2924693E-2,-3.2835737E-1,3.0150437E-3,1.2367596E-4,5.3822193E-3,-3.940771E-3],"categories":[],"categories_nodes":[],"categories_segments":[],"categories_sizes":[],"default_left":[0,0,0,0,0,0,0],"id":126,"left_children":[1,3,5,-1,-1,-1,-1],"loss_changes":[3.327846E1,1.5371895E1,1.55513935E1,0E0,0E0,0E0,0E0],"parents":[2147483647,0,0,1,1,2,2],"right_children":[2,4,6,-1,-1,-1,-1],"split_conditions":[1.0225848E-1,3.9407335E-2,-9.8604053E-1,3.0150437E-3,1.2367596E-4,5.3822193E-3,-3.940771E-3],"split_indices":[10,10,7,0,0,0,0],"split_type":[0,0,0,0,0,0,0],"sum_hessian":[1.7924469E3,1.5241067E3,2.6834018E2,2.1288332E2,1.3112234E3,1.840905E1,2.4993112E2],"tree_param":{"num_deleted":"0","num_feature":"14","num_nodes":"7","size_leaf_vector":"1"}},{"base_weights":[-3.1752991E-3,4.3379277E-2,-3.987701E-1,-2.824727E-4,2.133057E-3,3.983212E-3,-4.9992525E-3],"categories":[],"categories_nodes":[],"categories_segments":[],"categories_sizes":[],"default_left":[0,0,0,0,0,0,0],"id":127,"left_children":[1,3,5,-1,-1,-1,-1],"loss_changes":[3.319497E1,1.9634764E1,1.5501091E1,0E0,0E0,0E0,0E0],"parents":[2147483647,0,0,1,1,2,2],"right_children":[2,4,6,-1,-1,-1,-1],"split_conditions":[1.12713985E-1,3.0044E6,-7.373957E-1,-2.824727E-4,2.133057E-3,3.983212E-3,