{"learner":{"attributes":{"scikit_learn":"{\"_estimator_type\": \"classifier\"}"},"feature_names":["peak1_price","peak2_price","trough_price","peak_gap_days","vol1","vol2","vol2_vol1_ratio","peak_height_diff","peak_height_diff_pct","retracement_depth1","retracement_depth2","volume_diff","peak1_to_trough","trough_to_peak2"],"feature_types":["float","float","float","int","float","float","float","float","float","float","float","float","int","int"],"gradient_booster":{"model":{"cats":{"enc":[],"feature_segments":[],"sorted_idx":[]},"gbtree_model_param":{"num_parallel_tree":"1","num_trees":"200"},"iteration_indptr":[0,1,2,3,4,5,6,7,8,9,10,11,12,13,14,15,16,17,18,19,20,21,22,23,24,25,26,27,28,29,30,31,32,33,34,35,36,37,38,39,40,41,42,43,44,45,46,47,48,49,50,51,52,53,54,55,56,57,58,59,60,61,62,63,64,65,66,67,68,69,70,71,72,73,74,75,76,77,78,79,80,81,82,83,84,85,86,87,88,89,90,91,92,93,94,95,96,97,98,99,100,101,102,103,104,105,106,107,108,109,110,111,112,113,114,115,116,117,118,119,120,121,122,123,124,125,126,127,128,129,130,131,132,133,134,135,136,137,138,139,140,141,142,143,144,145,146,147,148,149,150,151,152,153,154,155,156,157,158,159,160,161,162,163,164,165,166,167,168,169,170,171,172,173,174,175,176,177,178,179,180,181,182,183,184,185,186,187,188,189,190,191,192,193,194,195,196,197,198,199,200],"tree_info":[0,0,0,0,0,0,0,0,0,0,0,0,0,0,0,0,0,0,0,0,0,0,0,0,0,0,0,0,0,0,0,0,0,0,0,0,0,0,0,0,0,0,0,0,0,0,0,0,0,0,0,0,0,0,0,0,0,0,0,0,0,0,0,0,0,0,0,0,0,0,0,0,0,0,0,0,0,0,0,0,0,0,0,0,0,0,0,0,0,0,0,0,0,0,0,0,0,0,0,0,0,0,0,0,0,0,0,0,0,0,0,0,0,0,0,0,0,0,0,0,0,0,0,0,0,0,0,0,0,0,0,0,0,0,0,0,0,0,0,0,0,0,0,0,0,0,0,0,0,0,0,0,0,0,0,0,0,0,0,0,0,0,0,0,0,0,0,0,0,0,0,0,0,0,0,0,0,0,0,0,0,0,0,0,0,0,0,0,0,0,0,0,0,0,0,0,0,0,0,0],"trees":[{"base_weights":[-2.06937E-2,1.8620715E-1,-1.233671E-1,8.6773344E-4,3.4576266E-3,1.2395941E-3,-1.9286542E-3],"categories":[],"categories_nodes":[],"categories_segments":[],"categories_sizes":[],"default_left":[0,0,0,0,0,0,0],"id":0,"left_children":[1,3,5,-1,-1,-1,-1],"loss_changes":[2.9287344E1,6.639282E0,1.6105598E1,0E0,0E0,0E0,0E0],"parents":[2147483647,0,0,1,1,2,2],"right_children":[2,4,6,-1,-1,-1,-1],"split_conditions":[9E0,2.58E6,-4.9896426E-3,8.6773344E-4,3.4576266E-3,1.2395941E-3,-1.9286542E-3],"split_indices":[13,5,8,0,0,0,0],"split_type":[0,0,0,0,0,0,0],"sum_hessian":[1.3712195E3,4.5019925E2,9.210202E2,2.8597095E2,1.6422832E2,1.980181E2,7.2300214E2],"tree_param":{"num_deleted":"0","num_feature":"14","num_nodes":"7","size_leaf_vector":"1"}},{"base_weights":[-1.2755159E-2,3.126498E-1,-5.640743E-1,5.469469E-3,6.481643E-4,-3.1370055E-3,-8.160576E-3],"categories":[],"categories_nodes":[],"categories_segments":[],"categories_sizes":[],"default_left":[0,0,0,0,0,0,0],"id":1,"left_children":[1,3,5,-1,-1,-1,-1],"loss_changes":[2.509757E2,5.018331E1,3.0385468E1,0E0,0E0,0E0,0E0],"parents":[2147483647,0,0,1,1,2,2],"right_children":[2,4,6,-1,-1,-1,-1],"split_conditions":[7.3382124E-2,5.1183935E-2,9.729382E-2,5.469469E-3,6.481643E-4,-3.1370055E-3,-8.160576E-3],"split_indices":[10,10,10,0,0,0,0],"split_type":[0,0,0,0,0,0,0],"sum_hessian":[1.3876406E3,8.728244E2,5.148162E2,4.4348874E2,4.2933563E2,2.6585376E2,2.4896246E2],"tree_param":{"num_deleted":"0","num_feature":"14","num_nodes":"7","size_leaf_vector":"1"}},{"base_weights":[-2.0406103E-2,1.8627122E-1,-7.156145E-1,4.433797E-3,-7.3111843E-4,-4.925247E-3,-1.0011417E-2],"categories":[],"categories_nodes":[],"categories_segments":[],"categories_sizes":[],"default_left":[0,0,0,0,0,0,0],"id":2,"left_children":[1,3,5,-1,-1,-1,-1],"loss_changes":[2.0047406E2,7.202037E1,1.642244E1,0E0,0E0,0E0,0E0],"parents":[2147483647,0,0,1,1,2,2],"right_children":[2,4,6,-1,-1,-1,-1],"split_conditions":[8.857866E-2,5.4645553E-2,1.1736422E-1,4.433797E-3,-7.3111843E-4,-4.925247E-3,-1.0011417E-2],"split_indices":[9,9,10,0,0,0,0],"split_type":[0,0,0,0,0,0,0],"sum_hessian":[1.381922E3,1.0669517E3,3.1497034E2,5.359801E2,5.3097156E2,1.8643274E2,1.285376E2],"tree_param":{"num_deleted":"0","num_feature":"14","num_nodes":"7","size_leaf_vector":"1"}},{"base_weights":[-2.0395223E-2,1.9183457E-1,-7.163198E-1,5.1600668E-3,-1.420692E-4,-4.766331E-3,-9.215684E-3],"categories":[],"categories_nodes":[],"categories_segments":[],"categories_sizes":[],"default_left":[0,0,0,0,0,0,0],"id":3,"left_children":[1,3,5,-1,-1,-1,-1],"loss_changes":[2.0814818E2,7.244194E1,1.2619583E1,0E0,0E0,0E0,0E0],"parents":[2147483647,0,0,1,1,2,2],"right_children":[2,4,6,-1,-1,-1,-1],"split_conditions":[8.857866E-2,4.9538247E-2,1.11360155E-1,5.1600668E-3,-1.420692E-4,-4.766331E-3,-9.215684E-3],"split_indices":[9,9,9,0,0,0,0],"split_type":[0,0,0,0,0,0,0],"sum_hessian":[1.3960989E3,1.0715138E3,3.2458502E2,4.1535428E2,6.5615955E2,1.5964125E2,1.6494379E2],"tree_param":{"num_deleted":"0","num_feature":"14","num_nodes":"7","size_leaf_vector":"1"}},{"base_weights":[2.5087262E-2,3.183336E-1,-4.7481036E-1,5.627962E-3,1.1704877E-3,-8.973297E-4,-6.5295254E-3],"categories":[],"categories_nodes":[],"categories_segments":[],"categories_sizes":[],"default_left":[0,0,0,0,0,0,0],"id":4,"left_children":[1,3,5,-1,-1,-1,-1],"loss_changes":[2.0405363E2,4.224343E1,3.4216003E1,0E0,0E0,0E0,0E0],"parents":[2147483647,0,0,1,1,2,2],"right_children":[2,4,6,-1,-1,-1,-1],"split_conditions":[7.2810255E-2,4.8712015E-2,1E1,5.627962E-3,1.1704877E-3,-8.973297E-4,-6.5295254E-3],"split_indices":[10,10,13,0,0,0,0],"split_type":[0,0,0,0,0,0,0],"sum_hessian":[1.3828845E3,8.7400085E2,5.0888364E2,3.8837143E2,4.8562943E2,1.651097E2,3.4377393E2],"tree_param":{"num_deleted":"0","num_feature":"14","num_nodes":"7","size_leaf_vector":"1"}},{"base_weights":[-4.1102604E-3,4.415968E-1,-3.3959672E-1,3.0382904E-3,5.628403E-3,-2.0077091E-3,-8.834502E-3],"categories":[],"categories_nodes":[],"categories_segments":[],"categories_sizes":[],"default_left":[0,0,0,0,0,0,0],"id":5,"left_children":[1,3,5,-1,-1,-1,-1],"loss_changes":[2.081318E2,8.246872E0,5.811168E1,0E0,0E0,0E0,0E0],"parents":[2147483647,0,0,1,1,2,2],"right_children":[2,4,6,-1,-1,-1,-1],"split_conditions":[5.7255078E-2,1.5123E6,1.12116285E-1,3.0382904E-3,5.628403E-3,-2.0077091E-3,-8.834502E-3],"split_indices":[9,5,10,0,0,0,0],"split_type":[0,0,0,0,0,0,0],"sum_hessian":[1.3825865E3,5.9179767E2,7.907888E2,2.890877E2,3.0270993E2,6.36897E2,1.5389186E2],"tree_param":{"num_deleted":"0","num_feature":"14","num_nodes":"7","size_leaf_vector":"1"}},{"base_weights":[1.635738E-2,3.2276234E-1,-4.782929E-1,5.4980097E-3,1.233024E-3,-2.2127002E-3,-7.2716675E-3],"categories":[],"categories_nodes":[],"categories_segments":[],"categories_sizes":[],"default_left":[0,0,0,0,0,0,0],"id":6,"left_children":[1,3,5,-1,-1,-1,-1],"loss_changes":[2.0888298E2,3.7604942E1,3.191703E1,0E0,0E0,0E0,0E0],"parents":[2147483647,0,0,1,1,2,2],"right_children":[2,4,6,-1,-1,-1,-1],"split_conditions":[7.240428E-2,4.899005E-2,9.506137E-2,5.4980097E-3,1.233024E-3,-2.2127002E-3,-7.2716675E-3],"split_indices":[10,10,10,0,0,0,0],"split_type":[0,0,0,0,0,0,0],"sum_hessian":[1.3691232E3,8.477525E2,5.213706E2,3.9001526E2,4.5773724E2,2.631095E2,2.5826114E2],"tree_param":{"num_deleted":"0","num_feature":"14","num_nodes":"7","size_leaf_vector":"1"}},{"base_weights":[-2.1336086E-2,3.8237292E-1,-3.214872E-1,4.9744253E-3,1.4651413E-3,-1.4951432E-3,-7.2395103E-3],"categories":[],"categories_nodes":[],"categories_segments":[],"categories_sizes":[],"default_left":[0,0,0,0,0,0,0],"id":7,"left_children":[1,3,5,-1,-1,-1,-1],"loss_changes":[1.6870456E2,1.5075485E1,5.3959976E1,0E0,0E0,0E0,0E0],"parents":[2147483647,0,0,1,1,2,2],"right_children":[2,4,6,-1,-1,-1,-1],"split_conditions":[5.7255078E-2,4.8314393E-2,9.900096E-2,4.9744253E-3,1.4651413E-3,-1.4951432E-3,-7.2395103E-3],"split_indices":[9,9,9,0,0,0,0],"split_type":[0,0,0,0,0,0,0],"sum_hessian":[1.382684E3,5.8762103E2,7.9506287E2,3.8836313E2,1.9925789E2,5.635851E2,2.3147781E2],"tree_param":{"num_deleted":"0","num_feature":"14","num_nodes":"7","size_leaf_vector":"1"}},{"base_weights":[2.6010344E-2,2.9618794E-1,-4.7820982E-1,5.323936E-3,5.814161E-4,-2.3557579E-3,-7.652122E-3],"categories":[],"categories_nodes":[],"categories_segments":[],"categories_sizes":[],"default_left":[0,0,0,0,0,0,0],"id":8,"left_children":[1,3,5,-1,-1,-1,-1],"loss_changes":[1.9078033E2,5.063054E1,3.207138E1,0E0,0E0,0E0,0E0],"parents":[2147483647,0,0,1,1,2,2],"right_children":[2,4,6,-1,-1,-1,-1],"split_conditions":[7.519815E-2,5.1183935E-2,1.0225848E-1,5.323936E-3,5.814161E-4,-2.3557579E-3,-7.652122E-3],"split_indices":[10,10,10,0,0,0,0],"split_type":[0,0,0,0,0,0,0],"sum_hessian":[1.391576E3,9.087073E2,4.828688E2,4.5090518E2,4.5780206E2,2.6848114E2,2.1438766E2],"tree_param":{"num_deleted":"0","num_feature":"14","num_nodes":"7","size_leaf_vector":"1"}},{"base_weights":[1.3825903E-2,3.1945413E-1,-5.0799555E-1,5.9501342E-3,8.2976406E-4,-3.4109184E-3,-8.800717E-3],"categories":[],"categories_nodes":[],"categories_segments":[],"categories_sizes":[],"default_left":[0,0,0,0,0,0,0],"id":9,"left_children":[1,3,5,-1,-1,-1,-1],"loss_changes":[2.1948868E2,5.5749916E1,2.8801086E1,0E0,0E0,0E0,0E0],"parents":[2147483647,0,0,1,1,2,2],"right_children":[2,4,6,-1,-1,-1,-1],"split_conditions":[7.2810255E-2,4.9212214E-2,1.12116285E-1,5.9501342E-3,8.2976406E-4,-3.4109184E-3,-8.800717E-3],"split_indices":[10,10,10,0,0,0,0],"split_type":[0,0,0,0,0,0,0],"sum_hessian":[1.3673424E3,8.6472986E2,5.0261255E2,3.939103E2,4.7081955E2,3.5544183E2,1.4717073E2],"tree_param":{"num_deleted":"0","num_feature":"14","num_nodes":"7","size_leaf_vector":"1"}},{"base_weights":[2.7828634E-2,1.7493698E-1,-8.5196726E-2,2.1474431E-3,-6.7303254E-4,-1.4394702E-3,1.6597824E-3],"categories":[],"categories_nodes":[],"categories_segments":[],"categories_sizes":[],"default_left":[0,0,0,0,0,0,0],"id":10,"left_children":[1,3,5,-1,-1,-1,-1],"loss_changes":[2.3115507E1,6.0559464E0,1.1609464E1,0E0,0E0,0E0,0E0],"parents":[2147483647,0,0,1,1,2,2],"right_children":[2,4,6,-1,-1,-1,-1],"split_conditions":[2.1E1,7.2393883E-3,1.9E1,2.1474431E-3,-6.7303254E-4,-1.4394702E-3,1.6597824E-3],"split_indices":[3,8,12,0,0,0,0],"split_type":[0,0,0,0,0,0,0],"sum_hessian":[1.3753623E3,6.002346E2,7.751276E2,5.1955225E2,8.068235E1,6.331488E2,1.4197885E2],"tree_param":{"num_deleted":"0","num_feature":"14","num_nodes":"7","size_leaf_vector":"1"}},{"base_weights":[-4.1139596E-3,2.881974E-1,-5.0556505E-1,5.098069E-3,1.0287568E-3,-3.567549E-3,-8.929227E-3],"categories":[],"categories_nodes":[],"categories_segments":[],"categories_sizes":[],"default_left":[0,0,0,0,0,0,0],"id":11,"left_children":[1,3,5,-1,-1,-1,-1],"loss_changes":[2.0688397E2,3.5655617E1,2.7158585E1,0E0,0E0,0E0,0E0],"parents":[2147483647,0,0,1,1,2,2],"right_children":[2,4,6,-1,-1,-1,-1],"split_conditions":[7.2810255E-2,4.8712015E-2,1.1736422E-1,5.098069E-3,1.0287568E-3,-3.567549E-3,-8.929227E-3],"split_indices":[10,10,10,0,0,0,0],"split_type":[0,0,0,0,0,0,0],"sum_hessian":[1.3999552E3,8.844905E2,5.154647E2,3.963639E2,4.881266E2,3.8120483E2,1.3425987E2],"tree_param":{"num_deleted":"0","num_feature":"14","num_nodes":"7","size_leaf_vector":"1"}},{"base_weights":[-1.641026E-2,1.8347843E-1,-1.4353532E-1,2.7170589E-3,4.0650353E-4,1.7244993E-4,-3.452198E-3],"categories":[],"categories_nodes":[],"categories_segments":[],"categories_sizes":[],"default_left":[0,0,0,0,0,0,0],"id":12,"left_children":[1,3,5,-1,-1,-1,-1],"loss_changes":[3.5753155E1,6.4963646E0,2.8364656E1,0E0,0E0,0E0,0E0],"parents":[2147483647,0,0,1,1,2,2],"right_children":[2,4,6,-1,-1,-1,-1],"split_conditions":[1E1,5.2245498E-2,2.4E1,2.7170589E-3,4.0650353E-4,1.7244993E-4,-3.452198E-3],"split_indices":[13,7,3,0,0,0,0],"split_type":[0,0,0,0,0,0,0],"sum_hessian":[1.398393E3,5.3969904E2,8.586939E2,3.2650067E2,2.131984E2,4.7758417E2,3.811097E2],"tree_param":{"num_deleted":"0","num_feature":"14","num_nodes":"7","size_leaf_vector":"1"}},{"base_weights":[1.0479607E-2,3.7356046E-1,-2.9338145E-1,2.166884E-3,5.385139E-3,-1.3457917E-3,-7.557817E-3],"categories":[],"categories_nodes":[],"categories_segments":[],"categories_sizes":[],"default_left":[0,0,0,0,0,0,0],"id":13,"left_children":[1,3,5,-1,-1,-1,-1],"loss_changes":[1.5485289E2,1.5237541E1,5.457782E1,0E0,0E0,0E0,0E0],"parents":[2147483647,0,0,1,1,2,2],"right_children":[2,4,6,-1,-1,-1,-1],"split_conditions":[5.9402242E-2,1.7586E6,1.0655062E-1,2.166884E-3,5.385139E-3,-1.3457917E-3,-7.557817E-3],"split_indices":[9,5,9,0,0,0,0],"split_type":[0,0,0,0,0,0,0],"sum_hessian":[1.3928983E3,6.3558624E2,7.5731213E2,3.3480984E2,3.0077637E2,5.7013E2,1.8718211E2],"tree_param":{"num_deleted":"0","num_feature":"14","num_nodes":"7","size_leaf_vector":"1"}},{"base_weights":[-2.8263181E-2,2.678011E-1,-4.6140122E-1,4.616473E-3,3.6687675E-4,-3.426563E-3,-8.177675E-3],"categories":[],"categories_nodes":[],"categories_segments":[],"categories_sizes":[],"default_left":[0,0,0,0,0,0,0],"id":14,"left_children":[1,3,5,-1,-1,-1,-1],"loss_changes":[1.790104E2,3.6476154E1,2.144918E1,0E0,0E0,0E0,0E0],"parents":[2147483647,0,0,1,1,2,2],"right_children":[2,4,6,-1,-1,-1,-1],"split_conditions":[6.990483E-2,5.1183935E-2,1.1736422E-1,4.616473E-3,3.6687675E-4,-3.426563E-3,-8.177675E-3],"split_indices":[10,10,10,0,0,0,0],"split_type":[0,0,0,0,0,0,0],"sum_hessian":[1.3846099E3,8.2220514E2,5.624047E2,4.42089E2,3.8011615E2,4.3130368E2,1.3110106E2],"tree_param":{"num_deleted":"0","num_feature":"14","num_nodes":"7","size_leaf_vector":"1"}},{"base_weights":[1.3594874E-3,2.7063435E-1,-4.6090087E-1,4.8777354E-3,8.3579146E-4,-2.7919486E-3,-7.903712E-3],"categories":[],"categories_nodes":[],"categories_segments":[],"categories_sizes":[],"default_left":[0,0,0,0,0,0,0],"id":15,"left_children":[1,3,5,-1,-1,-1,-1],"loss_changes":[1.7173766E2,3.473027E1,2.8183167E1,0E0,0E0,0E0,0E0],"parents":[2147483647,0,0,1,1,2,2],"right_children":[2,4,6,-1,-1,-1,-1],"split_conditions":[7.240428E-2,4.8712015E-2,1.074033E-1,4.8777354E-3,8.3579146E-4,-2.7919486E-3,-7.903712E-3],"split_indices":[10,10,10,0,0,0,0],"split_type":[0,0,0,0,0,0,0],"sum_hessian":[1.371213E3,8.6915234E2,5.020607E2,3.9603687E2,4.7311548E2,3.3150482E2,1.7055586E2],"tree_param":{"num_deleted":"0","num_feature":"14","num_nodes":"7","size_leaf_vector":"1"}},{"base_weights":[8.0353925E-3,2.7441466E-1,-4.6496636E-1,5.192074E-3,2.7211948E-4,-2.877559E-3,-8.711048E-3],"categories":[],"categories_nodes":[],"categories_segments":[],"categories_sizes":[],"default_left":[0,0,0,0,0,0,0],"id":16,"left_children":[1,3,5,-1,-1,-1,-1],"loss_changes":[1.7478075E2,5.3217888E1,3.3500763E1,0E0,0E0,0E0,0E0],"parents":[2147483647,0,0,1,1,2,2],"right_children":[2,4,6,-1,-1,-1,-1],"split_conditions":[7.3382124E-2,5.1183935E-2,1.1438963E-1,5.192074E-3,2.7211948E-4,-2.877559E-3,-8.711048E-3],"split_indices":[10,10,10,0,0,0,0],"split_type":[0,0,0,0,0,0,0],"sum_hessian":[1.3786213E3,8.846362E2,4.939851E2,4.396879E2,4.449483E2,3.5158347E2,1.4240164E2],"tree_param":{"num_deleted":"0","num_feature":"14","num_nodes":"7","size_leaf_vector":"1"}},{"base_weights":[1.7470272E-2,2.0598587E-1,-5.715872E-1,4.836807E-3,1.9691292E-4,2.5122052E-3,-6.253718E-3],"categories":[],"categories_nodes":[],"categories_segments":[],"categories_sizes":[],"default_left":[0,0,0,0,0,0,0],"id":17,"left_children":[1,3,5,-1,-1,-1,-1],"loss_changes":[1.5534212E2,5.44507E1,1.6148643E1,0E0,0E0,0E0,0E0],"parents":[2147483647,0,0,1,1,2,2],"right_children":[2,4,6,-1,-1,-1,-1],"split_conditions":[8.801328E-2,4.9538247E-2,5E0,4.836807E-3,1.9691292E-4,2.5122052E-3,-6.253718E-3],"split_indices":[9,9,13,0,0,0,0],"split_type":[0,0,0,0,0,0,0],"sum_hessian":[1.3918832E3,1.0581829E3,3.3370026E2,4.19507E2,6.386759E2,1.8207716E1,3.1549252E2],"tree_param":{"num_deleted":"0","num_feature":"14","num_nodes":"7","size_leaf_vector":"1"}},{"base_weights":[-1.3755873E-2,3.8656926E-1,-3.1938976E-1,4.942293E-3,8.4338296E-4,-1.6342074E-3,-7.2343955E-3],"categories":[],"categories_nodes":[],"categories_segments":[],"categories_sizes":[],"default_left":[0,0,0,0,0,0,0],"id":18,"left_children":[1,3,5,-1,-1,-1,-1],"loss_changes":[1.718968E2,1.8968246E1,4.882965E1,0E0,0E0,0E0,0E0],"parents":[2147483647,0,0,1,1,2,2],"right_children":[2,4,6,-1,-1,-1,-1],"split_conditions":[5.7540137E-2,5.1183935E-2,1.0225848E-1,4.942293E-3,8.4338296E-4,-1.6342074E-3,-7.2343955E-3],"split_indices":[9,10,10,0,0,0,0],"split_type":[0,0,0,0,0,0,0],"sum_hessian":[1.3954296E3,6.021396E2,7.932899E2,4.392027E2,1.6293689E2,5.792055E2,2.1408441E2],"tree_param":{"num_deleted":"0","num_feature":"14","num_nodes":"7","size_leaf_vector":"1"}},{"base_weights":[-4.275539E-3,2.9465565E-1,-3.95852E-1,4.6757315E-3,9.2331E-4,-2.0417734E-3,-7.821758E-3],"categories":[],"categories_nodes":[],"categories_segments":[],"categories_sizes":[],"default_left":[0,0,0,0,0,0,0],"id":19,"left_children":[1,3,5,-1,-1,-1,-1],"loss_changes":[1.6413832E2,2.6977913E1,4.324411E1,0E0,0E0,0E0,0E0],"parents":[2147483647,0,0,1,1,2,2],"right_children":[2,4,6,-1,-1,-1,-1],"split_conditions":[6.8029724E-2,4.974617E-2,1.0655062E-1,4.6757315E-3,9.2331E-4,-2.0417734E-3,-7.821758E-3],"split_indices":[9,9,9,0,0,0,0],"split_type":[0,0,0,0,0,0,0],"sum_hessian":[1.3913927E3,7.882914E2,6.0310126E2,4.1883493E2,3.6945645E2,4.0994037E2,1.9316092E2],"tree_param":{"num_deleted":"0","num_feature":"14","num_nodes":"7","size_leaf_vector":"1"}},{"base_weights":[-2.701625E-3,3.516401E-1,-2.9667565E-1,1.5132983E-3,5.254685E-3,-1.2420164E-3,-6.643933E-3],"categories":[],"categories_nodes":[],"categories_segments":[],"categories_sizes":[],"default_left":[0,0,0,0,0,0,0],"id":20,"left_children":[1,3,5,-1,-1,-1,-1],"loss_changes":[1.4492244E2,2.0846825E1,4.7139E1,0E0,0E0,0E0,0E0],"parents":[2147483647,0,0,1,1,2,2],"right_children":[2,4,6,-1,-1,-1,-1],"split_conditions":[5.9402242E-2,2.3601E6,9.900096E-2,1.5132983E-3,5.254685E-3,-1.2420164E-3,-6.643933E-3],"split_indices":[9,4,9,0,0,0,0],"split_type":[0,0,0,0,0,0,0],"sum_hessian":[1.3817675E3,6.245651E2,7.5720233E2,2.9719714E2,3.2736795E2,5.218449E2,2.3535744E2],"tree_param":{"num_deleted":"0","num_feature":"14","num_nodes":"7","size_leaf_vector":"1"}},{"base_weights":[7.513506E-3,9.035629E-2,-9.990443E-2,-5.8481563E-3,1.0550725E-3,-2.6262063E-3,-2.676902E-4],"categories":[],"categories_nodes":[],"categories_segments":[],"categories_sizes":[],"default_left":[0,0,0,0,0,0,0],"id":21,"left_children":[1,3,5,-1,-1,-1,-1],"loss_changes":[1.2205946E1,7.808504E0,6.72774E0,0E0,0E0,0E0,0E0],"parents":[2147483647,0,0,1,1,2,2],"right_children":[2,4,6,-1,-1,-1,-1],"split_conditions":[6.438743E-2,8.44E4,9.124E5,-5.8481563E-3,1.0550725E-3,-2.6262063E-3,-2.676902E-4],"split_indices":[7,5,5,0,0,0,0],"split_type":[0,0,0,0,0,0,0],"sum_hessian":[1.3626404E3,7.750278E2,5.876127E2,1.14353695E1,7.6359235E2,1.7395628E2,4.136564E2],"tree_param":{"num_deleted":"0","num_feature":"14","num_nodes":"7","size_leaf_vector":"1"}},{"base_weights":[-1.374723E-2,4.2929325E-1,-4.139363E-2,-0E0,4.764979E-3,-1.5506719E-3,7.9169316E-4],"categories":[],"categories_nodes":[],"categories_segments":[],"categories_sizes":[],"default_left":[0,0,0,0,0,0,0],"id":22,"left_children":[1,3,5,-1,-1,-1,-1],"loss_changes":[1.6525787E1,1.2327585E0,1.7948483E1,0E0,0E0,0E0,0E0],"parents":[2147483647,0,0,1,1,2,2],"right_children":[2,4,6,-1,-1,-1,-1],"split_conditions":[-1.0801212E0,-2.6857178E0,1.881E6,-0E0,4.764979E-3,-1.5506719E-3,7.9169316E-4],"split_indices":[7,7,5,0,0,0,0],"split_type":[0,0,0,0,0,0,0],"sum_hessian":[1.3686273E3,7.399693E1,1.2946305E3,9.447054E0,6.454988E1,6.698868E2,6.2474365E2],"tree_param":{"num_deleted":"0","num_feature":"14","num_nodes":"7","size_leaf_vector":"1"}},{"base_weights":[-6.85221E-3,2.2445022E-1,-1.22677036E-1,5.5984883E-3,1.9494712E-3,-2.552561E-3,1.9503418E-4],"categories":[],"categories_nodes":[],"categories_segments":[],"categories_sizes":[],"default_left":[0,0,0,0,0,0,0],"id":23,"left_children":[1,3,5,-1,-1,-1,-1],"loss_changes":[3.7529655E1,3.3092937E0,1.7954456E1,0E0,0E0,0E0,0E0],"parents":[2147483647,0,0,1,1,2,2],"right_children":[2,4,6,-1,-1,-1,-1],"split_conditions":[9E0,9E0,1.7962E6,5.5984883E-3,1.9494712E-3,-2.552561E-3,1.9503418E-4],"split_indices":[13,12,5,0,0,0,0],"split_type":[0,0,0,0,0,0,0],"sum_hessian":[1.3945134E3,4.6085736E2,9.3365607E2,2.7253874E1,4.336035E2,4.84723E2,4.4893307E2],"tree_param":{"num_deleted":"0","num_feature":"14","num_nodes":"7","size_leaf_vector":"1"}},{"base_weights":[2.424119E-2,3.6087486E-1,-3.301253E-1,5.232942E-3,1.3077356E-3,-2.0817826E-3,-7.875615E-3],"categories":[],"categories_nodes":[],"categories_segments":[],"categories_sizes":[],"default_left":[0,0,0,0,0,0,0],"id":24,"left_children":[1,3,5,-1,-1,-1,-1],"loss_changes":[1.6759337E2,2.5972862E1,3.628601E1,0E0,0E0,0E0,0E0],"parents":[2147483647,0,0,1,1,2,2],"right_children":[2,4,6,-1,-1,-1,-1],"split_conditions":[6.335312E-2,4.979447E-2,1.1736422E-1,5.232942E-3,1.3077356E-3,-2.0817826E-3,-7.875615E-3],"split_indices":[10,10,10,0,0,0,0],"split_type":[0,0,0,0,0,0,0],"sum_hessian":[1.3946527E3,7.166216E2,6.780311E2,4.1381158E2,3.0281003E2,5.427911E2,1.3524005E2],"tree_param":{"num_deleted":"0","num_feature":"14","num_nodes":"7","size_leaf_vector":"1"}},{"base_weights":[-1.597918E-2,3.6500895E-1,-2.753731E-1,2.2445968E-3,5.8796844E-3,-9.583742E-4,-6.544343E-3],"categories":[],"categories_nodes":[],"categories_segments":[],"categories_sizes":[],"default_left":[0,0,0,0,0,0,0],"id":25,"left_children":[1,3,5,-1,-1,-1,-1],"loss_changes":[1.345695E2,1.5777359E1,5.4199703E1,0E0,0E0,0E0,0E0],"parents":[2147483647,0,0,1,1,2,2],"right_children":[2,4,6,-1,-1,-1,-1],"split_conditions":[5.5924326E-2,2.3095E6,9.506137E-2,2.2445968E-3,5.8796844E-3,-9.583742E-4,-6.544343E-3],"split_indices":[10,5,10,0,0,0,0],"split_type":[0,0,0,0,0,0,0],"sum_hessian":[1.3525027E3,5.454602E2,8.0704254E2,3.4346527E2,2.0199493E2,5.536962E2,2.5334628E2],"tree_param":{"num_deleted":"0","num_feature":"14","num_nodes":"7","size_leaf_vector":"1"}},{"base_weights":[-5.7997927E-3,2.0578179E-1,-5.288115E-1,4.5256997E-3,5.49229E-5,-3.278621E-3,-8.1216665E-3],"categories":[],"categories_nodes":[],"categories_segments":[],"categories_sizes":[],"default_left":[0,0,0,0,0,0,0],"id":26,"left_children":[1,3,5,-1,-1,-1,-1],"loss_changes":[1.5299307E2,4.801959E1,2.0231468E1,0E0,0E0,0E0,0E0],"parents":[2147483647,0,0,1,1,2,2],"right_children":[2,4,6,-1,-1,-1,-1],"split_conditions":[8.1754126E-2,5.1183935E-2,1.11360155E-1,4.5256997E-3,5.49229E-5,-3.278621E-3,-8.1216665E-3],"split_indices":[10,10,9,0,0,0,0],"split_type":[0,0,0,0,0,0,0],"sum_hessian":[1.3697192E3,9.760031E2,3.9371606E2,4.321884E2,5.4381476E2,2.38729E2,1.5498708E2],"tree_param":{"num_deleted":"0","num_feature":"14","num_nodes":"7","size_leaf_vector":"1"}},{"base_weights":[-2.0715712E-2,2.0593245E-1,-3.9655834E-1,5.6020087E-3,1.2858314E-3,-2.5302565E-3,-7.971334E-3],"categories":[],"categories_nodes":[],"categories_segments":[],"categories_sizes":[],"default_left":[0,0,0,0,0,0,0],"id":27,"left_children":[1,3,5,-1,-1,-1,-1],"loss_changes":[1.1907498E2,2.2770546E1,2.8217209E1,0E0,0E0,0E0,0E0],"parents":[2147483647,0,0,1,1,2,2],"right_children":[2,4,6,-1,-1,-1,-1],"split_conditions":[7.2810255E-2,3.794416E-2,1.1736422E-1,5.6020087E-3,1.2858314E-3,-2.5302565E-3,-7.971334E-3],"split_indices":[10,10,10,0,0,0,0],"split_type":[0,0,0,0,0,0,0],"sum_hessian":[1.3858243E3,8.642479E2,5.215764E2,1.4696968E2,7.1727826E2,3.9183142E2,1.29745E2],"tree_param":{"num_deleted":"0","num_feature":"14","num_nodes":"7","size_leaf_vector":"1"}},{"base_weights":[2.224466E-2,1.9186056E-1,-5.2875865E-1,3.9234906E-3,7.0782476E-6,-3.539325E-3,-7.4610626E-3],"categories":[],"categories_nodes":[],"categories_segments":[],"categories_sizes":[],"default_left":[0,0,0,0,0,0,0],"id":28,"left_children":[1,3,5,-1,-1,-1,-1],"loss_changes":[1.3161649E2,4.10134E1,1.0156548E1,0E0,0E0,0E0,0E0],"parents":[2147483647,0,0,1,1,2,2],"right_children":[2,4,6,-1,-1,-1,-1],"split_conditions":[8.857866E-2,5.4645553E-2,1.1736422E-1,3.9234906E-3,7.0782476E-6,-3.539325E-3,-7.4610626E-3],"split_indices":[9,9,10,0,0,0,0],"split_type":[0,0,0,0,0,0,0],"sum_hessian":[1.4014591E3,1.07547E3,3.2598914E2,5.197947E2,5.5567523E2,1.9050067E2,1.3548845E2],"tree_param":{"num_deleted":"0","num_feature":"14","num_nodes":"7","size_leaf_vector":"1"}},{"base_weights":[-7.938912E-3,1.3872911E-1,-9.323201E-2,-5.137943E-4,2.0869467E-3,1.4069156E-3,-1.5315014E-3],"categories":[],"categories_nodes":[],"categories_segments":[],"categories_sizes":[],"default_left":[0,0,0,0,0,0,0],"id":29,"left_children":[1,3,5,-1,-1,-1,-1],"loss_changes":[1.7402187E1,6.976426E0,1.2537357E1,0E0,0E0,0E0,0E0],"parents":[2147483647,0,0,1,1,2,2],"right_children":[2,4,6,-1,-1,-1,-1],"split_conditions":[2E1,2.704E5,-5.8691753E-3,-5.137943E-4,2.0869467E-3,1.4069156E-3,-1.5315014E-3],"split_indices":[3,11,8,0,0,0,0],"split_type":[0,0,0,0,0,0,0],"sum_hessian":[1.3845549E3,5.036439E2,8.809111E2,1.3200337E2,3.7164053E2,1.7485156E2,7.060595E2],"tree_param":{"num_deleted":"0","num_feature":"14","num_nodes":"7","size_leaf_vector":"1"}},{"base_weights":[-1.3749815E-2,2.90096E-1,-3.4659708E-1,4.548441E-3,7.5496174E-4,-2.0104207E-3,-6.803994E-3],"categories":[],"categories_nodes":[],"categories_segments":[],"categories_sizes":[],"default_left":[0,0,0,0,0,0,0],"id":30,"left_children":[1,3,5,-1,-1,-1,-1],"loss_changes":[1.3873126E2,2.4590122E1,3.0299873E1,0E0,0E0,0E0,0E0],"parents":[2147483647,0,0,1,1,2,2],"right_children":[2,4,6,-1,-1,-1,-1],"split_conditions":[6.4204276E-2,4.979447E-2,1.0561481E-1,4.548441E-3,7.5496174E-4,-2.0104207E-3,-6.803994E-3],"split_indices":[10,10,10,0,0,0,0],"split_type":[0,0,0,0,0,0,0],"sum_hessian":[1.3612239E3,7.1037897E2,6.508449E2,3.960638E2,3.1431516E2,4.6088327E2,1.8996164E2],"tree_param":{"num_deleted":"0","num_feature":"14","num_nodes":"7","size_leaf_vector":"1"}},{"base_weights":[1.7744182E-2,3.4348235E-1,-2.865575E-1,2.015853E-3,6.385589E-3,-1.3934328E-3,-6.838845E-3],"categories":[],"categories_nodes":[],"categories_segments":[],"categories_sizes":[],"default_left":[0,0,0,0,0,0,0],"id":31,"left_children":[1,3,5,-1,-1,-1,-1],"loss_changes":[1.3707367E2,2.6531563E1,4.041895E1,0E0,0E0,0E0,0E0],"parents":[2147483647,0,0,1,1,2,2],"right_children":[2,4,6,-1,-1,-1,-1],"split_conditions":[6.090769E-2,2.7412E6,1.0655062E-1,2.015853E-3,6.385589E-3,-1.3934328E-3,-6.838845E-3],"split_indices":[9,5,9,0,0,0,0],"split_type":[0,0,0,0,0,0,0],"sum_hessian":[1.3723297E3,6.6409503E2,7.082347E2,4.5641705E2,2.0767801E2,5.235308E2,1.8470387E2],"tree_param":{"num_deleted":"0","num_feature":"14","num_nodes":"7","size_leaf_vector":"1"}},{"base_weights":[1.7761633E-2,2.5864643E-1,-3.8104457E-1,4.8115305E-3,7.8420434E-4,-2.367523E-3,-7.431334E-3],"categories":[],"categories_nodes":[],"categories_segments":[],"categories_sizes":[],"default_left":[0,0,0,0,0,0,0],"id":32,"left_children":[1,3,5,-1,-1,-1,-1],"loss_changes":[1.3142653E2,3.354047E1,2.5004433E1,0E0,0E0,0E0,0E0],"parents":[2147483647,0,0,1,1,2,2],"right_children":[2,4,6,-1,-1,-1,-1],"split_conditions":[7.2810255E-2,4.8314393E-2,1.1438963E-1,4.8115305E-3,7.8420434E-4,-2.367523E-3,-7.431334E-3],"split_indices":[10,9,10,0,0,0,0],"split_type":[0,0,0,0,0,0,0],"sum_hessian":[1.3592253E3,8.5004834E2,5.0917694E2,3.7418414E2,4.758642E2,3.7197577E2,1.3720116E2],"tree_param":{"num_deleted":"0","num_feature":"14","num_nodes":"7","size_leaf_vector":"1"}},{"base_weights":[1.5307805E-2,3.6827183E-1,-2.5668967E-1,2.644551E-3,5.3797835E-3,-1.4479017E-3,-6.848183E-3],"categories":[],"categories_nodes":[],"categories_segments":[],"categories_sizes":[],"default_left":[0,0,0,0,0,0,0],"id":33,"left_children":[1,3,5,-1,-1,-1,-1],"loss_changes":[1.3253322E2,9.089294E0,3.592604E1,0E0,0E0,0E0,0E0],"parents":[2147483647,0,0,1,1,2,2],"right_children":[2,4,6,-1,-1,-1,-1],"split_conditions":[5.8044683E-2,3.6868E6,1.12713985E-1,2.644551E-3,5.3797835E-3,-1.4479017E-3,-6.848183E-3],"split_indices":[9,4,9,0,0,0,0],"split_type":[0,0,0,0,0,0,0],"sum_hessian":[1.3693923E3,5.9682056E2,7.725717E2,3.818877E2,2.1493288E2,6.1964307E2,1.5292867E2],"tree_param":{"num_deleted":"0","num_feature":"14","num_nodes":"7","size_leaf_vector":"1"}},{"base_weights":[-2.0996103E-2,2.264256E-1,-4.6178177E-1,4.4107237E-3,5.155714E-4,-3.0046152E-3,-7.897081E-3],"categories":[],"categories_nodes":[],"categories_segments":[],"categories_sizes":[],"default_left":[0,0,0,0,0,0,0],"id":34,"left_children":[1,3,5,-1,-1,-1,-1],"loss_changes":[1.5278398E2,3.2976734E1,2.4398926E1,0E0,0E0,0E0,0E0],"parents":[2147483647,0,0,1,1,2,2],"right_children":[2,4,6,-1,-1,-1,-1],"split_conditions":[7.423073E-2,4.9212214E-2,1.12116285E-1,4.4107237E-3,5.155714E-4,-3.0046152E-3,-7.897081E-3],"split_indices":[10,10,10,0,0,0,0],"split_type":[0,0,0,0,0,0,0],"sum_hessian":[1.388966E3,8.8971454E2,4.992514E2,3.9344284E2,4.9627167E2,3.430982E2,1.5615321E2],"tree_param":{"num_deleted":"0","num_feature":"14","num_nodes":"7","size_leaf_vector":"1"}},{"base_weights":[-4.833669E-3,3.107744E-1,-2.81462E-1,4.1776155E-3,6.696596E-4,-1.8497272E-3,-7.0188534E-3],"categories":[],"categories_nodes":[],"categories_segments":[],"categories_sizes":[],"default_left":[0,0,0,0,0,0,0],"id":35,"left_children":[1,3,5,-1,-1,-1,-1],"loss_changes":[1.2025363E2,1.6118073E1,2.83143E1,0E0,0E0,0E0,0E0],"parents":[2147483647,0,0,1,1,2,2],"right_children":[2,4,6,-1,-1,-1,-1],"split_conditions":[5.9402242E-2,5.1183935E-2,1.1736422E-1,4.1776155E-3,6.696596E-4,-1.8497272E-3,-7.0188534E-3],"split_indices":[9,10,10,0,0,0,0],"split_type":[0,0,0,0,0,0,0],"sum_hessian":[1.3677052E3,6.368661E2,7.308391E2,4.3730185E2,1.9956427E2,6.022078E2,1.2863132E2],"tree_param":{"num_deleted":"0","num_feature":"14","num_nodes":"7","size_leaf_vector":"1"}},{"base_weights":[3.8704025E-3,1.4560172E-1,-1.0591205E-1,2.6281076E-3,5.763818E-4,2.5067793E-3,-1.4495498E-3],"categories":[],"categories_nodes":[],"categories_segments":[],"categories_sizes":[],"default_left":[0,0,0,0,0,0,0],"id":36,"left_children":[1,3,5,-1,-1,-1,-1],"loss_changes":[2.1668816E1,5.8999004E0,1.0927786E1,0E0,0E0,0E0,0E0],"parents":[2147483647,0,0,1,1,2,2],"right_children":[2,4,6,-1,-1,-1,-1],"split_conditions":[2.1E1,-1.7581928E-3,-6.6494083E-1,2.6281076E-3,5.763818E-4,2.5067793E-3,-1.4495498E-3],"split_indices":[3,8,7,0,0,0,0],"split_type":[0,0,0,0,0,0,0],"sum_hessian":[1.380126E3,6.056707E2,7.7445526E2,2.5053397E2,3.5513672E2,7.122468E1,7.032306E2],"tree_param":{"num_deleted":"0","num_feature":"14","num_nodes":"7","size_leaf_vector":"1"}},{"base_weights":[-1.9458512E-2,-1.00285016E-1,1.16969354E-1,-1.3973647E-3,3.348749E-3,2.7748926E-3,1.7577945E-4],"categories":[],"categories_nodes":[],"categories_segments":[],"categories_sizes":[],"default_left":[0,0,0,0,0,0,0],"id":37,"left_children":[1,3,5,-1,-1,-1,-1],"loss_changes":[1.5199759E1,1.4983295E1,7.8030295E0,0E0,0E0,0E0,0E0],"parents":[2147483647,0,0,1,1,2,2],"right_children":[2,4,6,-1,-1,-1,-1],"split_conditions":[4.0047E6,2E1,2E1,-1.3973647E-3,3.348749E-3,2.7748926E-3,1.7577945E-4],"split_indices":[4,12,3,0,0,0,0],"split_type":[0,0,0,0,0,0,0],"sum_hessian":[1.3696085E3,8.654992E2,5.0410938E2,7.9877496E2,6.672424E1,1.8550037E2,3.18609E2],"tree_param":{"num_deleted":"0","num_feature":"14","num_nodes":"7","size_leaf_vector":"1"}},{"base_weights":[4.477394E-3,4.0609756E-1,-1.8426919E-1,5.8265966E-3,2.8329268E-3,-2.9163223E-4,-4.8100865E-3],"categories":[],"categories_nodes":[],"categories_segments":[],"categories_sizes":[],"default_left":[0,0,0,0,0,0,0],"id":38,"left_children":[1,3,5,-1,-1,-1,-1],"loss_changes":[1.0492038E2,7.919586E0,4.2591236E1,0E0,0E0,0E0,0E0],"parents":[2147483647,0,0,1,1,2,2],"right_children":[2,4,6,-1,-1,-1,-1],"split_conditions":[5.1183935E-2,3.9407335E-2,8.857866E-2,5.8265966E-3,2.8329268E-3,-2.9163223E-4,-4.8100865E-3],"split_indices":[10,10,9,0,0,0,0],"split_type":[0,0,0,0,0,0,0],"sum_hessian":[1.3712307E3,4.3825024E2,9.329805E2,1.6875604E2,2.694942E2,6.1853375E2,3.1444675E2],"tree_param":{"num_deleted":"0","num_feature":"14","num_nodes":"7","size_leaf_vector":"1"}},{"base_weights":[2.669562E-2,1.9179924E-1,-7.629482E-2,2.4391545E-3,-5.0093554E-4,5.174042E-4,-2.3343125E-3],"categories":[],"categories_nodes":[],"categories_segments":[],"categories_sizes":[],"default_left":[0,0,0,0,0,0,0],"id":39,"left_children":[1,3,5,-1,-1,-1,-1],"loss_changes":[2.3720491E1,7.021925E0,1.7385593E1,0E0,0E0,0E0,0E0],"parents":[2147483647,0,0,1,1,2,2],"right_children":[2,4,6,-1,-1,-1,-1],"split_conditions":[1E1,6.2223254E-3,7E0,2.4391545E-3,-5.0093554E-4,5.174042E-4,-2.3343125E-3],"split_indices":[13,8,12,0,0,0,0],"split_type":[0,0,0,0,0,0,0],"sum_hessian":[1.3788915E3,5.317857E2,8.471057E2,4.408879E2,9.08978E1,4.6511685E2,3.8198886E2],"tree_param":{"num_deleted":"0","num_feature":"14","num_nodes":"7","size_leaf_vector":"1"}},{"base_weights":[-2.0392118E-2,3.3108276E-1,-3.133433E-1,5.1719462E-3,2.033362E-3,-9.886489E-4,-5.806763E-3],"categories":[],"categories_nodes":[],"categories_segments":[],"categories_sizes":[],"default_left":[0,0,0,0,0,0,0],"id":40,"left_children":[1,3,5,-1,-1,-1,-1],"loss_changes":[1.443465E2,1.3873695E1,4.2957893E1,0E0,0E0,0E0,0E0],"parents":[2147483647,0,0,1,1,2,2],"right_children":[2,4,6,-1,-1,-1,-1],"split_conditions":[5.973711E-2,-4.8634924E-2,8.801328E-2,5.1719462E-3,2.033362E-3,-9.886489E-4,-5.806763E-3],"split_indices":[9,7,9,0,0,0,0],"split_type":[0,0,0,0,0,0,0],"sum_hessian":[1.3920334E3,6.3096014E2,7.610733E2,2.4742288E2,3.8353726E2,4.281572E2,3.3291608E2],"tree_param":{"num_deleted":"0","num_feature":"14","num_nodes":"7","size_leaf_vector":"1"}},{"base_weights":[2.3651898E-3,2.2979881E-1,-1.0933375E-1,4.1106273E-3,5.1145215E-4,-2.0708153E-3,1.1252434E-3],"categories":[],"categories_nodes":[],"categories_segments":[],"categories_sizes":[],"default_left":[0,0,0,0,0,0,0],"id":41,"left_children":[1,3,5,-1,-1,-1,-1],"loss_changes":[3.572936E1,1.4478178E1,2.0534214E1,0E0,0E0,0E0,0E0],"parents":[2147483647,0,0,1,1,2,2],"right_children":[2,4,6,-1,-1,-1,-1],"split_conditions":[9E0,-1.5281658E-3,3.0044E6,4.1106273E-3,5.1145215E-4,-2.0708153E-3,1.1252434E-3],"split_indices":[13,8,5,0,0,0,0],"split_type":[0,0,0,0,0,0,0],"sum_hessian":[1.391754E3,4.5960483E2,9.321492E2,2.2212868E2,2.3747614E2,6.504221E2,2.8172708E2],"tree_param":{"num_deleted":"0","num_feature":"14","num_nodes":"7","size_leaf_vector":"1"}},{"base_weights":[1.9634108E-3,1.4806037E-1,-1.1041537E-1,2.616019E-3,6.0537603E-4,-1.7914836E-3,1.8815368E-3],"categories":[],"categories_nodes":[],"categories_segments":[],"categories_sizes":[],"default_left":[0,0,0,0,0,0,0],"id":42,"left_children":[1,3,5,-1,-1,-1,-1],"loss_changes":[2.3067793E1,5.697378E0,1.635173E1,0E0,0E0,0E0,0E0],"parents":[2147483647,0,0,1,1,2,2],"right_children":[2,4,6,-1,-1,-1,-1],"split_conditions":[2.1E1,-1.8233041E-3,1.9E1,2.616019E-3,6.0537603E-4,-1.7914836E-3,1.8815368E-3],"split_indices":[3,8,12,0,0,0,0],"split_type":[0,0,0,0,0,0,0],"sum_hessian":[1.392742E3,6.0870795E2,7.84034E2,2.5566653E2,3.5304144E2,6.4166644E2,1.4236757E2],"tree_param":{"num_deleted":"0","num_feature":"14","num_nodes":"7","size_leaf_vector":"1"}},{"base_weights":[1.3433665E-2,2.25692E-1,-4.1365522E-1,4.3980274E-3,3.2210548E-4,-2.7442044E-3,-7.1383757E-3],"categories":[],"categories_nodes":[],"categories_segments":[],"categories_sizes":[],"default_left":[0,0,0,0,0,0,0],"id":43,"left_children":[1,3,5,-1,-1,-1,-1],"loss_changes":[1.24904816E2,3.7699837E1,1.711663E1,0E0,0E0,0E0,0E0],"parents":[2147483647,0,0,1,1,2,2],"right_children":[2,4,6,-1,-1,-1,-1],"split_conditions":[7.69915E-2,5.1183935E-2,1.1736422E-1,4.3980274E-3,3.2210548E-4,-2.7442044E-3,-7.1383757E-3],"split_indices":[10,10,10,0,0,0,0],"split_type":[0,0,0,0,0,0,0],"sum_hessian":[1.3697557E3,9.1814655E2,4.5160925E2,4.3036334E2,4.8778323E2,3.1732523E2,1.3428401E2],"tree_param":{"num_deleted":"0","num_feature":"14","num_nodes":"7","size_leaf_vector":"1"}},{"base_weights":[-1.8972721E-2,8.515291E-2,-1.5204899E-1,2.3676683E-4,3.1631005E-3,4.0196623E-3,-1.9286027E-3],"categories":[],"categories_nodes":[],"categories_segments":[],"categories_sizes":[],"default_left":[0,0,0,0,0,0,0],"id":44,"left_children":[1,3,5,-1,-1,-1,-1],"loss_changes":[1.9173885E1,1.0564328E1,1.3954008E1,0E0,0E0,0E0,0E0],"parents":[2147483647,0,0,1,1,2,2],"right_children":[2,4,6,-1,-1,-1,-1],"split_conditions":[2.3E1,7.7544E6,-9.8604053E-1,2.3676683E-4,3.1631005E-3,4.0196623E-3,-1.9286027E-3],"split_indices":[3,4,7,0,0,0,0],"split_type":[0,0,0,0,0,0,0],"sum_hessian":[1.3692319E3,7.649682E2,6.042638E2,6.120356E2,1.5293262E2,3.6741814E1,5.67522E2],"tree_param":{"num_deleted":"0","num_feature":"14","num_nodes":"7","size_leaf_vector":"1"}},{"base_weights":[-8.110441E-3,1.1040373E-1,-1.5828215E-1,6.0412154E-4,2.7977813E-3,3.0929083E-3,-1.925674E-3],"categories":[],"categories_nodes":[],"categories_segments":[],"categories_sizes":[],"default_left":[0,0,0,0,0,0,0],"id":45,"left_children":[1,3,5,-1,-1,-1,-1],"loss_changes":[2.4574585E1,6.0673103E0,9.983541E0,0E0,0E0,0E0,0E0],"parents":[2147483647,0,0,1,1,2,2],"right_children":[2,4,6,-1,-1,-1,-1],"split_conditions":[2.3E1,4.4294E6,-9.8604053E-1,6.0412154E-4,2.7977813E-3,3.0929083E-3,-1.925674E-3],"split_indices":[3,5,7,0,0,0,0],"split_type":[0,0,0,0,0,0,0],"sum_hessian":[1.368191E3,7.617163E2,6.0647473E2,5.9792395E2,1.6379236E2,3.6699844E1,5.6977484E2],"tree_param":{"num_deleted":"0","num_feature":"14","num_nodes":"7","size_leaf_vector":"1"}},{"base_weights":[8.603314E-3,1.9660904E-1,-1.0923601E-1,3.7665532E-3,1.1134911E-3,6.04361E-4,-2.1112051E-3],"categories":[],"categories_nodes":[],"categories_segments":[],"categories_sizes":[],"default_left":[0,0,0,0,0,0,0],"id":46,"left_children":[1,3,5,-1,-1,-1,-1],"loss_changes":[3.0657536E1,7.512434E0,1.4825077E1,0E0,0E0,0E0,0E0],"parents":[2147483647,0,0,1,1,2,2],"right_children":[2,4,6,-1,-1,-1,-1],"split_conditions":[1E1,5E0,2.1E1,3.7665532E-3,1.1134911E-3,6.04361E-4,-2.1112051E-3],"split_indices":[13,13,3,0,0,0,0],"split_type":[0,0,0,0,0,0,0],"sum_hessian":[1.3700175E3,5.2983716E2,8.4018024E2,1.610098E2,3.688274E2,3.1230536E2,5.278749E2],"tree_param":{"num_deleted":"0","num_feature":"14","num_nodes":"7","size_leaf_vector":"1"}},{"base_weights":[8.02738E-3,2.6619294E-1,-4.1349667E-1,4.9406267E-3,3.1441782E-4,-6.0373535E-3,-2.3407247E-3],"categories":[],"categories_nodes":[],"categories_segments":[],"categories_sizes":[],"default_left":[0,0,0,0,0,0,0],"id":47,"left_children":[1,3,5,-1,-1,-1,-1],"loss_changes":[1.510801E2,4.557207E1,1.6423447E1,0E0,0E0,0E0,0E0],"parents":[2147483647,0,0,1,1,2,2],"right_children":[2,4,6,-1,-1,-1,-1],"split_conditions":[7.2810255E-2,5.1183935E-2,1.8255E6,4.9406267E-3,3.1441782E-4,-6.0373535E-3,-2.3407247E-3],"split_indices":[10,10,5,0,0,0,0],"split_type":[0,0,0,0,0,0,0],"sum_hessian":[1.3796068E3,8.582066E2,5.214002E2,4.305219E2,4.2768466E2,2.4462898E2,2.767712E2],"tree_param":{"num_deleted":"0","num_feature":"14","num_nodes":"7","size_leaf_vector":"1"}},{"base_weights":[-7.6083164E-3,1.562916E-1,-1.0574802E-1,4.4333166E-4,3.355306E-3,-1.6057478E-3,1.5451772E-3],"categories":[],"categories_nodes":[],"categories_segments":[],"categories_sizes":[],"default_left":[0,0,0,0,0,0,0],"id":48,"left_children":[1,3,5,-1,-1,-1,-1],"loss_changes":[2.2199865E1,9.867425E0,1.2527547E1,0E0,0E0,0E0,0E0],"parents":[2147483647,0,0,1,1,2,2],"right_children":[2,4,6,-1,-1,-1,-1],"split_conditions":[2E1,2.511729E6,1.9E1,4.4333166E-4,3.355306E-3,-1.6057478E-3,1.5451772E-3],"split_indices":[3,5,12,0,0,0,0],"split_type":[0,0,0,0,0,0,0],"sum_hessian":[1.3731565E3,5.0935202E2,8.6380444E2,3.207913E2,1.8856071E2,7.182562E2,1.4554822E2],"tree_param":{"num_deleted":"0","num_feature":"14","num_nodes":"7","size_leaf_vector":"1"}},{"base_weights":[-6.6599213E-3,2.956368E-1,-3.2708418E-1,4.3111276E-3,7.076076E-4,-2.216952E-3,-7.384868E-3],"categories":[],"categories_nodes":[],"categories_segments":[],"categories_sizes":[],"default_left":[0,0,0,0,0,0,0],"id":49,"left_children":[1,3,5,-1,-1,-1,-1],"loss_changes":[1.3332687E2,2.0870586E1,2.7252716E1,0E0,0E0,0E0,0E0],"parents":[2147483647,0,0,1,1,2,2],"right_children":[2,4,6,-1,-1,-1,-1],"split_conditions":[6.335312E-2,5.1183935E-2,1.1736422E-1,4.3111276E-3,7.076076E-4,-2.216952E-3,-7.384868E-3],"split_indices":[10,10,10,0,0,0,0],"split_type":[0,0,0,0,0,0,0],"sum_hessian":[1.3661288E3,7.015417E2,6.645871E2,4.321573E2,2.6938443E2,5.371186E2,1.2746851E2],"tree_param":{"num_deleted":"0","num_feature":"14","num_nodes":"7","size_leaf_vector":"1"}},{"base_weights":[-2.7896985E-2,1.340983E-1,-5.500885E-1,4.3570846E-3,1.0609312E-4,-7.5079086E-3,-3.8331016E-3],"categories":[],"categories_nodes":[],"categories_segments":[],"categories_sizes":[],"default_left":[0,0,0,0,0,0,0],"id":50,"left_children":[1,3,5,-1,-1,-1,-1],"loss_changes":[1.1721231E2,3.87507E1,8.416649E0,0E0,0E0,0E0,0E0],"parents":[2147483647,0,0,1,1,2,2],"right_children":[2,4,6,-1,-1,-1,-1],"split_conditions":[8.857866E-2,4.540729E-2,6.566E5,4.3570846E-3,1.0609312E-4,-7.5079086E-3,-3.8331016E-3],"split_indices":[9,9,11,0,0,0,0],"split_type":[0,0,0,0,0,0,0],"sum_hessian":[1.3713324E3,1.0480159E3,3.2331653E2,2.9841818E2,7.4959766E2,1.3606738E2,1.8724915E2],"tree_param":{"num_deleted":"0","num_feature":"14","num_nodes":"7","size_leaf_vector":"1"}},{"base_weights":[6.2949955E-3,1.44268E-1,-6.0885775E-1,3.923914E-3,-1.7104829E-4,-6.9287475E-3,-1.7797013E-3],"categories":[],"categories_nodes":[],"categories_segments":[],"categories_sizes":[],"default_left":[0,0,0,0,0,0,0],"id":51,"left_children":[1,3,5,-1,-1,-1,-1],"loss_changes":[1.17982735E2,4.6096313E1,7.7205124E0,0E0,0E0,0E0,0E0],"parents":[2147483647,0,0,1,1,2,2],"right_children":[2,4,6,-1,-1,-1,-1],"split_conditions":[9.663642E-2,5.1183935E-2,1.7098317E2,3.923914E-3,-1.7104829E-4,-6.9287475E-3,-1.7797013E-3],"split_indices":[10,10,0,0,0,0,0],"split_type":[0,0,0,0,0,0,0],"sum_hessian":[1.3853843E3,1.1360352E3,2.4934908E2,4.4730603E2,6.887292E2,2.0417664E2,4.517244E1],"tree_param":{"num_deleted":"0","num_feature":"14","num_nodes":"7","size_leaf_vector":"1"}},{"base_weights":[-0E0,2.745011E-1,-2.6981705E-1,3.7227755E-3,1.2537225E-3,-1.3236611E-3,-5.6498013E-3],"categories":[],"categories_nodes":[],"categories_segments":[],"categories_sizes":[],"default_left":[0,0,0,0,0,0,0],"id":52,"left_children":[1,3,5,-1,-1,-1,-1],"loss_changes":[1.0290065E2,9.287373E0,2.7421856E1,0E0,0E0,0E0,0E0],"parents":[2147483647,0,0,1,1,2,2],"right_children":[2,4,6,-1,-1,-1,-1],"split_conditions":[6.2272765E-2,4.979447E-2,1.0225848E-1,3.7227755E-3,1.2537225E-3,-1.3236611E-3,-5.6498013E-3],"split_indices":[10,10,10,0,0,0,0],"split_type":[0,0,0,0,0,0,0],"sum_hessian":[1.379384E3,6.820717E2,6.9731226E2,4.0339685E2,2.786749E2,4.8301367E2,2.1429858E2],"tree_param":{"num_deleted":"0","num_feature":"14","num_nodes":"7","size_leaf_vector":"1"}},{"base_weights":[-5.130667E-4,2.995499E-1,-3.341534E-1,5.4894243E-3,2.1713332E-3,-1.3447342E-3,-6.2998943E-3],"categories":[],"categories_nodes":[],"categories_segments":[],"categories_sizes":[],"default_left":[0,0,0,0,0,0,0],"id":53,"left_children":[1,3,5,-1,-1,-1,-1],"loss_changes":[1.3869038E2,1.3593399E1,3.764492E1,0E0,0E0,0E0,0E0],"parents":[2147483647,0,0,1,1,2,2],"right_children":[2,4,6,-1,-1,-1,-1],"split_conditions":[6.4811036E-2,3.9407335E-2,9.506137E-2,5.4894243E-3,2.1713332E-3,-1.3447342E-3,-6.2998943E-3],"split_indices":[10,10,10,0,0,0,0],"split_type":[0,0,0,0,0,0,0],"sum_hessian":[1.3749922E3,7.226147E2,6.5237756E2,1.6944319E2,5.531715E2,3.9584662E2,2.565309E2],"tree_param":{"num_deleted":"0","num_feature":"14","num_nodes":"7","size_leaf_vector":"1"}},{"base_weights":[-2.1739125E-2,-1.10530056E-1,1.23307854E-1,-3.158411E-3,-0E0,1.8474887E-3,-1.2594435E-3],"categories":[],"categories_nodes":[],"categories_segments":[],"categories_sizes":[],"default_left":[0,0,0,0,0,0,0],"id":54,"left_children":[1,3,5,-1,-1,-1,-1],"loss_changes":[1.7901026E1,1.9689407E1,8.203461E0,0E0,0E0,0E0,0E0],"parents":[2147483647,0,0,1,1,2,2],"right_children":[2,4,6,-1,-1,-1,-1],"split_conditions":[3.8897E6,6.2337482E1,8.517E1,-3.158411E-3,-0E0,1.8474887E-3,-1.2594435E-3],"split_indices":[4,1,0,0,0,0,0],"split_type":[0,0,0,0,0,0,0],"sum_hessian":[1.3806555E3,8.614194E2,5.192362E2,2.9848535E2,5.62934E2,4.208115E2,9.842469E1],"tree_param":{"num_deleted":"0","num_feature":"14","num_nodes":"7","size_leaf_vector":"1"}},{"base_weights":[-1.187397E-2,1.8069755E-1,-4.3718478E-1,4.1197753E-3,-4.892878E-5,-5.452479E-3,2.9745672E-4],"categories":[],"categories_nodes":[],"categories_segments":[],"categories_sizes":[],"default_left":[0,0,0,0,0,0,0],"id":55,"left_children":[1,3,5,-1,-1,-1,-1],"loss_changes":[1.1499706E2,4.1748703E1,2.2707214E1,0E0,0E0,0E0,0E0],"parents":[2147483647,0,0,1,1,2,2],"right_children":[2,4,6,-1,-1,-1,-1],"split_conditions":[8.0058396E-2,5.0688796E-2,1.4173802E2,4.1197753E-3,-4.892878E-5,-5.452479E-3,2.9745672E-4],"split_indices":[10,10,2,0,0,0,0],"split_type":[0,0,0,0,0,0,0],"sum_hessian":[1.391114E3,9.579153E2,4.331988E2,4.2614676E2,5.317685E2,3.528424E2,8.035637E1],"tree_param":{"num_deleted":"0","num_feature":"14","num_nodes":"7","size_leaf_vector":"1"}},{"base_weights":[-8.155841E-3,1.2595943E-1,-1.14484124E-1,3.8005998E-3,9.0048637E-4,-2.0981424E-3,2.7576785E-3],"categories":[],"categories_nodes":[],"categories_segments":[],"categories_sizes":[],"default_left":[0,0,0,0,0,0,0],"id":56,"left_children":[1,3,5,-1,-1,-1,-1],"loss_changes":[1.9689032E1,4.89678E0,2.9038158E1,0E0,0E0,0E0,0E0],"parents":[2147483647,0,0,1,1,2,2],"right_children":[2,4,6,-1,-1,-1,-1],"split_conditions":[2.1E1,4.426E5,1.9E1,3.8005998E-3,9.0048637E-4,-2.0981424E-3,2.7576785E-3],"split_indices":[3,5,12,0,0,0,0],"split_type":[0,0,0,0,0,0,0],"sum_hessian":[1.3714423E3,6.019082E2,7.6953406E2,6.515004E1,5.367582E2,6.223754E2,1.471586E2],"tree_param":{"num_deleted":"0","num_feature":"14","num_nodes":"7","size_leaf_vector":"1"}},{"base_weights":[4.561578E-3,2.8208697E-1,-2.2764444E-1,5.1053716E-3,1.8630252E-3,-8.333815E-4,-5.145347E-3],"categories":[],"categories_nodes":[],"categories_segments":[],"categories_sizes":[],"default_left":[0,0,0,0,0,0,0],"id":57,"left_children":[1,3,5,-1,-1,-1,-1],"loss_changes":[8.9186424E1,1.2656914E1,3.0284721E1,0E0,0E0,0E0,0E0],"parents":[2147483647,0,0,1,1,2,2],"right_children":[2,4,6,-1,-1,-1,-1],"split_conditions":[5.9402242E-2,-1.7351916E-1,9.900096E-2,5.1053716E-3,1.8630252E-3,-8.333815E-4,-5.145347E-3],"split_indices":[9,7,9,0,0,0,0],"split_type":[0,0,0,0,0,0,0],"sum_hessian":[1.3731299E3,6.2699615E2,7.461337E2,1.757453E2,4.5125082E2,5.0304123E2,2.430925E2],"tree_param":{"num_deleted":"0","num_feature":"14","num_nodes":"7","size_leaf_vector":"1"}},{"base_weights":[2.1849127E-2,2.714418E-1,-3.374942E-1,4.27831E-3,1.2619384E-3,-1.3192755E-3,-5.2319975E-3],"categories":[],"categories_nodes":[],"categories_segments":[],"categories_sizes":[],"default_left":[0,0,0,0,0,0,0],"id":58,"left_children":[1,3,5,-1,-1,-1,-1],"loss_changes":[1.2606835E2,1.8059364E1,2.0947662E1,0E0,0E0,0E0,0E0],"parents":[2147483647,0,0,1,1,2,2],"right_children":[2,4,6,-1,-1,-1,-1],"split_conditions":[6.938555E-2,4.8712015E-2,9.054101E-2,4.27831E-3,1.2619384E-3,-1.3192755E-3,-5.2319975E-3],"split_indices":[10,10,10,0,0,0,0],"split_type":[0,0,0,0,0,0,0],"sum_hessian":[1.3962389E3,8.263079E2,5.6993097E2,3.8989432E2,4.3641357E2,2.771153E2,2.9281567E2],"tree_param":{"num_deleted":"0","num_feature":"14","num_nodes":"7","size_leaf_vector":"1"}},{"base_weights":[-4.716439E-3,-8.2286485E-2,1.2215068E-1,-1.4788908E-3,2.2278943E-3,-2.8359736E-3,1.3850597E-3],"categories":[],"categories_nodes":[],"categories_segments":[],"categories_sizes":[],"default_left":[0,0,0,0,0,0,0],"id":59,"left_children":[1,3,5,-1,-1,-1,-1],"loss_changes":[1.35346365E1,1.7315742E1,3.4925413E0,0E0,0E0,0E0,0E0],"parents":[2147483647,0,0,1,1,2,2],"right_children":[2,4,6,-1,-1,-1,-1],"split_conditions":[3.8897E6,1.7642096E2,1.9724624E-1,-1.4788908E-3,2.2278943E-3,-2.8359736E-3,1.3850597E-3],"split_indices":[4,0,6,0,0,0,0],"split_type":[0,0,0,0,0,0,0],"sum_hessian":[1.3692631E3,8.5570233E2,5.135607E2,7.0907837E2,1.46624E2,1.4364303E1,4.991964E2],"tree_param":{"num_deleted":"0","num_feature":"14","num_nodes":"7","size_leaf_vector":"1"}},{"base_weights":[3.3129328E-3,3.927495E-1,-1.7534664E-1,2.8047138E-3,5.7236403E-3,-4.9487874E-4,-5.19409E-3],"categories":[],"categories_nodes":[],"categories_segments":[],"categories_sizes":[],"default_left":[0,0,0,0,0,0,0],"id":60,"left_children":[1,3,5,-1,-1,-1,-1],"loss_changes":[9.5493095E1,7.0645523E0,3.9878586E1,0E0,0E0,0E0,0E0],"parents":[2147483647,0,0,1,1,2,2],"right_children":[2,4,6,-1,-1,-1,-1],"split_conditions":[5.1183935E-2,2.555069E6,9.588279E-2,2.8047138E-3,5.7236403E-3,-4.9487874E-4,-5.19409E-3],"split_indices":[10,5,10,0,0,0,0],"split_type":[0,0,0,0,0,0,0],"sum_hessian":[1.3594156E3,4.2739627E2,9.3201935E2,2.7430295E2,1.5309332E2,6.887124E2,2.4330692E2],"tree_param":{"num_deleted":"0","num_feature":"14","num_nodes":"7","size_leaf_vector":"1"}},{"base_weights":[-2.8868433E-4,2.7610913E-1,-2.9203308E-1,4.1947328E-3,9.6533E-4,-1.394262E-3,-5.211433E-3],"categories":[],"categories_nodes":[],"categories_segments":[],"categories_sizes":[],"default_left":[0,0,0,0,0,0,0],"id":61,"left_children":[1,3,5,-1,-1,-1,-1],"loss_changes":[1.1100225E2,1.7431908E1,2.2449043E1,0E0,0E0,0E0,0E0],"parents":[2147483647,0,0,1,1,2,2],"right_children":[2,4,6,-1,-1,-1,-1],"split_conditions":[6.4204276E-2,4.9212214E-2,9.588279E-2,4.1947328E-3,9.6533E-4,-1.394262E-3,-5.211433E-3],"split_indices":[10,10,10,0,0,0,0],"split_type":[0,0,0,0,0,0,0],"sum_hessian":[1.3663612E3,7.00012E2,6.663492E2,3.8244214E2,3.1756992E2,4.073962E2,2.5895297E2],"tree_param":{"num_deleted":"0","num_feature":"14","num_nodes":"7","size_leaf_vector":"1"}},{"base_weights":[-3.499136E-3,1.3961162E-1,-4.7033092E-1,3.4464742E-3,8.98007E-5,-5.382147E-3,-1.1597174E-3],"categories":[],"categories_nodes":[],"categories_segments":[],"categories_sizes":[],"default_left":[0,0,0,0,0,0,0],"id":62,"left_children":[1,3,5,-1,-1,-1,-1],"loss_changes":[9.351363E1,2.8182066E1,6.945175E0,0E0,0E0,0E0,0E0],"parents":[2147483647,0,0,1,1,2,2],"right_children":[2,4,6,-1,-1,-1,-1],"split_conditions":[8.857866E-2,4.8974354E-2,1.7642096E2,3.4464742E-3,8.98007E-5,-5.382147E-3,-1.1597174E-3],"split_indices":[9,9,0,0,0,0,0],"split_type":[0,0,0,0,0,0,0],"sum_hessian":[1.3848591E3,1.0609727E3,3.2388647E2,4.0673126E2,6.542414E2,2.6726996E2,5.661651E1],"tree_param":{"num_deleted":"0","num_feature":"14","num_nodes":"7","size_leaf_vector":"1"}},{"base_weights":[-4.3446932E-4,1.1678276E-1,-8.5162036E-2,2.669261E-3,-9.293604E-6,-1.1877614E-3,1.5223458E-3],"categories":[],"categories_nodes":[],"categories_segments":[],"categories_sizes":[],"default_left":[0,0,0,0,0,0,0],"id":63,"left_children":[1,3,5,-1,-1,-1,-1],"loss_changes":[1.3786251E1,1.0496641E1,6.540707E0,0E0,0E0,0E0,0E0],"parents":[2147483647,0,0,1,1,2,2],"right_children":[2,4,6,-1,-1,-1,-1],"split_conditions":[-1.5281658E-3,2.1E1,1.8E1,2.669261E-3,-9.293604E-6,-1.1877614E-3,1.5223458E-3],"split_indices":[8,3,12,0,0,0,0],"split_type":[0,0,0,0,0,0,0],"sum_hessian":[1.3813063E3,5.7379266E2,8.075136E2,2.531077E2,3.2068497E2,7.1323413E2,9.427944E1],"tree_param":{"num_deleted":"0","num_feature":"14","num_nodes":"7","size_leaf_vector":"1"}},{"base_weights":[-6.0577686E-3,3.8065785E-1,-1.8798934E-1,-8.1621524E-4,4.0539177E-3,-2.122243E-4,-4.130177E-3],"categories":[],"categories_nodes":[],"categories_segments":[],"categories_sizes":[],"default_left":[0,0,0,0,0,0,0],"id":64,"left_children":[1,3,5,-1,-1,-1,-1],"loss_changes":[9.736277E1,5.541809E0,3.497107E1,0E0,0E0,0E0,0E0],"parents":[2147483647,0,0,1,1,2,2],"right_children":[2,4,6,-1,-1,-1,-1],"split_conditions":[5.1183935E-2,3E0,8.143771E-2,-8.1621524E-4,4.0539177E-3,-2.122243E-4,-4.130177E-3],"split_indices":[10,13,10,0,0,0,0],"split_type":[0,0,0,0,0,0,0],"sum_hessian":[1.376516E3,4.368932E2,9.396228E2,1.955111E1,4.173421E2,5.4536914E2,3.9425366E2],"tree_param":{"num_deleted":"0","num_feature":"14","num_nodes":"7","size_leaf_vector":"1"}},{"base_weights":[-2.1544287E-3,1.7346688E-1,-4.2682594E-1,3.8573742E-3,-0E0,-5.216731E-3,-1.2371178E-3],"categories":[],"categories_nodes":[],"categories_segments":[],"categories_sizes":[],"default_left":[0,0,0,0,0,0,0],"id":65,"left_children":[1,3,5,-1,-1,-1,-1],"loss_changes":[1.04013535E2,3.6001083E1,1.07812195E1,0E0,0E0,0E0,0E0],"parents":[2147483647,0,0,1,1,2,2],"right_children":[2,4,6,-1,-1,-1,-1],"split_conditions":[8.1754126E-2,5.1183935E-2,4.751526E6,3.8573742E-3,-0E0,-5.216731E-3,-1.2371178E-3],"split_indices":[10,10,5,0,0,0,0],"split_type":[0,0,0,0,0,0,0],"sum_hessian":[1.3812709E3,9.775936E2,4.0367728E2,4.3566522E2,5.419284E2,3.0220898E2,1.0146828E2],"tree_param":{"num_deleted":"0","num_feature":"14","num_nodes":"7","size_leaf_vector":"1"}},{"base_weights":[5.4726256E-3,2.2168517E-1,-3.4598538E-1,4.0461505E-3,4.8104336E-4,-5.1001916E-3,-1.8466254E-3],"categories":[],"categories_nodes":[],"categories_segments":[],"categories_sizes":[],"default_left":[0,0,0,0,0,0,0],"id":66,"left_children":[1,3,5,-1,-1,-1,-1],"loss_changes":[1.0445006E2,2.6557636E1,1.2658859E1,0E0,0E0,0E0,0E0],"parents":[2147483647,0,0,1,1,2,2],"right_children":[2,4,6,-1,-1,-1,-1],"split_conditions":[7.2810255E-2,4.979447E-2,1.881E6,4.0461505E-3,4.8104336E-4,-5.1001916E-3,-1.8466254E-3],"split_indices":[10,10,5,0,0,0,0],"split_type":[0,0,0,0,0,0,0],"sum_hessian":[1.3661195E3,8.4870087E2,5.174186E2,4.071772E2,4.4152365E2,2.4812143E2,2.6929718E2],"tree_param":{"num_deleted":"0","num_feature":"14","num_nodes":"7","size_leaf_vector":"1"}},{"base_weights":[-8.691778E-3,2.6645872E-1,-2.2385879E-1,4.919613E-3,1.787139E-3,-1.2440474E-3,-6.386808E-3],"categories":[],"categories_nodes":[],"categories_segments":[],"categories_sizes":[],"default_left":[0,0,0,0,0,0,0],"id":67,"left_children":[1,3,5,-1,-1,-1,-1],"loss_changes":[8.1156624E1,1.0759842E1,3.0672115E1,0E0,0E0,0E0,0E0],"parents":[2147483647,0,0,1,1,2,2],"right_children":[2,4,6,-1,-1,-1,-1],"split_conditions":[5.8044683E-2,-1.8285242E-1,1.1438963E-1,4.919613E-3,1.787139E-3,-1.2440474E-3,-6.386808E-3],"split_indices":[9,7,10,0,0,0,0],"split_type":[0,0,0,0,0,0,0],"sum_hessian":[1.3614941E3,5.949046E2,7.6658954E2,1.5699641E2,4.379082E2,6.255285E2,1.4106099E2],"tree_param":{"num_deleted":"0","num_feature":"14","num_nodes":"7","size_leaf_vector":"1"}},{"base_weights":[1.0873269E-2,2.7903676E-1,-2.830487E-1,3.600796E-3,9.098415E-4,-1.78471E-3,-6.9670645E-3],"categories":[],"categories_nodes":[],"categories_segments":[],"categories_sizes":[],"default_left":[0,0,0,0,0,0,0],"id":68,"left_children":[1,3,5,-1,-1,-1,-1],"loss_changes":[1.09133896E2,1.0445576E1,2.700745E1,0E0,0E0,0E0,0E0],"parents":[2147483647,0,0,1,1,2,2],"right_children":[2,4,6,-1,-1,-1,-1],"split_conditions":[6.4204276E-2,5.3409476E-2,1.1736422E-1,3.600796E-3,9.098415E-4,-1.78471E-3,-6.9670645E-3],"split_indices":[10,10,10,0,0,0,0],"split_type":[0,0,0,0,0,0,0],"sum_hessian":[1.3746523E3,7.2073553E2,6.539169E2,4.9676074E2,2.2397476E2,5.296018E2,1.2431505E2],"tree_param":{"num_deleted":"0","num_feature":"14","num_nodes":"7","size_leaf_vector":"1"}},{"base_weights":[4.975469E-3,3.0140457E-1,-2.4176788E-1,1.528952E-3,4.4927667E-3,-1.0168611E-3,-5.657706E-3],"categories":[],"categories_nodes":[],"categories_segments":[],"categories_sizes":[],"default_left":[0,0,0,0,0,0,0],"id":69,"left_children":[1,3,5,-1,-1,-1,-1],"loss_changes":[1.0111416E2,1.2876774E1,3.318568E1,0E0,0E0,0E0,0E0],"parents":[2147483647,0,0,1,1,2,2],"right_children":[2,4,6,-1,-1,-1,-1],"split_conditions":[5.9402242E-2,1.6879E6,1.0059168E-1,1.528952E-3,4.4927667E-3,-1.0168611E-3,-5.657706E-3],"split_indices":[9,5,9,0,0,0,0],"split_type":[0,0,0,0,0,0,0],"sum_hessian":[1.3716414E3,6.244243E2,7.4721704E2,3.1998883E2,3.0443546E2,5.284141E2,2.188029E2],"tree_param":{"num_deleted":"0","num_feature":"14","num_nodes":"7","size_leaf_vector":"1"}},{"base_weights":[-5.4747844E-4,1.4892276E-1,-4.6629757E-1,3.3878668E-3,2.4556578E-4,3.3207992E-3,-5.2662534E-3],"categories":[],"categories_nodes":[],"categories_segments":[],"categories_sizes":[],"default_left":[0,0,0,0,0,0,0],"id":70,"left_children":[1,3,5,-1,-1,-1,-1],"loss_changes":[9.595361E1,2.4114376E1,1.7222672E1,0E0,0E0,0E0,0E0],"parents":[2147483647,0,0,1,1,2,2],"right_children":[2,4,6,-1,-1,-1,-1],"split_conditions":[8.801328E-2,4.9538247E-2,5E0,3.3878668E-3,2.4556578E-4,3.3207992E-3,-5.2662534E-3],"split_indices":[9,9,13,0,0,0,0],"split_type":[0,0,0,0,0,0,0],"sum_hessian":[1.3637849E3,1.0333975E3,3.303875E2,4.0240442E2,6.3099304E2,2.046428E1,3.0992325E2],"tree_param":{"num_deleted":"0","num_feature":"14","num_nodes":"7","size_leaf_vector":"1"}},{"base_weights":[2.1856492E-3,1.9924182E-1,-3.3547953E-1,5.266953E-3,1.3284364E-3,-4.107702E-3,4.0385527E-5],"categories":[],"categories_nodes":[],"categories_segments":[],"categories_sizes":[],"default_left":[0,0,0,0,0,0,0],"id":71,"left_children":[1,3,5,-1,-1,-1,-1],"loss_changes":[9.316089E1,1.8281666E1,1.35761795E1,0E0,0E0,0E0,0E0],"parents":[2147483647,0,0,1,1,2,2],"right_children":[2,4,6,-1,-1,-1,-1],"split_conditions":[7.30587E-2,3.7603367E-2,1.4855952E2,5.266953E-3,1.3284364E-3,-4.107702E-3,4.0385527E-5],"split_indices":[10,10,2,0,0,0,0],"split_type":[0,0,0,0,0,0,0],"sum_hessian":[1.3921191E3,8.822582E2,5.09861E2,1.4035448E2,7.419037E2,4.1886957E2,9.099143E1],"tree_param":{"num_deleted":"0","num_feature":"14","num_nodes":"7","size_leaf_vector":"1"}},{"base_weights":[2.0268653E-2,2.1924347E-1,-3.0920902E-1,3.2266723E-3,1.6898106E-4,-2.001732E-3,-6.1864154E-3],"categories":[],"categories_nodes":[],"categories_segments":[],"categories_sizes":[],"default_left":[0,0,0,0,0,0,0],"id":72,"left_children":[1,3,5,-1,-1,-1,-1],"loss_changes":[9.0338715E1,1.7664185E1,1.6025501E1,0E0,0E0,0E0,0E0],"parents":[2147483647,0,0,1,1,2,2],"right_children":[2,4,6,-1,-1,-1,-1],"split_conditions":[7.2810255E-2,5.6405928E-2,1.1736422E-1,3.2266723E-3,1.6898106E-4,-2.001732E-3,-6.1864154E-3],"split_indices":[10,10,10,0,0,0,0],"split_type":[0,0,0,0,0,0,0],"sum_hessian":[1.3692037E3,8.5660156E2,5.126021E2,5.616255E2,2.9497607E2,3.875175E2,1.25084656E2],"tree_param":{"num_deleted":"0","num_feature":"14","num_nodes":"7","size_leaf_vector":"1"}},{"base_weights":[5.8720703E-4,1.0053039E-1,-4.3653607E-1,2.9127952E-3,-2.0233027E-4,-0E0,-5.1396214E-3],"categories":[],"categories_nodes":[],"categories_segments":[],"categories_sizes":[],"default_left":[0,0,0,0,0,0,0],"id":73,"left_children":[1,3,5,-1,-1,-1,-1],"loss_changes":[5.9910664E1,2.6198166E1,8.37809E0,0E0,0E0,0E0,0E0],"parents":[2147483647,0,0,1,1,2,2],"right_children":[2,4,6,-1,-1,-1,-1],"split_conditions":[9.588279E-2,5.1183935E-2,2.5557348E1,2.9127952E-3,-2.0233027E-4,-0E0,-5.1396214E-3],"split_indices":[10,10,0,0,0,0,0],"split_type":[0,0,0,0,0,0,0],"sum_hessian":[1.3690143E3,1.1192488E3,2.4976553E2,4.343701E2,6.8487866E2,3.9260586E1,2.1050494E2],"tree_param":{"num_deleted":"0","num_feature":"14","num_nodes":"7","size_leaf_vector":"1"}},{"base_weights":[-6.8391203E-3,3.2685646E-1,-2.2424737E-1,4.3935496E-3,1.121444E-3,1.631416E-4,-3.558209E-3],"categories":[],"categories_nodes":[],"categories_segments":[],"categories_sizes":[],"default_left":[0,0,0,0,0,0,0],"id":74,"left_children":[1,3,5,-1,-1,-1,-1],"loss_changes":[1.0047235E2,1.2369522E1,2.6992008E1,0E0,0E0,0E0,0E0],"parents":[2147483647,0,0,1,1,2,2],"right_children":[2,4,6,-1,-1,-1,-1],"split_conditions":[5.5924326E-2,4.787419E-2,1E1,4.3935496E-3,1.121444E-3,1.631416E-4,-3.558209E-3],"split_indices":[10,10,13,0,0,0,0],"split_type":[0,0,0,0,0,0,0],"sum_hessian":[1.3762681E3,5.401247E2,8.361434E2,3.4793515E2,1.9218954E2,2.9449158E2,5.416518E2],"tree_param":{"num_deleted":"0","num_feature":"14","num_nodes":"7","size_leaf_vector":"1"}},{"base_weights":[-2.0257358E-2,8.8451274E-2,-5.290415E-1,2.59357E-3,-7.9010084E-4,8.065262E-4,-6.290747E-3],"categories":[],"categories_nodes":[],"categories_segments":[],"categories_sizes":[],"default_left":[0,0,0,0,0,0,0],"id":75,"left_children":[1,3,5,-1,-1,-1,-1],"loss_changes":[7.702069E1,3.2909912E1,1.5765564E1,0E0,0E0,0E0,0E0],"parents":[2147483647,0,0,1,1,2,2],"right_children":[2,4,6,-1,-1,-1,-1],"split_conditions":[9.900096E-2,5.7105906E-2,-6.499939E-1,2.59357E-3,-7.9010084E-4,8.065262E-4,-6.290747E-3],"split_indices":[9,9,7,0,0,0,0],"split_type":[0,0,0,0,0,0,0],"sum_hessian":[1.3753507E3,1.1350065E3,2.4034422E2,5.633238E2,5.716827E2,3.260308E1,2.0774113E2],"tree_param":{"num_deleted":"0","num_feature":"14","num_nodes":"7","size_leaf_vector":"1"}},{"base_weights":[5.5774455E-3,1.4013332E-1,-4.368478E-1,3.2281736E-3,1.338746E-4,-6.6061213E-4,-5.692576E-3],"categories":[],"categories_nodes":[],"categories_segments":[],"categories_sizes":[],"default_left":[0,0,0,0,0,0,0],"id":76,"left_children":[1,3,5,-1,-1,-1,-1],"loss_changes":[8.291466E1,2.4495884E1,1.5096195E1,0E0,0E0,0E0,0E0],"parents":[2147483647,0,0,1,1,2,2],"right_children":[2,4,6,-1,-1,-1,-1],"split_conditions":[8.857866E-2,5.052022E-2,1E1,3.2281736E-3,1.338746E-4,-6.6061213E-4,-5.692576E-3],"split_indices":[9,9,13,0,0,0,0],"split_type":[0,0,0,0,0,0,0],"sum_hessian":[1.3876426E3,1.0683878E3,3.1925482E2,4.3122327E2,6.3716455E2,8.796731E1,2.312875E2],"tree_param":{"num_deleted":"0","num_feature":"14","num_nodes":"7","size_leaf_vector":"1"}},{"base_weights":[1.1136297E-2,2.2006258E-1,-2.852608E-1,1.083793E-3,4.093518E-3,-1.9494183E-3,-5.6461715E-3],"categories":[],"categories_nodes":[],"categories_segments":[],"categories_sizes":[],"default_left":[0,0,0,0,0,0,0],"id":77,"left_children":[1,3,5,-1,-1,-1,-1],"loss_changes":[8.487619E1,1.6307789E1,1.2951374E1,0E0,0E0,0E0,0E0],"parents":[2147483647,0,0,1,1,2,2],"right_children":[2,4,6,-1,-1,-1,-1],"split_conditions":[6.938555E-2,3.8478E6,1.1736422E-1,1.083793E-3,4.093518E-3,-1.9494183E-3,-5.6461715E-3],"split_indices":[10,4,10,0,0,0,0],"split_type":[0,0,0,0,0,0,0],"sum_hessian":[1.3616099E3,8.0138556E2,5.6022424E2,5.1227936E2,2.8910623E2,4.3247055E2,1.2775369E2],"tree_param":{"num_deleted":"0","num_feature":"14","num_nodes":"7","size_leaf_vector":"1"}},{"base_weights":[2.3300065E-2,1.5691462E-1,-4.1065845E-1,2.8697147E-3,-4.9455146E-5,-1.7467346E-3,-5.658621E-3],"categories":[],"categories_nodes":[],"categories_segments":[],"categories_sizes":[],"default_left":[0,0,0,0,0,0,0],"id":78,"left_children":[1,3,5,-1,-1,-1,-1],"loss_changes":[7.874923E1,2.224305E1,1.0451328E1,0E0,0E0,0E0,0E0],"parents":[2147483647,0,0,1,1,2,2],"right_children":[2,4,6,-1,-1,-1,-1],"split_conditions":[8.857866E-2,5.7540137E-2,-2.5785172E-3,2.8697147E-3,-4.9455146E-5,-1.7467346E-3,-5.658621E-3],"split_indices":[9,9,8,0,0,0,0],"split_type":[0,0,0,0,0,0,0],"sum_hessian":[1.3519587E3,1.0378914E3,3.1406732E2,5.767657E2,4.6112573E2,1.3137854E2,1.826888E2],"tree_param":{"num_deleted":"0","num_feature":"14","num_nodes":"7","size_leaf_vector":"1"}},{"base_weights":[2.9502992E-2,2.2556277E-1,-2.87254E-1,3.72965E-3,9.901032E-4,-1.586285E-3,-6.4239865E-3],"categories":[],"categories_nodes":[],"categories_segments":[],"categories_sizes":[],"default_left":[0,0,0,0,0,0,0],"id":79,"left_children":[1,3,5,-1,-1,-1,-1],"loss_changes":[8.380363E1,1.4931778E1,2.2194221E1,0E0,0E0,0E0,0E0],"parents":[2147483647,0,0,1,1,2,2],"right_children":[2,4,6,-1,-1,-1,-1],"split_conditions":[7.240428E-2,4.899005E-2,1.1736422E-1,3.72965E-3,9.901032E-4,-1.586285E-3,-6.4239865E-3],"split_indices":[10,10,10,0,0,0,0],"split_type":[0,0,0,0,0,0,0],"sum_hessian":[1.3401997E3,8.306546E2,5.0954514E2,3.7557056E2,4.5508405E2,3.8144373E2,1.2810141E2],"tree_param":{"num_deleted":"0","num_feature":"14","num_nodes":"7","size_leaf_vector":"1"}},{"base_weights":[-8.3443215E-3,1.237047E-1,-4.5648018E-1,2.797473E-3,2.0373988E-4,-5.328185E-3,-4.4288544E-4],"categories":[],"categories_nodes":[],"categories_segments":[],"categories_sizes":[],"default_left":[0,0,0,0,0,0,0],"id":80,"left_children":[1,3,5,-1,-1,-1,-1],"loss_changes":[8.29296E1,1.7030985E1,9.354584E0,0E0,0E0,0E0,0E0],"parents":[2147483647,0,0,1,1,2,2],"right_children":[2,4,6,-1,-1,-1,-1],"split_conditions":[8.857866E-2,4.9538247E-2,1.05466E7,2.797473E-3,2.0373988E-4,-5.328185E-3,-4.4288544E-4],"split_indices":[9,9,4,0,0,0,0],"split_type":[0,0,0,0,0,0,0],"sum_hessian":[1.3860137E3,1.0716318E3,3.1438187E2,4.196669E2,6.5196497E2,2.619746E2,5.2407257E1],"tree_param":{"num_deleted":"0","num_feature":"14","num_nodes":"7","size_leaf_vector":"1"}},{"base_weights":[6.590563E-3,1.6993529E-1,-2.9478878E-1,3.5892497E-3,3.10914E-4,-1.8974596E-3,-5.2904985E-3],"categories":[],"categories_nodes":[],"categories_segments":[],"categories_sizes":[],"default_left":[0,0,0,0,0,0,0],"id":81,"left_children":[1,3,5,-1,-1,-1,-1],"loss_changes":[6.8182884E1,2.3219393E1,1.0728603E1,0E0,0E0,0E0,0E0],"parents":[2147483647,0,0,1,1,2,2],"right_children":[2,4,6,-1,-1,-1,-1],"split_conditions":[7.560356E-2,4.8712015E-2,1.1438963E-1,3.5892497E-3,3.10914E-4,-1.8974596E-3,-5.2904985E-3],"split_indices":[10,10,10,0,0,0,0],"split_type":[0,0,0,0,0,0,0],"sum_hessian":[1.3774707E3,8.968729E2,4.8059778E2,3.7343616E2,5.2343677E2,3.4100815E2,1.3958963E2],"tree_param":{"num_deleted":"0","num_feature":"14","num_nodes":"7","size_leaf_vector":"1"}},{"base_weights":[-3.3867804E-3,1.3455741E-1,-3.4584183E-1,2.994154E-3,2.6269362E-4,-4.3363734E-3,-3.742731E-5],"categories":[],"categories_nodes":[],"categories_segments":[],"categories_sizes":[],"default_left":[0,0,0,0,0,0,0],"id":82,"left_children":[1,3,5,-1,-1,-1,-1],"loss_changes":[6.541762E1,1.7165474E1,1.1521034E1,0E0,0E0,0E0,0E0],"parents":[2147483647,0,0,1,1,2,2],"right_children":[2,4,6,-1,-1,-1,-1],"split_conditions":[8.1754126E-2,4.899005E-2,8.5278E6,2.994154E-3,2.6269362E-4,-4.3363734E-3,-3.742731E-5],"split_indices":[10,10,4,0,0,0,0],"split_type":[0,0,0,0,0,0,0],"sum_hessian":[1.3704042E3,9.769818E2,3.934224E2,3.801623E2,5.968195E2,3.096846E2,8.373778E1],"tree_param":{"num_deleted":"0","num_feature":"14","num_nodes":"7","size_leaf_vector":"1"}},{"base_weights":[-5.4111234E-3,1.3468373E-1,-3.862566E-1,3.1723317E-3,-3.7540245E-5,1.7333122E-3,-4.2615114E-3],"categories":[],"categories_nodes":[],"categories_segments":[],"categories_sizes":[],"default_left":[0,0,0,0,0,0,0],"id":83,"left_children":[1,3,5,-1,-1,-1,-1],"loss_changes":[7.378912E1,2.5738977E1,8.93932E0,0E0,0E0,0E0,0E0],"parents":[2147483647,0,0,1,1,2,2],"right_children":[2,4,6,-1,-1,-1,-1],"split_conditions":[8.457142E-2,5.1183935E-2,5E0,3.1723317E-3,-3.7540245E-5,1.7333122E-3,-4.2615114E-3],"split_indices":[10,10,13,0,0,0,0],"split_type":[0,0,0,0,0,0,0],"sum_hessian":[1.3684071E3,1.00084875E3,3.6755838E2,4.3198383E2,5.688649E2,2.1679342E1,3.4587906E2],"tree_param":{"num_deleted":"0","num_feature":"14","num_nodes":"7","size_leaf_vector":"1"}},{"base_weights":[-2.7881984E-3,1.3375048E-1,-4.3534493E-1,2.3390146E-3,1.5214585E-4,5.215107E-3,-4.791014E-3],"categories":[],"categories_nodes":[],"categories_segments":[],"categories_sizes":[],"default_left":[0,0,0,0,0,0,0],"id":84,"left_children":[1,3,5,-1,-1,-1,-1],"loss_changes":[8.048577E1,1.1963636E1,1.4918095E1,0E0,0E0,0E0,0E0],"parents":[2147483647,0,0,1,1,2,2],"right_children":[2,4,6,-1,-1,-1,-1],"split_conditions":[8.801328E-2,5.6271963E-2,4E0,2.3390146E-3,1.5214585E-4,5.215107E-3,-4.791014E-3],"split_indices":[9,9,13,0,0,0,0],"split_type":[0,0,0,0,0,0,0],"sum_hessian":[1.347727E3,1.0252454E3,3.224817E2,5.4850824E2,4.7673712E2,1.0715339E1,3.1176633E2],"tree_param":{"num_deleted":"0","num_feature":"14","num_nodes":"7","size_leaf_vector":"1"}},{"base_weights":[7.465361E-3,1.2898219E-1,-3.8041148E-1,2.836982E-3,1.9092813E-4,2.824982E-3,-4.5544417E-3],"categories":[],"categories_nodes":[],"categories_segments":[],"categories_sizes":[],"default_left":[0,0,0,0,0,0,0],"id":85,"left_children":[1,3,5,-1,-1,-1,-1],"loss_changes":[6.4075226E1,1.7367788E1,1.6913612E1,0E0,0E0,0E0,0E0],"parents":[2147483647,0,0,1,1,2,2],"right_children":[2,4,6,-1,-1,-1,-1],"split_conditions":[8.801328E-2,5.1183935E-2,6E0,2.836982E-3,1.9092813E-4,2.824982E-3,-4.5544417E-3],"split_indices":[9,10,13,0,0,0,0],"split_type":[0,0,0,0,0,0,0],"sum_hessian":[1.3545687E3,1.0359381E3,3.1863065E2,4.2315674E2,6.127814E2,2.9636978E1,2.8899365E2],"tree_param":{"num_deleted":"0","num_feature":"14","num_nodes":"7","size_leaf_vector":"1"}},{"base_weights":[1.579522E-3,1.9675548E-1,-2.7544695E-1,1.5688343E-3,5.6334734E-3,-1.6039037E-3,-6.390678E-3],"categories":[],"categories_nodes":[],"categories_segments":[],"categories_sizes":[],"default_left":[0,0,0,0,0,0,0],"id":86,"left_children":[1,3,5,-1,-1,-1,-1],"loss_changes":[7.5491234E1,1.0853699E1,2.2768997E1,0E0,0E0,0E0,0E0],"parents":[2147483647,0,0,1,1,2,2],"right_children":[2,4,6,-1,-1,-1,-1],"split_conditions":[6.938555E-2,1.8132593E2,1.1736422E-1,1.5688343E-3,5.6334734E-3,-1.6039037E-3,-6.390678E-3],"split_indices":[10,2,10,0,0,0,0],"split_type":[0,0,0,0,0,0,0],"sum_hessian":[1.387648E3,8.1705756E2,5.705904E2,7.45808E2,7.124957E1,4.410039E2,1.2958646E2],"tree_param":{"num_deleted":"0","num_feature":"14","num_nodes":"7","size_leaf_vector":"1"}},{"base_weights":[-3.3808546E-3,1.329255E-1,-3.6597982E-1,2.8478499E-3,1.7703924E-4,-5.1823966E-3,-9.023824E-4],"categories":[],"categories_nodes":[],"categories_segments":[],"categories_sizes":[],"default_left":[0,0,0,0,0,0,0],"id":87,"left_children":[1,3,5,-1,-1,-1,-1],"loss_changes":[6.7703186E1,1.6998959E1,1.489999E1,0E0,0E0,0E0,0E0],"parents":[2147483647,0,0,1,1,2,2],"right_children":[2,4,6,-1,-1,-1,-1],"split_conditions":[8.291079E-2,5.1183935E-2,3.0044E6,2.8478499E-3,1.7703924E-4,-5.1823966E-3,-9.023824E-4],"split_indices":[10,10,5,0,0,0,0],"split_type":[0,0,0,0,0,0,0],"sum_hessian":[1.3551925E3,9.852366E2,3.6995593E2,4.1812283E2,5.671137E2,2.3317621E2,1.3677972E2],"tree_param":{"num_deleted":"0","num_feature":"14","num_nodes":"7","size_leaf_vector":"1"}},{"base_weights":[-8.4468286E-4,1.1764795E-1,-3.9389697E-1,2.4300148E-3,-3.4367945E-4,-5.1765814E-3,-3.472428E-4],"categories":[],"categories_nodes":[],"categories_segments":[],"categories_sizes":[],"default_left":[0,0,0,0,0,0,0],"id":88,"left_children":[1,3,5,-1,-1,-1,-1],"loss_changes":[6.4685814E1,2.0462532E1,1.3684334E1,0E0,0E0,0E0,0E0],"parents":[2147483647,0,0,1,1,2,2],"right_children":[2,4,6,-1,-1,-1,-1],"split_conditions":[8.857866E-2,5.7105906E-2,7.0933E6,2.4300148E-3,-3.4367945E-4,-5.1765814E-3,-3.472428E-4],"split_indices":[9,9,4,0,0,0,0],"split_type":[0,0,0,0,0,0,0],"sum_hessian":[1.3729819E3,1.0556858E3,3.1729614E2,5.805474E2,4.751384E2,2.322713E2,8.502483E1],"tree_param":{"num_deleted":"0","num_feature":"14","num_nodes":"7","size_leaf_vector":"1"}},{"base_weights":[1.8983006E-2,2.7681884E-1,-1.6179933E-1,1.2310516E-3,4.30573E-3,-3.258925E-4,-3.4567672E-3],"categories":[],"categories_nodes":[],"categories_segments":[],"categories_sizes":[],"default_left":[0,0,0,0,0,0,0],"id":89,"left_children":[1,3,5,-1,-1,-1,-1],"loss_changes":[6.411259E1,1.2606327E1,1.8694567E1,0E0,0E0,0E0,0E0],"parents":[2147483647,0,0,1,1,2,2],"right_children":[2,4,6,-1,-1,-1,-1],"split_conditions":[5.7105906E-2,1.6879E6,8.801328E-2,1.2310516E-3,4.30573E-3,-3.258925E-4,-3.4567672E-3],"split_indices":[9,5,9,0,0,0,0],"split_type":[0,0,0,0,0,0,0],"sum_hessian":[1.3631757E3,5.630362E2,8.0013947E2,2.8930978E2,2.7372638E2,4.7657574E2,3.2356372E2],"tree_param":{"num_deleted":"0","num_feature":"14","num_nodes":"7","size_leaf_vector":"1"}},{"base_weights":[1.2371206E-2,2.0185474E-1,-1.9706118E-1,3.0873795E-3,6.379244E-4,-1.0696842E-3,-5.1831924E-3],"categories":[],"categories_nodes":[],"categories_segments":[],"categories_sizes":[],"default_left":[0,0,0,0,0,0,0],"id":90,"left_children":[1,3,5,-1,-1,-1,-1],"loss_changes":[5.4628998E1,1.0227526E1,1.795287E1,0E0,0E0,0E0,0E0],"parents":[2147483647,0,0,1,1,2,2],"right_children":[2,4,6,-1,-1,-1,-1],"split_conditions":[6.4204276E-2,4.979447E-2,1.1736422E-1,3.0873795E-3,6.379244E-4,-1.0696842E-3,-5.1831924E-3],"split_indices":[10,10,10,0,0,0,0],"split_type":[0,0,0,0,0,0,0],"sum_hessian":[1.3664679E3,7.200027E2,6.464652E2,3.9825934E2,3.2174332E2,5.125146E2,1.3395064E2],"tree_param":{"num_deleted":"0","num_feature":"14","num_nodes":"7","size_leaf_vector":"1"}},{"base_weights":[-2.1579161E-2,4.79757E-2,-2.2362089E-1,1.5577973E-3,-3.098648E-4,-8.945997E-4,-4.862405E-3],"categories":[],"categories_nodes":[],"categories_segments":[],"categories_sizes":[],"default_left":[0,0,0,0,0,0,0],"id":91,"left_children":[1,3,5,-1,-1,-1,-1],"loss_changes":[1.9574177E1,8.869661E0,1.1788574E1,0E0,0E0,0E0,0E0],"parents":[2147483647,0,0,1,1,2,2],"right_children":[2,4,6,-1,-1,-1,-1],"split_conditions":[2.6E1,1E1,3.2838099E-3,1.5577973E-3,-3.098648E-4,-8.945997E-4,-4.862405E-3],"split_indices":[3,13,8,0,0,0,0],"split_type":[0,0,0,0,0,0,0],"sum_hessian":[1.371568E3,1.019469E3,3.52099E2,4.343152E2,5.851538E2,2.4000296E2,1.12096054E2],"tree_param":{"num_deleted":"0","num_feature":"14","num_nodes":"7","size_leaf_vector":"1"}},{"base_weights":[-1.997511E-2,1.6784984E-1,-3.2188967E-1,6.976208E-4,3.644394E-3,-1.9519851E-3,-6.859877E-3],"categories":[],"categories_nodes":[],"categories_segments":[],"categories_sizes":[],"default_left":[0,0,0,0,0,0,0],"id":92,"left_children":[1,3,5,-1,-1,-1,-1],"loss_changes":[7.736548E1,1.5592001E1,2.2626053E1,0E0,0E0,0E0,0E0],"parents":[2147483647,0,0,1,1,2,2],"right_children":[2,4,6,-1,-1,-1,-1],"split_conditions":[7.2021864E-2,2.613111E6,1.1736422E-1,6.976208E-4,3.644394E-3,-1.9519851E-3,-6.859877E-3],"split_indices":[10,5,10,0,0,0,0],"split_type":[0,0,0,0,0,0,0],"sum_hessian":[1.3518197E3,8.326965E2,5.191232E2,5.634339E2,2.692626E2,3.9285342E2,1.2626977E2],"tree_param":{"num_deleted":"0","num_feature":"14","num_nodes":"7","size_leaf_vector":"1"}},{"base_weights":[5.6086564E-3,2.4004063E-1,-2.0701782E-1,3.5705653E-3,1.0063951E-3,-1.1157531E-3,-5.7603666E-3],"categories":[],"categories_nodes":[],"categories_segments":[],"categories_sizes":[],"default_left":[0,0,0,0,0,0,0],"id":93,"left_children":[1,3,5,-1,-1,-1,-1],"loss_changes":[6.7481964E1,9.896183E0,2.3905762E1,0E0,0E0,0E0,0E0],"parents":[2147483647,0,0,1,1,2,2],"right_children":[2,4,6,-1,-1,-1,-1],"split_conditions":[6.136784E-2,4.787419E-2,1.1438963E-1,3.5705653E-3,1.0063951E-3,-1.1157531E-3,-5.7603666E-3],"split_indices":[10,10,10,0,0,0,0],"split_type":[0,0,0,0,0,0,0],"sum_hessian":[1.3431499E3,6.407488E2,7.0240106E2,3.4019904E2,3.0054974E2,5.6539087E2,1.3701022E2],"tree_param":{"num_deleted":"0","num_feature":"14","num_nodes":"7","size_leaf_vector":"1"}},{"base_weights":[2.568943E-3,1.1163041E-1,-3.565766E-1,2.1379914E-3,-1.842591E-4,-4.5763445E-3,7.037648E-4],"categories":[],"categories_nodes":[],"categories_segments":[],"categories_sizes":[],"default_left":[0,0,0,0,0,0,0],"id":94,"left_children":[1,3,5,-1,-1,-1,-1],"loss_changes":[5.3463436E1,1.421824E1,1.4237602E1,0E0,0E0,0E0,0E0],"parents":[2147483647,0,0,1,1,2,2],"right_children":[2,4,6,-1,-1,-1,-1],"split_conditions":[8.857866E-2,5.8044683E-2,9.8953E6,2.1379914E-3,-1.842591E-4,-4.5763445E-3,7.037648E-4],"split_indices":[9,9,4,0,0,0,0],"split_type":[0,0,0,0,0,0,0],"sum_hessian":[1.3611171E3,1.0488453E3,3.1227182E2,5.8990295E2,4.5894235E2,2.5410838E2,5.8163425E1],"tree_param":{"num_deleted":"0","num_feature":"14","num_nodes":"7","size_leaf_vector":"1"}},{"base_weights":[-7.11279E-3,3.0410486E-1,-1.3727212E-1,5.014358E-3,1.8497229E-3,-5.168961E-4,-5.0753825E-3],"categories":[],"categories_nodes":[],"categories_segments":[],"categories_sizes":[],"default_left":[0,0,0,0,0,0,0],"id":95,"left_children":[1,3,5,-1,-1,-1,-1],"loss_changes":[5.5954964E1,8.402096E0,3.0331478E1,0E0,0E0,0E0,0E0],"parents":[2147483647,0,0,1,1,2,2],"right_children":[2,4,6,-1,-1,-1,-1],"split_conditions":[4.8974354E-2,3.794416E-2,1.074033E-1,5.014358E-3,1.8497229E-3,-5.168961E-4,-5.0753825E-3],"split_indices":[9,10,10,0,0,0,0],"split_type":[0,0,0,0,0,0,0],"sum_hessian":[1.375301E3,4.013316E2,9.739695E2,1.4188094E2,2.5945068E2,7.9793524E2,1.7603424E2],"tree_param":{"num_deleted":"0","num_feature":"14","num_nodes":"7","size_leaf_vector":"1"}},{"base_weights":[-3.5705674E-2,2.7545664E-1,-1.7728421E-1,-1.4467118E-3,3.0747082E-3,-1.1356606E-3,-5.5249403E-3],"categories":[],"categories_nodes":[],"categories_segments":[],"categories_sizes":[],"default_left":[0,0,0,0,0,0,0],"id":96,"left_children":[1,3,5,-1,-1,-1,-1],"loss_changes":[6.034722E1,6.129513E0,2.159985E1,0E0,0E0,0E0,0E0],"parents":[2147483647,0,0,1,1,2,2],"right_children":[2,4,6,-1,-1,-1,-1],"split_conditions":[5.1183935E-2,1.9319004E1,1.1736422E-1,-1.4467118E-3,3.0747082E-3,-1.1356606E-3,-5.5249403E-3],"split_indices":[10,0,10,0,0,0,0],"split_type":[0,0,0,0,0,0,0],"sum_hessian":[1.3615354E3,4.2208426E2,9.394511E2,2.6428421E1,3.9565585E2,8.1091925E2,1.2853181E2],"tree_param":{"num_deleted":"0","num_feature":"14","num_nodes":"7","size_leaf_vector":"1"}},{"base_weights":[-1.2411442E-2,6.7403644E-2,-4.479221E-1,2.6036324E-3,-2.5312536E-4,-5.557949E-3,2.9627705E-4],"categories":[],"categories_nodes":[],"categories_segments":[],"categories_sizes":[],"default_left":[0,0,0,0,0,0,0],"id":97,"left_children":[1,3,5,-1,-1,-1,-1],"loss_changes":[4.8488037E1,2.11705E1,1.1749897E1,0E0,0E0,0E0,0E0],"parents":[2147483647,0,0,1,1,2,2],"right_children":[2,4,6,-1,-1,-1,-1],"split_conditions":[1.0225848E-1,4.899005E-2,1.6809071E2,2.6036324E-3,-2.5312536E-4,-5.557949E-3,2.9627705E-4],"split_indices":[10,10,0,0,0,0,0],"split_type":[0,0,0,0,0,0,0],"sum_hessian":[1.3746351E3,1.1633589E3,2.1127625E2,3.781348E2,7.8522406E2,1.7338533E2,3.7890903E1],"tree_param":{"num_deleted":"0","num_feature":"14","num_nodes":"7","size_leaf_vector":"1"}},{"base_weights":[-1.7382637E-2,1.0694401E-1,-3.225038E-1,2.7750712E-3,-2.2125182E-6,-4.7857207E-3,-4.3773054E-4],"categories":[],"categories_nodes":[],"categories_segments":[],"categories_sizes":[],"default_left":[0,0,0,0,0,0,0],"id":98,"left_children":[1,3,5,-1,-1,-1,-1],"loss_changes":[5.211799E1,1.8013184E1,1.6701881E1,0E0,0E0,0E0,0E0],"parents":[2147483647,0,0,1,1,2,2],"right_children":[2,4,6,-1,-1,-1,-1],"split_conditions":[8.253741E-2,4.8314393E-2,3.0044E6,2.7750712E-3,-2.2125182E-6,-4.7857207E-3,-4.3773054E-4],"split_indices":[10,9,5,0,0,0,0],"split_type":[0,0,0,0,0,0,0],"sum_hessian":[1.3586588E3,9.653011E2,3.933577E2,3.7300845E2,5.9229266E2,2.4756651E2,1.457912E2],"tree_param":{"num_deleted":"0","num_feature":"14","num_nodes":"7","size_leaf_vector":"1"}},{"base_weights":[-3.0253588E-3,1.1381187E-1,-9.7274035E-2,1.4404365E-3,-2.2263522E-3,2.6841052E-3,-1.4311884E-3],"categories":[],"categories_nodes":[],"categories_segments":[],"categories_sizes":[],"default_left":[0,0,0,0,0,0,0],"id":99,"left_children":[1,3,5,-1,-1,-1,-1],"loss_changes":[1.5336356E1,6.366021E0,1.3082315E1,0E0,0E0,0E0,0E0],"parents":[2147483647,0,0,1,1,2,2],"right_children":[2,4,6,-1,-1,-1,-1],"split_conditions":[2.1E1,2.2557195E2,-6.6494083E-1,1.4404365E-3,-2.2263522E-3,2.6841052E-3,-1.4311884E-3],"split_indices":[3,1,7,0,0,0,0],"split_type":[0,0,0,0,0,0,0],"sum_hessian":[1.3842009E3,6.1283716E2,7.713637E2,5.67661E2,4.5176167E1,8.0796646E1,6.905671E2],"tree_param":{"num_deleted":"0","num_feature":"14","num_nodes":"7","size_leaf_vector":"1"}},{"base_weights":[2.2049924E-2,1.87244E-1,-1.9758067E-1,4.226678E-3,1.2040291E-3,-1.0576354E-3,-4.755322E-3],"categories":[],"categories_nodes":[],"categories_segments":[],"categories_sizes":[],"default_left":[0,0,0,0,0,0,0],"id":100,"left_children":[1,3,5,-1,-1,-1,-1],"loss_changes":[5.0584217E1,1.17619E1,1.4384241E1,0E0,0E0,0E0,0E0],"parents":[2147483647,0,0,1,1,2,2],"right_children":[2,4,6,-1,-1,-1,-1],"split_conditions":[6.79426E-2,3.9407335E-2,1.1438963E-1,4.226678E-3,1.2040291E-3,-1.0576354E-3,-4.755322E-3],"split_indices":[10,10,10,0,0,0,0],"split_type":[0,0,0,0,0,0,0],"sum_hessian":[1.384395E3,7.931337E2,5.912613E2,1.6619456E2,6.2693915E2,4.5233838E2,1.3892288E2],"tree_param":{"num_deleted":"0","num_feature":"14","num_nodes":"7","size_leaf_vector":"1"}},{"base_weights":[-3.0688055E-2,1.02707714E-1,-2.8992E-1,2.2162604E-3,2.0472036E-5,-3.69148E-3,1.2222024E-4],"categories":[],"categories_nodes":[],"categories_segments":[],"categories_sizes":[],"default_left":[0,0,0,0,0,0,0],"id":101,"left_children":[1,3,5,-1,-1,-1,-1],"loss_changes":[4.7552177E1,1.0579091E1,1.1576553E1,0E0,0E0,0E0,0E0],"parents":[2147483647,0,0,1,1,2,2],"right_children":[2,4,6,-1,-1,-1,-1],"split_conditions":[7.594206E-2,4.9538247E-2,3.0794E6,2.2162604E-3,2.0472036E-5,-3.69148E-3,1.2222024E-4],"split_indices":[10,9,11,0,0,0,0],"split_type":[0,0,0,0,0,0,0],"sum_hessian":[1.3603983E3,8.976476E2,4.6275067E2,4.0419577E2,4.934518E2,3.6835983E2,9.439086E1],"tree_param":{"num_deleted":"0","num_feature":"14","num_nodes":"7","size_leaf_vector":"1"}},{"base_weights":[-1.9861327E-4,2.29041E-1,-1.6737194E-1,1.2343664E-3,3.991434E-3,-4.782406E-4,-3.4342164E-3],"categories":[],"categories_nodes":[],"categories_segments":[],"categories_sizes":[],"default_left":[0,0,0,0,0,0,0],"id":102,"left_children":[1,3,5,-1,-1,-1,-1],"loss_changes":[5.324462E1,9.723185E0,1.6509024E1,0E0,0E0,0E0,0E0],"parents":[2147483647,0,0,1,1,2,2],"right_children":[2,4,6,-1,-1,-1,-1],"split_conditions":[5.7540137E-2,3.7297E6,8.857866E-2,1.2343664E-3,3.991434E-3,-4.782406E-4,-3.4342164E-3],"split_indices":[9,4,9,0,0,0,0],"split_type":[0,0,0,0,0,0,0],"sum_hessian":[1.3809813E3,5.790777E2,8.019036E2,3.662232E2,2.1285452E2,4.8476126E2,3.1714233E2],"tree_param":{"num_deleted":"0","num_feature":"14","num_nodes":"7","size_leaf_vector":"1"}},{"base_weights":[-3.0113494E-3,1.8635298E-1,-2.502107E-1,3.173475E-3,5.425783E-4,3.8770505E-4,-3.966781E-3],"categories":[],"categories_nodes":[],"categories_segments":[],"categories_sizes":[],"default_left":[0,0,0,0,0,0,0],"id":103,"left_children":[1,3,5,-1,-1,-1,-1],"loss_changes":[6.3483723E1,1.2777994E1,2.5404388E1,0E0,0E0,0E0,0E0],"parents":[2147483647,0,0,1,1,2,2],"right_children":[2,4,6,-1,-1,-1,-1],"split_conditions":[6.724746E-2,4.899005E-2,1E1,3.173475E-3,5.425783E-4,3.8770505E-4,-3.966781E-3],"split_indices":[10,10,13,0,0,0,0],"split_type":[0,0,0,0,0,0,0],"sum_hessian":[1.3448341E3,7.599036E2,5.849304E2,3.7421967E2,3.8568396E2,1.9568723E2,3.892432E2],"tree_param":{"num_deleted":"0","num_feature":"14","num_nodes":"7","size_leaf_vector":"1"}},{"base_weights":[-7.0093824E-3,9.616506E-2,-3.5536188E-1,8.845724E-5,2.9084461E-3,1.1626577E-3,-4.0528667E-3],"categories":[],"categories_nodes":[],"categories_segments":[],"categories_sizes":[],"default_left":[0,0,0,0,0,0,0],"id":104,"left_children":[1,3,5,-1,-1,-1,-1],"loss_changes":[4.9460365E1,1.7607895E1,7.94154E0,0E0,0E0,0E0,0E0],"parents":[2147483647,0,0,1,1,2,2],"right_children":[2,4,6,-1,-1,-1,-1],"split_conditions":[8.857866E-2,2.8802E6,1.8113535E1,8.845724E-5,2.9084461E-3,1.1626577E-3,-4.0528667E-3],"split_indices":[9,5,1,0,0,0,0],"split_type":[0,0,0,0,0,0,0],"sum_hessian":[1.3591857E3,1.049188E3,3.0999765E2,7.3146765E2,3.177203E2,2.7120718E1,2.8287692E2],"tree_param":{"num_deleted":"0","num_feature":"14","num_nodes":"7","size_leaf_vector":"1"}},{"base_weights":[1.3101586E-2,1.6429977E-1,-2.6814035E-1,4.233226E-3,9.6142245E-4,3.0537928E-3,-3.129517E-3],"categories":[],"categories_nodes":[],"categories_segments":[],"categories_sizes":[],"default_left":[0,0,0,0,0,0,0],"id":105,"left_children":[1,3,5,-1,-1,-1,-1],"loss_changes":[5.8404633E1,1.5110973E1,1.2791981E1,0E0,0E0,0E0,0E0],"parents":[2147483647,0,0,1,1,2,2],"right_children":[2,4,6,-1,-1,-1,-1],"split_conditions":[7.519815E-2,4.00339E-2,5E0,4.233226E-3,9.6142245E-4,3.0537928E-3,-3.129517E-3],"split_indices":[10,10,13,0,0,0,0],"split_type":[0,0,0,0,0,0,0],"sum_hessian":[1.3657365E3,8.9188544E2,4.7385092E2,1.773116E2,7.1457385E2,3.0616402E1,4.4323453E2],"tree_param":{"num_deleted":"0","num_feature":"14","num_nodes":"7","size_leaf_vector":"1"}},{"base_weights":[-3.2642463E-3,1.694287E-1,-2.1372075E-1,3.7483585E-3,1.0547785E-3,-9.214582E-4,-4.029496E-3],"categories":[],"categories_nodes":[],"categories_segments":[],"categories_sizes":[],"default_left":[0,0,0,0,0,0,0],"id":106,"left_children":[1,3,5,-1,-1,-1,-1],"loss_changes":[4.964305E1,9.135092E0,1.3529003E1,0E0,0E0,0E0,0E0],"parents":[2147483647,0,0,1,1,2,2],"right_children":[2,4,6,-1,-1,-1,-1],"split_conditions":[6.598932E-2,3.9407335E-2,2.5E1,3.7483585E-3,1.0547785E-3,-9.214582E-4,-4.029496E-3],"split_indices":[10,10,3,0,0,0,0],"split_type":[0,0,0,0,0,0,0],"sum_hessian":[1.3547078E3,7.4204E2,6.1266785E2,1.6669142E2,5.753486E2,3.807589E2,2.3190892E2],"tree_param":{"num_deleted":"0","num_feature":"14","num_nodes":"7","size_leaf_vector":"1"}},{"base_weights":[5.4390267E-3,3.8207838E-1,-1.3944086E-1,2.6958056E-3,5.758622E-3,-3.3794262E-4,-3.0203613E-3],"categories":[],"categories_nodes":[],"categories_segments":[],"categories_sizes":[],"default_left":[0,0,0,0,0,0,0],"id":107,"left_children":[1,3,5,-1,-1,-1,-1],"loss_changes":[7.441172E1,6.651417E0,1.6444511E1,0E0,0E0,0E0,0E0],"parents":[2147483647,0,0,1,1,2,2],"right_children":[2,4,6,-1,-1,-1,-1],"split_conditions":[4.899005E-2,2.7146E6,8.21512E-2,2.6958056E-3,5.758622E-3,-3.3794262E-4,-3.0203613E-3],"split_indices":[10,5,10,0,0,0,0],"split_type":[0,0,0,0,0,0,0],"sum_hessian":[1.349336E3,3.7449368E2,9.7484235E2,2.477708E2,1.2672289E2,5.9829095E2,3.7655136E2],"tree_param":{"num_deleted":"0","num_feature":"14","num_nodes":"7","size_leaf_vector":"1"}},{"base_weights":[-7.661643E-4,1.7905852E-1,-1.1723295E-1,2.7358895E-3,1.0072923E-3,2.3594068E-6,-3.6563582E-3],"categories":[],"categories_nodes":[],"categories_segments":[],"categories_sizes":[],"default_left":[0,0,0,0,0,0,0],"id":108,"left_children":[1,3,5,-1,-1,-1,-1],"loss_changes":[2.8674307E1,3.456478E0,2.4762629E1,0E0,0E0,0E0,0E0],"parents":[2147483647,0,0,1,1,2,2],"right_children":[2,4,6,-1,-1,-1,-1],"split_conditions":[1E1,6E0,9E0,2.7358895E-3,1.0072923E-3,2.3594068E-6,-3.6563582E-3],"split_indices":[13,13,12,0,0,0,0],"split_type":[0,0,0,0,0,0,0],"sum_hessian":[1.3620605E3,5.309699E2,8.3109064E2,2.2916962E2,3.0180026E2,5.649141E2,2.6617648E2],"tree_param":{"num_deleted":"0","num_feature":"14","num_nodes":"7","size_leaf_vector":"1"}},{"base_weights":[9.27256E-4,2.1288735E-1,-1.4140557E-1,1.0951211E-3,3.7976268E-3,-2.135843E-3,2.6360229E-3],"categories":[],"categories_nodes":[],"categories_segments":[],"categories_sizes":[],"default_left":[0,0,0,0,0,0,0],"id":109,"left_children":[1,3,5,-1,-1,-1,-1],"loss_changes":[4.1479755E1,8.863485E0,2.4154036E1,0E0,0E0,0E0,0E0],"parents":[2147483647,0,0,1,1,2,2],"right_children":[2,4,6,-1,-1,-1,-1],"split_conditions":[5.6271963E-2,3.626E6,1.8070699E2,1.0951211E-3,3.7976268E-3,-2.135843E-3,2.6360229E-3],"split_indices":[9,4,0,0,0,0,0],"split_type":[0,0,0,0,0,0,0],"sum_hessian":[1.3625602E3,5.492186E2,8.133416E2,3.4794742E2,2.0127122E2,6.944178E2,1.18923836E2],"tree_param":{"num_deleted":"0","num_feature":"14","num_nodes":"7","size_leaf_vector":"1"}},{"base_weights":[-0E0,1.0203182E-1,-3.2601833E-1,3.5524915E-3,3.9738137E-4,-5.3661377E-3,-1.6926184E-3],"categories":[],"categories_nodes":[],"categories_segments":[],"categories_sizes":[],"default_left":[0,0,0,0,0,0,0],"id":110,"left_children":[1,3,5,-1,-1,-1,-1],"loss_changes":[4.61855E1,1.617872E1,9.772991E0,0E0,0E0,0E0,0E0],"parents":[2147483647,0,0,1,1,2,2],"right_children":[2,4,6,-1,-1,-1,-1],"split_conditions":[8.857866E-2,6E0,6.279E5,3.5524915E-3,3.9738137E-4,-5.3661377E-3,-1.6926184E-3],"split_indices":[9,13,11,0,0,0,0],"split_type":[0,0,0,0,0,0,0],"sum_hessian":[1.376364E3,1.0501832E3,3.2618082E2,1.9953343E2,8.506497E2,1.3129555E2,1.9488527E2],"tree_param":{"num_deleted":"0","num_feature":"14","num_nodes":"7","size_leaf_vector":"1"}},{"base_weights":[8.612087E-3,1.0507551E-1,-4.0154314E-1,4.259471E-5,2.74668E-3,2.1189067E-3,-4.822773E-3],"categories":[],"categories_nodes":[],"categories_segments":[],"categories_sizes":[],"default_left":[0,0,0,0,0,0,0],"id":111,"left_children":[1,3,5,-1,-1,-1,-1],"loss_changes":[5.3535343E1,1.8576443E1,1.3514896E1,0E0,0E0,0E0,0E0],"parents":[2147483647,0,0,1,1,2,2],"right_children":[2,4,6,-1,-1,-1,-1],"split_conditions":[9.506137E-2,3.8478E6,7E0,4.259471E-5,2.74668E-3,2.1189067E-3,-4.822773E-3],"split_indices":[10,4,13,0,0,0,0],"split_type":[0,0,0,0,0,0,0],"sum_hessian":[1.3502606E3,1.0981472E3,2.5211342E2,6.956392E2,4.0250793E2,2.6936392E1,2.2517703E2],"tree_param":{"num_deleted":"0","num_feature":"14","num_nodes":"7","size_leaf_vector":"1"}},{"base_weights":[-0E0,2.7829516E-1,-1.6671552E-1,1.7929254E-3,3.7798253E-3,-8.444932E-4,-5.857101E-3],"categories":[],"categories_nodes":[],"categories_segments":[],"categories_sizes":[],"default_left":[0,0,0,0,0,0,0],"id":112,"left_children":[1,3,5,-1,-1,-1,-1],"loss_changes":[6.3044914E1,4.1384277E0,2.8272062E1,0E0,0E0,0E0,0E0],"parents":[2147483647,0,0,1,1,2,2],"right_children":[2,4,6,-1,-1,-1,-1],"split_conditions":[5.4645553E-2,2.717E6,1.1736422E-1,1.7929254E-3,3.7798253E-3,-8.444932E-4,-5.857101E-3],"split_indices":[9,4,10,0,0,0,0],"split_type":[0,0,0,0,0,0,0],"sum_hessian":[1.3469539E3,5.0512167E2,8.418322E2,2.654847E2,2.3963696E2,7.1068866E2,1.3114355E2],"tree_param":{"num_deleted":"0","num_feature":"14","num_nodes":"7","size_leaf_vector":"1"}},{"base_weights":[1.8150797E-2,1.14414886E-1,-2.9082558E-1,2.6953253E-3,1.790276E-4,-6.624363E-7,-4.024694E-3],"categories":[],"categories_nodes":[],"categories_segments":[],"categories_sizes":[],"default_left":[0,0,0,0,0,0,0],"id":113,"left_children":[1,3,5,-1,-1,-1,-1],"loss_changes":[4.0565216E1,1.5350486E1,1.008247E1,0E0,0E0,0E0,0E0],"parents":[2147483647,0,0,1,1,2,2],"right_children":[2,4,6,-1,-1,-1,-1],"split_conditions":[8.801328E-2,4.9241852E-2,1E1,2.6953253E-3,1.790276E-4,-6.624363E-7,-4.024694E-3],"split_indices":[9,9,13,0,0,0,0],"split_type":[0,0,0,0,0,0,0],"sum_hessian":[1.35918E3,1.0411776E3,3.1800235E2,3.9192966E2,6.49248E2,9.210057E1,2.259018E2],"tree_param":{"num_deleted":"0","num_feature":"14","num_nodes":"7","size_leaf_vector":"1"}},{"base_weights":[1.3510635E-2,6.941285E-2,-5.056803E-1,2.5659432E-3,-9.6570184E-5,-1.9248561E-3,-7.024775E-3],"categories":[],"categories_nodes":[],"categories_segments":[],"categories_sizes":[],"default_left":[0,0,0,0,0,0,0],"id":114,"left_children":[1,3,5,-1,-1,-1,-1],"loss_changes":[3.921855E1,1.8525211E1,6.508602E0,0E0,0E0,0E0,0E0],"parents":[2147483647,0,0,1,1,2,2],"right_children":[2,4,6,-1,-1,-1,-1],"split_conditions":[1.1736422E-1,4.8712015E-2,1.3E1,2.5659432E-3,-9.6570184E-5,-1.9248561E-3,-7.024775E-3],"split_indices":[10,10,13,0,0,0,0],"split_type":[0,0,0,0,0,0,0],"sum_hessian":[1.3552336E3,1.2291469E3,1.2608682E2,3.654474E2,8.6369946E2,5.4432125E1,7.165469E1],"tree_param":{"num_deleted":"0","num_feature":"14","num_nodes":"7","size_leaf_vector":"1"}},{"base_weights":[2.0122299E-2,2.987282E-1,-3.7369996E-2,3.87341E-3,-0E0,-1.3373443E-3,1.8924034E-3],"categories":[],"categories_nodes":[],"categories_segments":[],"categories_sizes":[],"default_left":[0,0,0,0,0,0,0],"id":115,"left_children":[1,3,5,-1,-1,-1,-1],"loss_changes":[2.243431E1,6.530739E0,2.50979E1,0E0,0E0,0E0,0E0],"parents":[2147483647,0,0,1,1,2,2],"right_children":[2,4,6,-1,-1,-1,-1],"split_conditions":[6E0,2.1509E6,3.0044E6,3.87341E-3,-0E0,-1.3373443E-3,1.8924034E-3],"split_indices":[13,11,5,0,0,0,0],"split_type":[0,0,0,0,0,0,0],"sum_hessian":[1.375794E3,2.3472716E2,1.1410669E3,1.8111661E2,5.3610558E1,8.051462E2,3.3592062E2],"tree_param":{"num_deleted":"0","num_feature":"14","num_nodes":"7","size_leaf_vector":"1"}},{"base_weights":[5.791763E-3,2.6371118E-1,-4.6206202E-2,3.3890638E-3,2.830619E-4,-1.1524584E-3,1.0625302E-3],"categories":[],"categories_nodes":[],"categories_segments":[],"categories_sizes":[],"default_left":[0,0,0,0,0,0,0],"id":116,"left_children":[1,3,5,-1,-1,-1,-1],"loss_changes":[1.8644342E1,3.7222652E0,1.2076926E1,0E0,0E0,0E0,0E0],"parents":[2147483647,0,0,1,1,2,2],"right_children":[2,4,6,-1,-1,-1,-1],"split_conditions":[6E0,1.877E6,3.0044E6,3.3890638E-3,2.830619E-4,-1.1524584E-3,1.0625302E-3],"split_indices":[13,11,5,0,0,0,0],"split_type":[0,0,0,0,0,0,0],"sum_hessian":[1.364437E3,2.2873639E2,1.1357007E3,1.684744E2,6.0261993E1,7.870655E2,3.486352E2],"tree_param":{"num_deleted":"0","num_feature":"14","num_nodes":"7","size_leaf_vector":"1"}},{"base_weights":[-4.4977977E-3,1.3614659E-1,-1.996251E-1,3.6712515E-4,2.5913687E-3,-1.6027334E-3,-8.25186E-3],"categories":[],"categories_nodes":[],"categories_segments":[],"categories_sizes":[],"default_left":[0,0,0,0,0,0,0],"id":117,"left_children":[1,3,5,-1,-1,-1,-1],"loss_changes":[3.7842743E1,9.404796E0,1.2620096E1,0E0,0E0,0E0,0E0],"parents":[2147483647,0,0,1,1,2,2],"right_children":[2,4,6,-1,-1,-1,-1],"split_conditions":[6.938555E-2,3.0665E6,1.68929E-1,3.6712515E-4,2.5913687E-3,-1.6027334E-3,-8.25186E-3],"split_indices":[10,4,10,0,0,0,0],"split_type":[0,0,0,0,0,0,0],"sum_hessian":[1.3666649E3,7.9211127E2,5.745536E2,4.460865E2,3.4602478E2,5.479628E2,2.6590755E1],"tree_param":{"num_deleted":"0","num_feature":"14","num_nodes":"7","size_leaf_vector":"1"}},{"base_weights":[-1.450611E-2,1.9933845E-1,-1.6453472E-1,5.514769E-3,1.3365704E-3,-9.774469E-4,-4.867393E-3],"categories":[],"categories_nodes":[],"categories_segments":[],"categories_sizes":[],"default_left":[0,0,0,0,0,0,0],"id":118,"left_children":[1,3,5,-1,-1,-1,-1],"loss_changes":[4.4233257E1,1.20445595E1,1.668165E1,0E0,0E0,0E0,0E0],"parents":[2147483647,0,0,1,1,2,2],"right_children":[2,4,6,-1,-1,-1,-1],"split_conditions":[5.664601E-2,3.4931794E-2,1.1589097E-1,5.514769E-3,1.3365704E-3,-9.774469E-4,-4.867393E-3],"split_indices":[10,10,10,0,0,0,0],"split_type":[0,0,0,0,0,0,0],"sum_hessian":[1.3696951E3,5.613134E2,8.0838165E2,8.003182E1,4.812816E2,6.775519E2,1.3082977E2],"tree_param":{"num_deleted":"0","num_feature":"14","num_nodes":"7","size_leaf_vector":"1"}},{"base_weights":[9.91204E-3,2.0875645E-1,-1.5074648E-1,8.967979E-4,3.5434924E-3,5.098004E-4,-2.609419E-3],"categories":[],"categories_nodes":[],"categories_segments":[],"categories_sizes":[],"default_left":[0,0,0,0,0,0,0],"id":119,"left_children":[1,3,5,-1,-1,-1,-1],"loss_changes":[4.408518E1,1.0121037E1,1.71636E1,0E0,0E0,0E0,0E0],"parents":[2147483647,0,0,1,1,2,2],"right_children":[2,4,6,-1,-1,-1,-1],"split_conditions":[5.9402242E-2,8.412E5,1E1,8.967979E-4,3.5434924E-3,5.098004E-4,-2.609419E-3],"split_indices":[9,11,13,0,0,0,0],"split_type":[0,0,0,0,0,0,0],"sum_hessian":[1.3682472E3,6.1356964E2,7.5467755E2,3.4574326E2,2.678264E2,2.6435483E2,4.9032272E2],"tree_param":{"num_deleted":"0","num_feature":"14","num_nodes":"7","size_leaf_vector":"1"}},{"base_weights":[-2.2951188E-3,1.7718199E-1,-1.5037397E-1,9.362039E-4,3.0878666E-3,-7.028973E-4,-4.4094836E-3],"categories":[],"categories_nodes":[],"categories_segments":[],"categories_sizes":[],"default_left":[0,0,0,0,0,0,0],"id":120,"left_children":[1,3,5,-1,-1,-1,-1],"loss_changes":[3.5979218E1,6.1551247E0,1.6678183E1,0E0,0E0,0E0,0E0],"parents":[2147483647,0,0,1,1,2,2],"right_children":[2,4,6,-1,-1,-1,-1],"split_conditions":[5.9402242E-2,3.7297E6,1.11360155E-1,9.362039E-4,3.0878666E-3,-7.028973E-4,-4.4094836E-3],"split_indices":[9,4,9,0,0,0,0],"split_type":[0,0,0,0,0,0,0],"sum_hessian":[1.344781E3,6.0444055E2,7.403404E2,3.7958243E2,2.2485814E2,5.879488E2,1.5239163E2],"tree_param":{"num_deleted":"0","num_feature":"14","num_nodes":"7","size_leaf_vector":"1"}},{"base_weights":[-2.5030698E-3,1.5253757E-1,-2.0815443E-1,1.7683896E-3,-1.0786231E-3,4.4498514E-4,-3.4135433E-3],"categories":[],"categories_nodes":[],"categories_segments":[],"categories_sizes":[],"default_left":[0,0,0,0,0,0,0],"id":121,"left_children":[1,3,5,-1,-1,-1,-1],"loss_changes":[4.311313E1,5.019451E0,2.0000051E1,0E0,0E0,0E0,0E0],"parents":[2147483647,0,0,1,1,2,2],"right_children":[2,4,6,-1,-1,-1,-1],"split_conditions":[6.8029724E-2,9.485022E-1,1E1,1.7683896E-3,-1.0786231E-3,4.4498514E-4,-3.4135433E-3],"split_indices":[9,6,13,0,0,0,0],"split_type":[0,0,0,0,0,0,0],"sum_hessian":[1.3404501E3,7.622319E2,5.782182E2,7.0214966E2,6.008226E1,1.9816393E2,3.8005426E2],"tree_param":{"num_deleted":"0","num_feature":"14","num_nodes":"7","size_leaf_vector":"1"}},{"base_weights":[2.316532E-2,1.09018944E-1,-2.576929E-1,4.3522906E-3,6.8652455E-4,-5.2664718E-3,-1.3641486E-3],"categories":[],"categories_nodes":[],"categories_segments":[],"categories_sizes":[],"default_left":[0,0,0,0,0,0,0],"id":122,"left_children":[1,3,5,-1,-1,-1,-1],"loss_changes":[3.334308E1,1.3378032E1,9.49963E0,0E0,0E0,0E0,0E0],"parents":[2147483647,0,0,1,1,2,2],"right_children":[2,4,6,-1,-1,-1,-1],"split_conditions":[8.857866E-2,3.6274187E-2,3.856E5,4.3522906E-3,6.8652455E-4,-5.2664718E-3,-1.3641486E-3],"split_indices":[9,9,11,0,0,0,0],"split_type":[0,0,0,0,0,0,0],"sum_hessian":[1.3781421E3,1.060565E3,3.1757712E2,1.08672966E2,9.51892E2,9.0941444E1,2.2663568E2],"tree_param":{"num_deleted":"0","num_feature":"14","num_nodes":"7","size_leaf_vector":"1"}},{"base_weights":[5.1483945E-3,2.0115015E-1,-1.7307429E-1,2.9426569E-3,6.3582114E-4,-2.5015082E-3,1.5476814E-3],"categories":[],"categories_nodes":[],"categories_segments":[],"categories_sizes":[],"default_left":[0,0,0,0,0,0,0],"id":123,"left_children":[1,3,5,-1,-1,-1,-1],"loss_changes":[4.8042286E1,7.967329E0,1.8414633E1,0E0,0E0,0E0,0E0],"parents":[2147483647,0,0,1,1,2,2],"right_children":[2,4,6,-1,-1,-1,-1],"split_conditions":[6.136784E-2,4.9212214E-2,1.4855952E2,2.9426569E-3,6.3582114E-4,-2.5015082E-3,1.5476814E-3],"split_indices":[10,10,2,0,0,0,0],"split_type":[0,0,0,0,0,0,0],"sum_hessian":[1.3645237E3,6.5221405E2,7.1230963E2,3.812162E2,2.7099786E2,5.801501E2,1.3215955E2],"tree_param":{"num_deleted":"0","num_feature":"14","num_nodes":"7","size_leaf_vector":"1"}},{"base_weights":[-3.8752768E-3,-3.9207954E-2,2.2976467E-1,-1.3050479E-3,5.5025326E-4,2.8178396E-3,-1.66666E-3],"categories":[],"categories_nodes":[],"categories_segments":[],"categories_sizes":[],"default_left":[0,0,0,0,0,0,0],"id":124,"left_children":[1,3,5,-1,-1,-1,-1],"loss_changes":[1.1178832E1,1.0431642E1,4.0044165E0,0E0,0E0,0E0,0E0],"parents":[2147483647,0,0,1,1,2,2],"right_children":[2,4,6,-1,-1,-1,-1],"split_conditions":[1.7640886E2,2.0128E6,7.905908E-3,-1.3050479E-3,5.5025326E-4,2.8178396E-3,-1.66666E-3],"split_indices":[1,5,8,0,0,0,0],"split_type":[0,0,0,0,0,0,0],"sum_hessian":[1.3667958E3,1.1945835E3,1.7221231E2,6.111578E2,5.834258E2,1.5574419E2,1.646812E1],"tree_param":{"num_deleted":"0","num_feature":"14","num_nodes":"7","size_leaf_vector":"1"}},{"base_weights":[-2.9523084E-2,6.653769E-2,-3.4749776E-1,1.950658E-3,-1.0274622E-4,3.3537077E-3,-4.0208823E-3],"categories":[],"categories_nodes":[],"categories_segments":[],"categories_sizes":[],"default_left":[0,0,0,0,0,0,0],"id":125,"left_children":[1,3,5,-1,-1,-1,-1],"loss_changes":[4.173644E1,1.0473984E1,1.2566532E1,0E0,0E0,0E0,0E0],"parents":[2147483647,0,0,1,1,2,2],"right_children":[2,4,6,-1,-1,-1,-1],"split_conditions":[8.801328E-2,4.9241852E-2,5E0,1.950658E-3,-1.0274622E-4,3.3537077E-3,-4.0208823E-3],"split_indices":[9,9,13,0,0,0,0],"split_type":[0,0,0,0,0,0,0],"sum_hessian":[1.3484135E3,1.036188E3,3.122256E2,3.8960043E2,6.4658746E2,1.985281E1,2.9237277E2],"tree_param":{"num_deleted":"0","num_feature":"14","num_nodes":"7","size_leaf_vector":"1"}},{"base_weights":[-1.6986352E-3,1.9295768E-1,-1.3403726E-1,3.7946515E-3,1.1078103E-3,-2.197802E-3,1.2274358E-3],"categories":[],"categories_nodes":[],"categories_segments":[],"categories_sizes":[],"default_left":[0,0,0,0,0,0,0],"id":126,"left_children":[1,3,5,-1,-1,-1,-1],"loss_changes":[3.5095535E1,7.717745E0,1.818444E1,0E0,0E0,0E0,0E0],"parents":[2147483647,0,0,1,1,2,2],"right_children":[2,4,6,-1,-1,-1,-1],"split_conditions":[5.619939E-2,3.9407335E-2,1.1682E2,3.7946515E-3,1.1078103E-3,-2.197802E-3,1.2274358E-3],"split_indices":[10,10,2,0,0,0,0],"split_type":[0,0,0,0,0,0,0],"sum_hessian":[1.3546425E3,5.4425433E2,8.1038806E2,1.5720525E2,3.870491E2,6.1098566E2,1.9940242E2],"tree_param":{"num_deleted":"0","num_feature":"14","num_nodes":"7","size_leaf_vector":"1"}},{"base_weights":[-4.5358557E-3,5.6257308E-2,-4.1731706E-1,4.1124457E-3,8.523049E-5,-5.1376973E-3,3.9981247E-4],"categories":[],"categories_nodes":[],"categories_segments":[],"categories_sizes":[],"default_left":[0,0,0,0,0,0,0],"id":127,"left_children":[1,3,5,-1,-1,-1,-1],"loss_changes":[3.4605873E1,1.9688053E1,8.396162E0,0E0,0E0,0E0,0E0],"parents":[2147483647,0,0,1,1,2,2],"right_children":[2,4,6,-1,-1,-1,-1],"split_conditions":[1.0641653E-1,3.7603367E-2,1.8070699E2,4.1124457E-3,8.523049E-5,-5.1376973E-3,3.9981247E-4],"split_indices":[10,10,0,0,0,0,0],"split_type":[0,0,0,0,0,0,0],"sum_hessian":[1.3549686E3,1.1826827E3,1.7228595E2,1.3318616E2,1.0494966E3,1.4357304E2,2.8712908E1],"tree_param":{"num_deleted":"0","num_feature":"14","num_nodes":"7","size_leaf_vector":"1"}},{"base_weights":[-2.5576081E-2,