{"learner":{"attributes":{"scikit_learn":"{\"_estimator_type\": \"classifier\"}"},"feature_names":["peak1_price","peak2_price","trough_price","peak_gap_days","vol1","vol2","vol2_vol1_ratio","peak_height_diff","peak_height_diff_pct","retracement_depth1","retracement_depth2","volume_diff","peak1_to_trough","trough_to_peak2"],"feature_types":["float","float","float","int","float","float","float","float","float","float","float","float","int","int"],"gradient_booster":{"model":{"cats":{"enc":[],"feature_segments":[],"sorted_idx":[]},"gbtree_model_param":{"num_parallel_tree":"1","num_trees":"200"},"iteration_indptr":[0,1,2,3,4,5,6,7,8,9,10,11,12,13,14,15,16,17,18,19,20,21,22,23,24,25,26,27,28,29,30,31,32,33,34,35,36,37,38,39,40,41,42,43,44,45,46,47,48,49,50,51,52,53,54,55,56,57,58,59,60,61,62,63,64,65,66,67,68,69,70,71,72,73,74,75,76,77,78,79,80,81,82,83,84,85,86,87,88,89,90,91,92,93,94,95,96,97,98,99,100,101,102,103,104,105,106,107,108,109,110,111,112,113,114,115,116,117,118,119,120,121,122,123,124,125,126,127,128,129,130,131,132,133,134,135,136,137,138,139,140,141,142,143,144,145,146,147,148,149,150,151,152,153,154,155,156,157,158,159,160,161,162,163,164,165,166,167,168,169,170,171,172,173,174,175,176,177,178,179,180,181,182,183,184,185,186,187,188,189,190,191,192,193,194,195,196,197,198,199,200],"tree_info":[0,0,0,0,0,0,0,0,0,0,0,0,0,0,0,0,0,0,0,0,0,0,0,0,0,0,0,0,0,0,0,0,0,0,0,0,0,0,0,0,0,0,0,0,0,0,0,0,0,0,0,0,0,0,0,0,0,0,0,0,0,0,0,0,0,0,0,0,0,0,0,0,0,0,0,0,0,0,0,0,0,0,0,0,0,0,0,0,0,0,0,0,0,0,0,0,0,0,0,0,0,0,0,0,0,0,0,0,0,0,0,0,0,0,0,0,0,0,0,0,0,0,0,0,0,0,0,0,0,0,0,0,0,0,0,0,0,0,0,0,0,0,0,0,0,0,0,0,0,0,0,0,0,0,0,0,0,0,0,0,0,0,0,0,0,0,0,0,0,0,0,0,0,0,0,0,0,0,0,0,0,0,0,0,0,0,0,0,0,0,0,0,0,0,0,0,0,0,0,0],"trees":[{"base_weights":[-4.854074E-3,4.3844524E-1,-3.5782328E-1,5.47582E-3,1.3529346E-3,-1.3737557E-3,-7.897726E-3],"categories":[],"categories_nodes":[],"categories_segments":[],"categories_sizes":[],"default_left":[0,0,0,0,0,0,0],"id":0,"left_children":[1,3,5,-1,-1,-1,-1],"loss_changes":[2.8714627E2,2.5827515E1,9.595854E1,0E0,0E0,0E0,0E0],"parents":[2147483647,0,0,1,1,2,2],"right_children":[2,4,6,-1,-1,-1,-1],"split_conditions":[5.8044683E-2,5.1183935E-2,9.588279E-2,5.47582E-3,1.3529346E-3,-1.3737557E-3,-7.897726E-3],"split_indices":[9,10,10,0,0,0,0],"split_type":[0,0,0,0,0,0,0],"sum_hessian":[1.8256425E3,8.0747656E2,1.01816583E3,5.8833984E2,2.1913672E2,6.8001953E2,3.3814633E2],"tree_param":{"num_deleted":"0","num_feature":"14","num_nodes":"7","size_leaf_vector":"1"}},{"base_weights":[-4.964549E-5,3.0764648E-1,-5.108032E-1,5.326631E-3,6.4872194E-4,-2.3466242E-3,-8.132695E-3],"categories":[],"categories_nodes":[],"categories_segments":[],"categories_sizes":[],"default_left":[0,0,0,0,0,0,0],"id":1,"left_children":[1,3,5,-1,-1,-1,-1],"loss_changes":[2.919665E2,6.2452805E1,5.6395355E1,0E0,0E0,0E0,0E0],"parents":[2147483647,0,0,1,1,2,2],"right_children":[2,4,6,-1,-1,-1,-1],"split_conditions":[7.2810255E-2,5.1183935E-2,9.729382E-2,5.326631E-3,6.4872194E-4,-2.3466242E-3,-8.132695E-3],"split_indices":[10,10,10,0,0,0,0],"split_type":[0,0,0,0,0,0,0],"sum_hessian":[1.8465101E3,1.1523337E3,6.941764E2,5.928023E2,5.5953143E2,3.692499E2,3.249265E2],"tree_param":{"num_deleted":"0","num_feature":"14","num_nodes":"7","size_leaf_vector":"1"}},{"base_weights":[-1.3376735E-2,1.9552557E-1,-7.120642E-1,5.421597E-3,-4.8683738E-5,-5.0697643E-3,-9.761452E-3],"categories":[],"categories_nodes":[],"categories_segments":[],"categories_sizes":[],"default_left":[0,0,0,0,0,0,0],"id":2,"left_children":[1,3,5,-1,-1,-1,-1],"loss_changes":[2.6952713E2,9.904956E1,1.907698E1,0E0,0E0,0E0,0E0],"parents":[2147483647,0,0,1,1,2,2],"right_children":[2,4,6,-1,-1,-1,-1],"split_conditions":[8.857866E-2,4.8712015E-2,1.1736422E-1,5.421597E-3,-4.8683738E-5,-5.0697643E-3,-9.761452E-3],"split_indices":[9,10,10,0,0,0,0],"split_type":[0,0,0,0,0,0,0],"sum_hessian":[1.8333064E3,1.4129996E3,4.2030676E2,5.163313E2,8.9666833E2,2.4692674E2,1.7338002E2],"tree_param":{"num_deleted":"0","num_feature":"14","num_nodes":"7","size_leaf_vector":"1"}},{"base_weights":[-1.0868682E-2,2.9109284E-1,-5.109306E-1,5.266448E-3,4.2575895E-4,-3.48459E-3,-9.486766E-3],"categories":[],"categories_nodes":[],"categories_segments":[],"categories_sizes":[],"default_left":[0,0,0,0,0,0,0],"id":3,"left_children":[1,3,5,-1,-1,-1,-1],"loss_changes":[2.8203485E2,6.7371376E1,4.7110886E1,0E0,0E0,0E0,0E0],"parents":[2147483647,0,0,1,1,2,2],"right_children":[2,4,6,-1,-1,-1,-1],"split_conditions":[7.2810255E-2,5.1183935E-2,1.1736422E-1,5.266448E-3,4.2575895E-4,-3.48459E-3,-9.486766E-3],"split_indices":[10,10,10,0,0,0,0],"split_type":[0,0,0,0,0,0,0],"sum_hessian":[1.8564065E3,1.1575261E3,6.988804E2,5.893256E2,5.6820044E2,5.179173E2,1.8096306E2],"tree_param":{"num_deleted":"0","num_feature":"14","num_nodes":"7","size_leaf_vector":"1"}},{"base_weights":[1.6910026E-2,3.0396906E-1,-4.8422456E-1,5.3580957E-3,5.984363E-4,-2.187419E-3,-7.3673483E-3],"categories":[],"categories_nodes":[],"categories_segments":[],"categories_sizes":[],"default_left":[0,0,0,0,0,0,0],"id":4,"left_children":[1,3,5,-1,-1,-1,-1],"loss_changes":[2.6534866E2,6.572728E1,4.32231E1,0E0,0E0,0E0,0E0],"parents":[2147483647,0,0,1,1,2,2],"right_children":[2,4,6,-1,-1,-1,-1],"split_conditions":[7.3382124E-2,5.1183935E-2,9.588279E-2,5.3580957E-3,5.984363E-4,-2.187419E-3,-7.3673483E-3],"split_indices":[10,10,10,0,0,0,0],"split_type":[0,0,0,0,0,0,0],"sum_hessian":[1.8356909E3,1.1696542E3,6.660366E2,5.947567E2,5.748975E2,3.311577E2,3.348789E2],"tree_param":{"num_deleted":"0","num_feature":"14","num_nodes":"7","size_leaf_vector":"1"}},{"base_weights":[6.719969E-4,4.1324046E-1,-3.1769666E-1,2.6147382E-3,5.5519436E-3,-1.8290263E-3,-8.514856E-3],"categories":[],"categories_nodes":[],"categories_segments":[],"categories_sizes":[],"default_left":[0,0,0,0,0,0,0],"id":5,"left_children":[1,3,5,-1,-1,-1,-1],"loss_changes":[2.4473055E2,1.5963852E1,7.372838E1,0E0,0E0,0E0,0E0],"parents":[2147483647,0,0,1,1,2,2],"right_children":[2,4,6,-1,-1,-1,-1],"split_conditions":[5.7540137E-2,1.5599E6,1.12116285E-1,2.6147382E-3,5.5519436E-3,-1.8290263E-3,-8.514856E-3],"split_indices":[9,5,10,0,0,0,0],"split_type":[0,0,0,0,0,0,0],"sum_hessian":[1.852485E3,8.0759174E2,1.0448933E3,4.0057788E2,4.070139E2,8.4108624E2,2.0380704E2],"tree_param":{"num_deleted":"0","num_feature":"14","num_nodes":"7","size_leaf_vector":"1"}},{"base_weights":[5.8283787E-3,2.954669E-1,-4.8861146E-1,5.1281755E-3,6.9837883E-4,-3.0182737E-3,-8.015517E-3],"categories":[],"categories_nodes":[],"categories_segments":[],"categories_sizes":[],"default_left":[0,0,0,0,0,0,0],"id":6,"left_children":[1,3,5,-1,-1,-1,-1],"loss_changes":[2.6453622E2,5.6464333E1,3.7528214E1,0E0,0E0,0E0,0E0],"parents":[2147483647,0,0,1,1,2,2],"right_children":[2,4,6,-1,-1,-1,-1],"split_conditions":[7.3382124E-2,5.1183935E-2,1.0655062E-1,5.1281755E-3,6.9837883E-4,-3.0182737E-3,-8.015517E-3],"split_indices":[10,10,9,0,0,0,0],"split_type":[0,0,0,0,0,0,0],"sum_hessian":[1.8385144E3,1.1619115E3,6.7660297E2,5.8631354E2,5.755979E2,4.318584E2,2.4474454E2],"tree_param":{"num_deleted":"0","num_feature":"14","num_nodes":"7","size_leaf_vector":"1"}},{"base_weights":[-5.4805423E-3,2.1650164E-1,-5.654317E-1,4.9994043E-3,-1.3334394E-4,-3.5876166E-3,-8.56612E-3],"categories":[],"categories_nodes":[],"categories_segments":[],"categories_sizes":[],"default_left":[0,0,0,0,0,0,0],"id":7,"left_children":[1,3,5,-1,-1,-1,-1],"loss_changes":[2.2981024E2,8.656145E1,2.8861832E1,0E0,0E0,0E0,0E0],"parents":[2147483647,0,0,1,1,2,2],"right_children":[2,4,6,-1,-1,-1,-1],"split_conditions":[8.1754126E-2,5.1183935E-2,1.11360155E-1,4.9994043E-3,-1.3334394E-4,-3.5876166E-3,-8.56612E-3],"split_indices":[10,10,9,0,0,0,0],"split_type":[0,0,0,0,0,0,0],"sum_hessian":[1.8361162E3,1.3157805E3,5.203357E2,5.88502E2,7.2727856E2,3.1286752E2,2.0746814E2],"tree_param":{"num_deleted":"0","num_feature":"14","num_nodes":"7","size_leaf_vector":"1"}},{"base_weights":[1.2519779E-2,2.8021097E-1,-5.08735E-1,5.249016E-3,4.3884004E-4,-3.5046232E-3,-8.820733E-3],"categories":[],"categories_nodes":[],"categories_segments":[],"categories_sizes":[],"default_left":[0,0,0,0,0,0,0],"id":8,"left_children":[1,3,5,-1,-1,-1,-1],"loss_changes":[2.6211948E2,7.121413E1,3.484488E1,0E0,0E0,0E0,0E0],"parents":[2147483647,0,0,1,1,2,2],"right_children":[2,4,6,-1,-1,-1,-1],"split_conditions":[7.594206E-2,5.1183935E-2,1.1736422E-1,5.249016E-3,4.3884004E-4,-3.5046232E-3,-8.820733E-3],"split_indices":[10,10,10,0,0,0,0],"split_type":[0,0,0,0,0,0,0],"sum_hessian":[1.870047E3,1.2383308E3,6.3171606E2,6.033211E2,6.3500977E2,4.5232855E2,1.7938753E2],"tree_param":{"num_deleted":"0","num_feature":"14","num_nodes":"7","size_leaf_vector":"1"}},{"base_weights":[3.7802525E-3,2.8908113E-1,-4.791177E-1,5.2149626E-3,4.869383E-4,-3.1639107E-3,-8.8526495E-3],"categories":[],"categories_nodes":[],"categories_segments":[],"categories_sizes":[],"default_left":[0,0,0,0,0,0,0],"id":9,"left_children":[1,3,5,-1,-1,-1,-1],"loss_changes":[2.5507838E2,6.4445595E1,4.2791763E1,0E0,0E0,0E0,0E0],"parents":[2147483647,0,0,1,1,2,2],"right_children":[2,4,6,-1,-1,-1,-1],"split_conditions":[7.2810255E-2,5.1183935E-2,1.1438963E-1,5.2149626E-3,4.869383E-4,-3.1639107E-3,-8.8526495E-3],"split_indices":[10,10,10,0,0,0,0],"split_type":[0,0,0,0,0,0,0],"sum_hessian":[1.8428165E3,1.1609773E3,6.818392E2,5.8518866E2,5.7578864E2,4.9490726E2,1.8693195E2],"tree_param":{"num_deleted":"0","num_feature":"14","num_nodes":"7","size_leaf_vector":"1"}},{"base_weights":[-2.9733805E-3,1.9091061E-1,-6.472724E-1,4.3039606E-3,-4.34114E-4,2.729006E-3,-6.8326816E-3],"categories":[],"categories_nodes":[],"categories_segments":[],"categories_sizes":[],"default_left":[0,0,0,0,0,0,0],"id":10,"left_children":[1,3,5,-1,-1,-1,-1],"loss_changes":[2.32003E2,8.0372574E1,1.5583481E1,0E0,0E0,0E0,0E0],"parents":[2147483647,0,0,1,1,2,2],"right_children":[2,4,6,-1,-1,-1,-1],"split_conditions":[8.857866E-2,5.4645553E-2,4E0,4.3039606E-3,-4.34114E-4,2.729006E-3,-6.8326816E-3],"split_indices":[9,9,13,0,0,0,0],"split_type":[0,0,0,0,0,0,0],"sum_hessian":[1.8436241E3,1.4186785E3,4.2494568E2,7.016504E2,7.17028E2,1.3712771E1,4.112329E2],"tree_param":{"num_deleted":"0","num_feature":"14","num_nodes":"7","size_leaf_vector":"1"}},{"base_weights":[-0E0,2.758281E-1,-4.7139952E-1,4.9062404E-3,5.0133315E-4,-3.1116141E-3,-8.26524E-3],"categories":[],"categories_nodes":[],"categories_segments":[],"categories_sizes":[],"default_left":[0,0,0,0,0,0,0],"id":11,"left_children":[1,3,5,-1,-1,-1,-1],"loss_changes":[2.434082E2,5.6538467E1,3.6918808E1,0E0,0E0,0E0,0E0],"parents":[2147483647,0,0,1,1,2,2],"right_children":[2,4,6,-1,-1,-1,-1],"split_conditions":[7.2810255E-2,5.1183935E-2,1.12116285E-1,4.9062404E-3,5.0133315E-4,-3.1116141E-3,-8.26524E-3],"split_indices":[10,10,10,0,0,0,0],"split_type":[0,0,0,0,0,0,0],"sum_hessian":[1.8613306E3,1.1749542E3,6.8637634E2,5.9673535E2,5.782188E2,4.8137076E2,2.0500558E2],"tree_param":{"num_deleted":"0","num_feature":"14","num_nodes":"7","size_leaf_vector":"1"}},{"base_weights":[-1.1437293E-2,3.2359365E-1,-3.9107266E-1,4.7356957E-3,9.339997E-4,-1.8002252E-3,-7.124906E-3],"categories":[],"categories_nodes":[],"categories_segments":[],"categories_sizes":[],"default_left":[0,0,0,0,0,0,0],"id":12,"left_children":[1,3,5,-1,-1,-1,-1],"loss_changes":[2.3572209E2,3.314518E1,5.7476303E1,0E0,0E0,0E0,0E0],"parents":[2147483647,0,0,1,1,2,2],"right_children":[2,4,6,-1,-1,-1,-1],"split_conditions":[6.4811036E-2,5.1183935E-2,9.588279E-2,4.7356957E-3,9.339997E-4,-1.8002252E-3,-7.124906E-3],"split_indices":[10,10,10,0,0,0,0],"split_type":[0,0,0,0,0,0,0],"sum_hessian":[1.8428073E3,9.77904E2,8.649033E2,5.862921E2,3.9161185E2,5.286752E2,3.3622815E2],"tree_param":{"num_deleted":"0","num_feature":"14","num_nodes":"7","size_leaf_vector":"1"}},{"base_weights":[2.5297033E-3,3.739497E-1,-3.0986428E-1,2.2562991E-3,5.2808085E-3,-1.3105966E-3,-7.1976664E-3],"categories":[],"categories_nodes":[],"categories_segments":[],"categories_sizes":[],"default_left":[0,0,0,0,0,0,0],"id":13,"left_children":[1,3,5,-1,-1,-1,-1],"loss_changes":[2.1749835E2,1.825467E1,7.317328E1,0E0,0E0,0E0,0E0],"parents":[2147483647,0,0,1,1,2,2],"right_children":[2,4,6,-1,-1,-1,-1],"split_conditions":[5.9402242E-2,1.706E6,1.0059168E-1,2.2562991E-3,5.2808085E-3,-1.3105966E-3,-7.1976664E-3],"split_indices":[9,5,9,0,0,0,0],"split_type":[0,0,0,0,0,0,0],"sum_hessian":[1.8639656E3,8.5254736E2,1.01141815E3,4.4404855E2,4.0849884E2,7.1051904E2,3.0089914E2],"tree_param":{"num_deleted":"0","num_feature":"14","num_nodes":"7","size_leaf_vector":"1"}},{"base_weights":[-1.1631595E-2,2.3964773E-1,-4.587123E-1,4.852948E-3,4.7802212E-4,-2.3027654E-3,-6.7141545E-3],"categories":[],"categories_nodes":[],"categories_segments":[],"categories_sizes":[],"default_left":[0,0,0,0,0,0,0],"id":14,"left_children":[1,3,5,-1,-1,-1,-1],"loss_changes":[2.0931514E2,5.5443604E1,3.0932755E1,0E0,0E0,0E0,0E0],"parents":[2147483647,0,0,1,1,2,2],"right_children":[2,4,6,-1,-1,-1,-1],"split_conditions":[7.377885E-2,4.8712015E-2,9.588279E-2,4.852948E-3,4.7802212E-4,-2.3027654E-3,-6.7141545E-3],"split_indices":[10,10,10,0,0,0,0],"split_type":[0,0,0,0,0,0,0],"sum_hessian":[1.851351E3,1.1852632E3,6.660877E2,5.14112E2,6.7115125E2,3.28454E2,3.376337E2],"tree_param":{"num_deleted":"0","num_feature":"14","num_nodes":"7","size_leaf_vector":"1"}},{"base_weights":[2.5039054E-3,2.8176692E-1,-4.089454E-1,4.7462666E-3,8.407852E-4,-2.1433404E-3,-7.173673E-3],"categories":[],"categories_nodes":[],"categories_segments":[],"categories_sizes":[],"default_left":[0,0,0,0,0,0,0],"id":15,"left_children":[1,3,5,-1,-1,-1,-1],"loss_changes":[2.1214983E2,4.125399E1,4.3046867E1,0E0,0E0,0E0,0E0],"parents":[2147483647,0,0,1,1,2,2],"right_children":[2,4,6,-1,-1,-1,-1],"split_conditions":[6.990483E-2,4.979447E-2,1.0225848E-1,4.7462666E-3,8.407852E-4,-2.1433404E-3,-7.173673E-3],"split_indices":[10,10,10,0,0,0,0],"split_type":[0,0,0,0,0,0,0],"sum_hessian":[1.8374381E3,1.0969271E3,7.40511E2,5.491386E2,5.4778845E2,4.612092E2,2.793018E2],"tree_param":{"num_deleted":"0","num_feature":"14","num_nodes":"7","size_leaf_vector":"1"}},{"base_weights":[-3.6034877E-3,2.541849E-1,-4.5466298E-1,4.691639E-3,3.524117E-4,-1.9601234E-3,-6.9453963E-3],"categories":[],"categories_nodes":[],"categories_segments":[],"categories_sizes":[],"default_left":[0,0,0,0,0,0,0],"id":16,"left_children":[1,3,5,-1,-1,-1,-1],"loss_changes":[2.1542632E2,5.4786507E1,4.0280075E1,0E0,0E0,0E0,0E0],"parents":[2147483647,0,0,1,1,2,2],"right_children":[2,4,6,-1,-1,-1,-1],"split_conditions":[7.3382124E-2,5.1183935E-2,9.588279E-2,4.691639E-3,3.524117E-4,-1.9601234E-3,-6.9453963E-3],"split_indices":[10,10,10,0,0,0,0],"split_type":[0,0,0,0,0,0,0],"sum_hessian":[1.8409913E3,1.1714517E3,6.695397E2,5.858897E2,5.855619E2,3.2854047E2,3.4099924E2],"tree_param":{"num_deleted":"0","num_feature":"14","num_nodes":"7","size_leaf_vector":"1"}},{"base_weights":[1.2463161E-2,2.335841E-1,-5.332893E-1,4.8667123E-3,2.6769395E-4,-3.6542239E-3,-8.531312E-3],"categories":[],"categories_nodes":[],"categories_segments":[],"categories_sizes":[],"default_left":[0,0,0,0,0,0,0],"id":17,"left_children":[1,3,5,-1,-1,-1,-1],"loss_changes":[2.2369267E2,6.8619705E1,2.588974E1,0E0,0E0,0E0,0E0],"parents":[2147483647,0,0,1,1,2,2],"right_children":[2,4,6,-1,-1,-1,-1],"split_conditions":[8.1754126E-2,5.1183935E-2,1.1736422E-1,4.8667123E-3,2.6769395E-4,-3.6542239E-3,-8.531312E-3],"split_indices":[10,10,10,0,0,0,0],"split_type":[0,0,0,0,0,0,0],"sum_hessian":[1.8459656E3,1.3170376E3,5.28928E2,5.8704584E2,7.299918E2,3.5594937E2,1.7297859E2],"tree_param":{"num_deleted":"0","num_feature":"14","num_nodes":"7","size_leaf_vector":"1"}},{"base_weights":[-1.6017951E-2,3.516842E-1,-3.0203483E-1,4.4601494E-3,9.669735E-4,-1.3182181E-3,-6.639138E-3],"categories":[],"categories_nodes":[],"categories_segments":[],"categories_sizes":[],"default_left":[0,0,0,0,0,0,0],"id":18,"left_children":[1,3,5,-1,-1,-1,-1],"loss_changes":[1.9548128E2,1.8773148E1,6.326689E1,0E0,0E0,0E0,0E0],"parents":[2147483647,0,0,1,1,2,2],"right_children":[2,4,6,-1,-1,-1,-1],"split_conditions":[5.8044683E-2,5.1183935E-2,9.729382E-2,4.4601494E-3,9.669735E-4,-1.3182181E-3,-6.639138E-3],"split_indices":[9,10,10,0,0,0,0],"split_type":[0,0,0,0,0,0,0],"sum_hessian":[1.8491565E3,8.0701587E2,1.0421407E3,5.834899E2,2.2352591E2,7.152848E2,3.268559E2],"tree_param":{"num_deleted":"0","num_feature":"14","num_nodes":"7","size_leaf_vector":"1"}},{"base_weights":[8.6912E-4,3.8779575E-1,-2.9092115E-1,2.3361156E-3,5.476047E-3,-1.378565E-3,-7.456493E-3],"categories":[],"categories_nodes":[],"categories_segments":[],"categories_sizes":[],"default_left":[0,0,0,0,0,0,0],"id":19,"left_children":[1,3,5,-1,-1,-1,-1],"loss_changes":[2.0955725E2,1.8268188E1,7.211607E1,0E0,0E0,0E0,0E0],"parents":[2147483647,0,0,1,1,2,2],"right_children":[2,4,6,-1,-1,-1,-1],"split_conditions":[5.7540137E-2,1.706E6,1.0578164E-1,2.3361156E-3,5.476047E-3,-1.378565E-3,-7.456493E-3],"split_indices":[9,5,9,0,0,0,0],"split_type":[0,0,0,0,0,0,0],"sum_hessian":[1.8452539E3,7.940676E2,1.0511863E3,4.135957E2,3.804719E2,7.9297894E2,2.582073E2],"tree_param":{"num_deleted":"0","num_feature":"14","num_nodes":"7","size_leaf_vector":"1"}},{"base_weights":[5.0891833E-3,3.2401267E-1,-3.2836264E-1,6.245173E-3,2.4143802E-3,-1.4016205E-3,-6.4970385E-3],"categories":[],"categories_nodes":[],"categories_segments":[],"categories_sizes":[],"default_left":[0,0,0,0,0,0,0],"id":20,"left_children":[1,3,5,-1,-1,-1,-1],"loss_changes":[1.9718016E2,2.1934433E1,5.3483208E1,0E0,0E0,0E0,0E0],"parents":[2147483647,0,0,1,1,2,2],"right_children":[2,4,6,-1,-1,-1,-1],"split_conditions":[6.335312E-2,3.794416E-2,9.729382E-2,6.245173E-3,2.4143802E-3,-1.4016205E-3,-6.4970385E-3],"split_indices":[10,10,10,0,0,0,0],"split_type":[0,0,0,0,0,0,0],"sum_hessian":[1.8441832E3,9.4423175E2,8.9995154E2,1.9384991E2,7.5038184E2,5.740432E2,3.259083E2],"tree_param":{"num_deleted":"0","num_feature":"14","num_nodes":"7","size_leaf_vector":"1"}},{"base_weights":[1.3657151E-2,1.933807E-1,-5.6870717E-1,4.070507E-3,-1.8821924E-4,-8.959354E-3,-4.158168E-3],"categories":[],"categories_nodes":[],"categories_segments":[],"categories_sizes":[],"default_left":[0,0,0,0,0,0,0],"id":21,"left_children":[1,3,5,-1,-1,-1,-1],"loss_changes":[1.9122073E2,6.3899685E1,1.8359558E1,0E0,0E0,0E0,0E0],"parents":[2147483647,0,0,1,1,2,2],"right_children":[2,4,6,-1,-1,-1,-1],"split_conditions":[8.801328E-2,5.4645553E-2,3.856E5,4.070507E-3,-1.8821924E-4,-8.959354E-3,-4.158168E-3],"split_indices":[9,9,11,0,0,0,0],"split_type":[0,0,0,0,0,0,0],"sum_hessian":[1.8203184E3,1.3948961E3,4.2542227E2,6.951054E2,6.9979065E2,1.2565171E2,2.9977057E2],"tree_param":{"num_deleted":"0","num_feature":"14","num_nodes":"7","size_leaf_vector":"1"}},{"base_weights":[-8.67313E-3,2.653897E-1,-3.7770844E-1,4.2521884E-3,9.550126E-4,-2.2966014E-3,-7.4893194E-3],"categories":[],"categories_nodes":[],"categories_segments":[],"categories_sizes":[],"default_left":[0,0,0,0,0,0,0],"id":22,"left_children":[1,3,5,-1,-1,-1,-1],"loss_changes":[1.8652716E2,2.7955772E1,4.141342E1,0E0,0E0,0E0,0E0],"parents":[2147483647,0,0,1,1,2,2],"right_children":[2,4,6,-1,-1,-1,-1],"split_conditions":[6.8029724E-2,4.8974354E-2,1.11360155E-1,4.2521884E-3,9.550126E-4,-2.2966014E-3,-7.4893194E-3],"split_indices":[9,9,9,0,0,0,0],"split_type":[0,0,0,0,0,0,0],"sum_hessian":[1.8332018E3,1.051215E3,7.819868E2,5.3473834E2,5.164766E2,5.6674805E2,2.1523872E2],"tree_param":{"num_deleted":"0","num_feature":"14","num_nodes":"7","size_leaf_vector":"1"}},{"base_weights":[-1.3052797E-2,3.2446444E-1,-3.1571013E-1,4.449607E-3,7.500873E-4,-1.3840573E-3,-6.4712213E-3],"categories":[],"categories_nodes":[],"categories_segments":[],"categories_sizes":[],"default_left":[0,0,0,0,0,0,0],"id":23,"left_children":[1,3,5,-1,-1,-1,-1],"loss_changes":[1.8914249E2,2.5582756E1,5.621705E1,0E0,0E0,0E0,0E0],"parents":[2147483647,0,0,1,1,2,2],"right_children":[2,4,6,-1,-1,-1,-1],"split_conditions":[6.0290966E-2,5.1183935E-2,9.729382E-2,4.449607E-3,7.500873E-4,-1.3840573E-3,-6.4712213E-3],"split_indices":[9,10,10,0,0,0,0],"split_type":[0,0,0,0,0,0,0],"sum_hessian":[1.8416493E3,8.689499E2,9.726994E2,5.8058075E2,2.883691E2,6.402651E2,3.324343E2],"tree_param":{"num_deleted":"0","num_feature":"14","num_nodes":"7","size_leaf_vector":"1"}},{"base_weights":[9.380519E-3,3.1758595E-1,-3.142423E-1,4.507473E-3,9.2375954E-4,-2.0263433E-3,-7.5047957E-3],"categories":[],"categories_nodes":[],"categories_segments":[],"categories_sizes":[],"default_left":[0,0,0,0,0,0,0],"id":24,"left_children":[1,3,5,-1,-1,-1,-1],"loss_changes":[1.8438309E2,2.7688736E1,4.2115875E1,0E0,0E0,0E0,0E0],"parents":[2147483647,0,0,1,1,2,2],"right_children":[2,4,6,-1,-1,-1,-1],"split_conditions":[6.335312E-2,5.1183935E-2,1.1736422E-1,4.507473E-3,9.2375954E-4,-2.0263433E-3,-7.5047957E-3],"split_indices":[10,10,10,0,0,0,0],"split_type":[0,0,0,0,0,0,0],"sum_hessian":[1.838558E3,9.43341E2,8.952169E2,5.8688324E2,3.564578E2,7.2049786E2,1.7471906E2],"tree_param":{"num_deleted":"0","num_feature":"14","num_nodes":"7","size_leaf_vector":"1"}},{"base_weights":[-1.3092324E-2,2.2202156E-1,-4.1700193E-1,4.3562157E-3,5.0041774E-5,-2.543485E-3,-6.7222165E-3],"categories":[],"categories_nodes":[],"categories_segments":[],"categories_sizes":[],"default_left":[0,0,0,0,0,0,0],"id":25,"left_children":[1,3,5,-1,-1,-1,-1],"loss_changes":[1.7511597E2,5.3453144E1,2.641433E1,0E0,0E0,0E0,0E0],"parents":[2147483647,0,0,1,1,2,2],"right_children":[2,4,6,-1,-1,-1,-1],"split_conditions":[7.3382124E-2,5.1183935E-2,1.0561481E-1,4.3562157E-3,5.0041774E-5,-2.543485E-3,-6.7222165E-3],"split_indices":[10,10,10,0,0,0,0],"split_type":[0,0,0,0,0,0,0],"sum_hessian":[1.8320824E3,1.1578684E3,6.74214E2,5.786681E2,5.7920026E2,4.202724E2,2.5394157E2],"tree_param":{"num_deleted":"0","num_feature":"14","num_nodes":"7","size_leaf_vector":"1"}},{"base_weights":[-1.1935402E-2,1.9156758E-1,-5.0943434E-1,4.2146835E-3,6.796868E-5,-3.2585172E-3,-7.6094028E-3],"categories":[],"categories_nodes":[],"categories_segments":[],"categories_sizes":[],"default_left":[0,0,0,0,0,0,0],"id":26,"left_children":[1,3,5,-1,-1,-1,-1],"loss_changes":[1.8639459E2,5.491427E1,2.2373245E1,0E0,0E0,0E0,0E0],"parents":[2147483647,0,0,1,1,2,2],"right_children":[2,4,6,-1,-1,-1,-1],"split_conditions":[8.1754126E-2,5.1183935E-2,1.11360155E-1,4.2146835E-3,6.796868E-5,-3.2585172E-3,-7.6094028E-3],"split_indices":[10,10,9,0,0,0,0],"split_type":[0,0,0,0,0,0,0],"sum_hessian":[1.8281108E3,1.2981603E3,5.2995056E2,5.7317303E2,7.2498724E2,3.152749E2,2.1467566E2],"tree_param":{"num_deleted":"0","num_feature":"14","num_nodes":"7","size_leaf_vector":"1"}},{"base_weights":[-3.231499E-3,2.2186008E-1,-3.7381455E-1,4.1551637E-3,5.988686E-4,-2.4388847E-3,-7.3236492E-3],"categories":[],"categories_nodes":[],"categories_segments":[],"categories_sizes":[],"default_left":[0,0,0,0,0,0,0],"id":27,"left_children":[1,3,5,-1,-1,-1,-1],"loss_changes":[1.5368756E2,3.5267212E1,3.0609314E1,0E0,0E0,0E0,0E0],"parents":[2147483647,0,0,1,1,2,2],"right_children":[2,4,6,-1,-1,-1,-1],"split_conditions":[7.2810255E-2,4.8712015E-2,1.1736422E-1,4.1551637E-3,5.988686E-4,-2.4388847E-3,-7.3236492E-3],"split_indices":[10,10,10,0,0,0,0],"split_type":[0,0,0,0,0,0,0],"sum_hessian":[1.8306493E3,1.1384591E3,6.921902E2,5.1214026E2,6.263189E2,5.162936E2,1.7589664E2],"tree_param":{"num_deleted":"0","num_feature":"14","num_nodes":"7","size_leaf_vector":"1"}},{"base_weights":[6.861357E-3,1.7662908E-1,-5.3702646E-1,3.6289804E-3,-3.5487613E-4,2.1774366E-3,-5.833803E-3],"categories":[],"categories_nodes":[],"categories_segments":[],"categories_sizes":[],"default_left":[0,0,0,0,0,0,0],"id":28,"left_children":[1,3,5,-1,-1,-1,-1],"loss_changes":[1.7015775E2,5.604979E1,1.6322273E1,0E0,0E0,0E0,0E0],"parents":[2147483647,0,0,1,1,2,2],"right_children":[2,4,6,-1,-1,-1,-1],"split_conditions":[8.801328E-2,5.6405928E-2,5E0,3.6289804E-3,-3.5487613E-4,2.1774366E-3,-5.833803E-3],"split_indices":[9,10,13,0,0,0,0],"split_type":[0,0,0,0,0,0,0],"sum_hessian":[1.8366052E3,1.4036793E3,4.3292593E2,7.479935E2,6.556857E2,2.2731619E1,4.101943E2],"tree_param":{"num_deleted":"0","num_feature":"14","num_nodes":"7","size_leaf_vector":"1"}},{"base_weights":[-1.1660099E-2,2.1926576E-1,-4.1006744E-1,4.0399996E-3,6.9416343E-4,-2.7021058E-3,-7.1219187E-3],"categories":[],"categories_nodes":[],"categories_segments":[],"categories_sizes":[],"default_left":[0,0,0,0,0,0,0],"id":29,"left_children":[1,3,5,-1,-1,-1,-1],"loss_changes":[1.6949284E2,3.1595562E1,2.6651817E1,0E0,0E0,0E0,0E0],"parents":[2147483647,0,0,1,1,2,2],"right_children":[2,4,6,-1,-1,-1,-1],"split_conditions":[7.3382124E-2,4.899005E-2,1.12116285E-1,4.0399996E-3,6.9416343E-4,-2.7021058E-3,-7.1219187E-3],"split_indices":[10,10,10,0,0,0,0],"split_type":[0,0,0,0,0,0,0],"sum_hessian":[1.830302E3,1.1585302E3,6.7177185E2,5.1208215E2,6.46448E2,4.6793918E2,2.0383269E2],"tree_param":{"num_deleted":"0","num_feature":"14","num_nodes":"7","size_leaf_vector":"1"}},{"base_weights":[9.481099E-3,2.9330078E-1,-3.0176803E-1,4.5580994E-3,1.0402235E-3,-1.3236101E-3,-5.6706546E-3],"categories":[],"categories_nodes":[],"categories_segments":[],"categories_sizes":[],"default_left":[0,0,0,0,0,0,0],"id":30,"left_children":[1,3,5,-1,-1,-1,-1],"loss_changes":[1.625214E2,2.8852913E1,3.82918E1,0E0,0E0,0E0,0E0],"parents":[2147483647,0,0,1,1,2,2],"right_children":[2,4,6,-1,-1,-1,-1],"split_conditions":[6.4204276E-2,4.8712015E-2,9.663642E-2,4.5580994E-3,1.0402235E-3,-1.3236101E-3,-5.6706546E-3],"split_indices":[10,10,10,0,0,0,0],"split_type":[0,0,0,0,0,0,0],"sum_hessian":[1.8298407E3,9.589245E2,8.709162E2,5.0931604E2,4.4960846E2,5.383891E2,3.3252713E2],"tree_param":{"num_deleted":"0","num_feature":"14","num_nodes":"7","size_leaf_vector":"1"}},{"base_weights":[-8.067099E-3,2.7876776E-1,-3.0504718E-1,4.0487507E-3,7.086437E-4,-1.8677004E-3,-7.682828E-3],"categories":[],"categories_nodes":[],"categories_segments":[],"categories_sizes":[],"default_left":[0,0,0,0,0,0,0],"id":31,"left_children":[1,3,5,-1,-1,-1,-1],"loss_changes":[1.5729942E2,2.3961288E1,4.8117607E1,0E0,0E0,0E0,0E0],"parents":[2147483647,0,0,1,1,2,2],"right_children":[2,4,6,-1,-1,-1,-1],"split_conditions":[6.335312E-2,5.1183935E-2,1.1736422E-1,4.0487507E-3,7.086437E-4,-1.8677004E-3,-7.682828E-3],"split_indices":[10,10,10,0,0,0,0],"split_type":[0,0,0,0,0,0,0],"sum_hessian":[1.8362792E3,9.3253766E2,9.037416E2,5.7451117E2,3.5802646E2,7.2723303E2,1.7650848E2],"tree_param":{"num_deleted":"0","num_feature":"14","num_nodes":"7","size_leaf_vector":"1"}},{"base_weights":[-9.105221E-3,2.2201179E-1,-3.9377537E-1,4.026354E-3,3.2912288E-4,-2.1896972E-3,-6.249105E-3],"categories":[],"categories_nodes":[],"categories_segments":[],"categories_sizes":[],"default_left":[0,0,0,0,0,0,0],"id":32,"left_children":[1,3,5,-1,-1,-1,-1],"loss_changes":[1.6446344E2,3.887623E1,2.6559021E1,0E0,0E0,0E0,0E0],"parents":[2147483647,0,0,1,1,2,2],"right_children":[2,4,6,-1,-1,-1,-1],"split_conditions":[7.2810255E-2,5.1183935E-2,1.0149921E-1,4.026354E-3,3.2912288E-4,-2.1896972E-3,-6.249105E-3],"split_indices":[10,10,9,0,0,0,0],"split_type":[0,0,0,0,0,0,0],"sum_hessian":[1.8380542E3,1.1478932E3,6.90161E2,5.815118E2,5.663814E2,4.0097223E2,2.8918878E2],"tree_param":{"num_deleted":"0","num_feature":"14","num_nodes":"7","size_leaf_vector":"1"}},{"base_weights":[1.1837967E-2,3.3204946E-1,-2.5551605E-1,2.0487537E-3,4.950967E-3,-6.2508683E-4,-5.0285123E-3],"categories":[],"categories_nodes":[],"categories_segments":[],"categories_sizes":[],"default_left":[0,0,0,0,0,0,0],"id":33,"left_children":[1,3,5,-1,-1,-1,-1],"loss_changes":[1.5766159E2,1.6193848E1,4.7090775E1,0E0,0E0,0E0,0E0],"parents":[2147483647,0,0,1,1,2,2],"right_children":[2,4,6,-1,-1,-1,-1],"split_conditions":[5.9402242E-2,3.11484E6,8.801328E-2,2.0487537E-3,4.950967E-3,-6.2508683E-4,-5.0285123E-3],"split_indices":[9,4,9,0,0,0,0],"split_type":[0,0,0,0,0,0,0],"sum_hessian":[1.8307803E3,8.3419293E2,9.9658734E2,4.7843643E2,3.5575647E2,5.655605E2,4.3102686E2],"tree_param":{"num_deleted":"0","num_feature":"14","num_nodes":"7","size_leaf_vector":"1"}},{"base_weights":[-4.2556985E-3,2.2606695E-1,-4.003785E-1,4.1457796E-3,7.2678004E-4,-2.618341E-3,-6.95634E-3],"categories":[],"categories_nodes":[],"categories_segments":[],"categories_sizes":[],"default_left":[0,0,0,0,0,0,0],"id":34,"left_children":[1,3,5,-1,-1,-1,-1],"loss_changes":[1.6968442E2,3.328851E1,2.61391E1,0E0,0E0,0E0,0E0],"parents":[2147483647,0,0,1,1,2,2],"right_children":[2,4,6,-1,-1,-1,-1],"split_conditions":[7.3382124E-2,4.899005E-2,1.12116285E-1,4.1457796E-3,7.2678004E-4,-2.618341E-3,-6.95634E-3],"split_indices":[10,10,10,0,0,0,0],"split_type":[0,0,0,0,0,0,0],"sum_hessian":[1.8479688E3,1.1682947E3,6.7967413E2,5.173955E2,6.508991E2,4.713302E2,2.0834395E2],"tree_param":{"num_deleted":"0","num_feature":"14","num_nodes":"7","size_leaf_vector":"1"}},{"base_weights":[7.7581396E-3,2.9853335E-1,-2.379891E-1,1.5674838E-3,4.4984976E-3,-1.3949148E-3,-6.8167183E-3],"categories":[],"categories_nodes":[],"categories_segments":[],"categories_sizes":[],"default_left":[0,0,0,0,0,0,0],"id":35,"left_children":[1,3,5,-1,-1,-1,-1],"loss_changes":[1.3162076E2,1.717192E1,4.2231792E1,0E0,0E0,0E0,0E0],"parents":[2147483647,0,0,1,1,2,2],"right_children":[2,4,6,-1,-1,-1,-1],"split_conditions":[5.9402242E-2,1.706E6,1.1736422E-1,1.5674838E-3,4.4984976E-3,-1.3949148E-3,-6.8167183E-3],"split_indices":[9,5,10,0,0,0,0],"split_type":[0,0,0,0,0,0,0],"sum_hessian":[1.8311335E3,8.400992E2,9.9103436E2,4.4237634E2,3.9772287E2,8.182161E2,1.7281822E2],"tree_param":{"num_deleted":"0","num_feature":"14","num_nodes":"7","size_leaf_vector":"1"}},{"base_weights":[1.1232013E-2,1.6549361E-1,-4.75632E-1,3.183038E-3,-2.744992E-4,3.4702732E-3,-5.3051244E-3],"categories":[],"categories_nodes":[],"categories_segments":[],"categories_sizes":[],"default_left":[0,0,0,0,0,0,0],"id":36,"left_children":[1,3,5,-1,-1,-1,-1],"loss_changes":[1.3786171E2,4.156344E1,2.102002E1,0E0,0E0,0E0,0E0],"parents":[2147483647,0,0,1,1,2,2],"right_children":[2,4,6,-1,-1,-1,-1],"split_conditions":[8.801328E-2,5.7540137E-2,5E0,3.183038E-3,-2.744992E-4,3.4702732E-3,-5.3051244E-3],"split_indices":[9,9,13,0,0,0,0],"split_type":[0,0,0,0,0,0,0],"sum_hessian":[1.8294894E3,1.393361E3,4.3612842E2,7.786271E2,6.1473395E2,2.4470898E1,4.1165753E2],"tree_param":{"num_deleted":"0","num_feature":"14","num_nodes":"7","size_leaf_vector":"1"}},{"base_weights":[-9.469015E-3,2.1758702E-1,-3.914424E-1,3.931918E-3,3.5129456E-4,-2.3558247E-3,-7.735072E-3],"categories":[],"categories_nodes":[],"categories_segments":[],"categories_sizes":[],"default_left":[0,0,0,0,0,0,0],"id":37,"left_children":[1,3,5,-1,-1,-1,-1],"loss_changes":[1.591629E2,3.629215E1,3.8872406E1,0E0,0E0,0E0,0E0],"parents":[2147483647,0,0,1,1,2,2],"right_children":[2,4,6,-1,-1,-1,-1],"split_conditions":[7.2810255E-2,5.1183935E-2,1.1438963E-1,3.931918E-3,3.5129456E-4,-2.3558247E-3,-7.735072E-3],"split_indices":[10,10,10,0,0,0,0],"split_type":[0,0,0,0,0,0,0],"sum_hessian":[1.8232527E3,1.1432222E3,6.800306E2,5.768153E2,5.664068E2,4.9059653E2,1.8943404E2],"tree_param":{"num_deleted":"0","num_feature":"14","num_nodes":"7","size_leaf_vector":"1"}},{"base_weights":[-4.5089956E-4,2.0173165E-1,-3.4154537E-1,4.0768157E-3,3.670097E-4,-2.2347493E-3,-6.608991E-3],"categories":[],"categories_nodes":[],"categories_segments":[],"categories_sizes":[],"default_left":[0,0,0,0,0,0,0],"id":38,"left_children":[1,3,5,-1,-1,-1,-1],"loss_changes":[1.27475914E2,3.8819996E1,2.4356537E1,0E0,0E0,0E0,0E0],"parents":[2147483647,0,0,1,1,2,2],"right_children":[2,4,6,-1,-1,-1,-1],"split_conditions":[7.2810255E-2,4.8712015E-2,1.1589097E-1,4.0768157E-3,3.670097E-4,-2.2347493E-3,-6.608991E-3],"split_indices":[10,10,10,0,0,0,0],"split_type":[0,0,0,0,0,0,0],"sum_hessian":[1.8364359E3,1.1524415E3,6.8399445E2,5.066975E2,6.4574396E2,5.0786017E2,1.761343E2],"tree_param":{"num_deleted":"0","num_feature":"14","num_nodes":"7","size_leaf_vector":"1"}},{"base_weights":[-1.934156E-3,2.198587E-1,-3.6693448E-1,3.9279056E-3,7.465993E-4,-9.505417E-4,-4.9359533E-3],"categories":[],"categories_nodes":[],"categories_segments":[],"categories_sizes":[],"default_left":[0,0,0,0,0,0,0],"id":39,"left_children":[1,3,5,-1,-1,-1,-1],"loss_changes":[1.4915819E2,2.8092892E1,2.3193642E1,0E0,0E0,0E0,0E0],"parents":[2147483647,0,0,1,1,2,2],"right_children":[2,4,6,-1,-1,-1,-1],"split_conditions":[7.2810255E-2,4.899005E-2,1E1,3.9279056E-3,7.465993E-4,-9.505417E-4,-4.9359533E-3],"split_indices":[10,10,13,0,0,0,0],"split_type":[0,0,0,0,0,0,0],"sum_hessian":[1.8306954E3,1.1382717E3,6.9242365E2,5.124867E2,6.257851E2,2.2535074E2,4.670729E2],"tree_param":{"num_deleted":"0","num_feature":"14","num_nodes":"7","size_leaf_vector":"1"}},{"base_weights":[-3.9922735E-3,2.8313342E-1,-3.1647345E-1,4.1805143E-3,7.538727E-4,-1.3283994E-3,-5.8695674E-3],"categories":[],"categories_nodes":[],"categories_segments":[],"categories_sizes":[],"default_left":[0,0,0,0,0,0,0],"id":40,"left_children":[1,3,5,-1,-1,-1,-1],"loss_changes":[1.6692868E2,2.6474434E1,4.3214836E1,0E0,0E0,0E0,0E0],"parents":[2147483647,0,0,1,1,2,2],"right_children":[2,4,6,-1,-1,-1,-1],"split_conditions":[6.4204276E-2,5.1183935E-2,9.506137E-2,4.1805143E-3,7.538727E-4,-1.3283994E-3,-5.8695674E-3],"split_indices":[10,10,10,0,0,0,0],"split_type":[0,0,0,0,0,0,0],"sum_hessian":[1.850158E3,9.627746E2,8.873833E2,5.7771204E2,3.850626E2,5.351904E2,3.5219287E2],"tree_param":{"num_deleted":"0","num_feature":"14","num_nodes":"7","size_leaf_vector":"1"}},{"base_weights":[-0E0,1.6980863E-1,-4.2106935E-1,4.1247364E-3,6.545286E-5,-1.1675402E-3,-5.4754564E-3],"categories":[],"categories_nodes":[],"categories_segments":[],"categories_sizes":[],"default_left":[0,0,0,0,0,0,0],"id":41,"left_children":[1,3,5,-1,-1,-1,-1],"loss_changes":[1.3193413E2,5.156304E1,1.9441559E1,0E0,0E0,0E0,0E0],"parents":[2147483647,0,0,1,1,2,2],"right_children":[2,4,6,-1,-1,-1,-1],"split_conditions":[8.1754126E-2,4.899005E-2,1E1,4.1247364E-3,6.545286E-5,-1.1675402E-3,-5.4754564E-3],"split_indices":[10,10,13,0,0,0,0],"split_type":[0,0,0,0,0,0,0],"sum_hessian":[1.8331011E3,1.3074126E3,5.256885E2,5.203049E2,7.871077E2,1.5948149E2,3.66207E2],"tree_param":{"num_deleted":"0","num_feature":"14","num_nodes":"7","size_leaf_vector":"1"}},{"base_weights":[9.394835E-5,1.3684478E-1,-4.5166323E-1,3.5526555E-3,1.1639168E-4,-5.2464246E-3,-6.3480315E-4],"categories":[],"categories_nodes":[],"categories_segments":[],"categories_sizes":[],"default_left":[0,0,0,0,0,0,0],"id":42,"left_children":[1,3,5,-1,-1,-1,-1],"loss_changes":[1.13464714E2,3.8322174E1,1.1321129E1,0E0,0E0,0E0,0E0],"parents":[2147483647,0,0,1,1,2,2],"right_children":[2,4,6,-1,-1,-1,-1],"split_conditions":[8.857866E-2,4.8314393E-2,1.05466E7,3.5526555E-3,1.1639168E-4,-5.2464246E-3,-6.3480315E-4],"split_indices":[9,9,4,0,0,0,0],"split_type":[0,0,0,0,0,0,0],"sum_hessian":[1.831741E3,1.4104764E3,4.2126453E2,5.0767136E2,9.0280505E2,3.5095117E2,7.031335E1],"tree_param":{"num_deleted":"0","num_feature":"14","num_nodes":"7","size_leaf_vector":"1"}},{"base_weights":[1.3148874E-2,2.1735151E-1,-3.3736306E-1,3.8480158E-3,4.7712828E-4,-2.2404997E-3,-6.2879245E-3],"categories":[],"categories_nodes":[],"categories_segments":[],"categories_sizes":[],"default_left":[0,0,0,0,0,0,0],"id":43,"left_children":[1,3,5,-1,-1,-1,-1],"loss_changes":[1.3151216E2,3.2531017E1,2.0742119E1,0E0,0E0,0E0,0E0],"parents":[2147483647,0,0,1,1,2,2],"right_children":[2,4,6,-1,-1,-1,-1],"split_conditions":[7.3382124E-2,5.1183935E-2,1.1736422E-1,3.8480158E-3,4.7712828E-4,-2.2404997E-3,-6.2879245E-3],"split_indices":[10,10,10,0,0,0,0],"split_type":[0,0,0,0,0,0,0],"sum_hessian":[1.8289463E3,1.158674E3,6.7027234E2,5.769403E2,5.8173364E2,4.9145932E2,1.7881303E2],"tree_param":{"num_deleted":"0","num_feature":"14","num_nodes":"7","size_leaf_vector":"1"}},{"base_weights":[-2.6255723E-3,1.687682E-1,-4.1993618E-1,3.828495E-3,2.558001E-4,-2.7746377E-3,-6.876707E-3],"categories":[],"categories_nodes":[],"categories_segments":[],"categories_sizes":[],"default_left":[0,0,0,0,0,0,0],"id":44,"left_children":[1,3,5,-1,-1,-1,-1],"loss_changes":[1.3144951E2,3.9350803E1,1.8516045E1,0E0,0E0,0E0,0E0],"parents":[2147483647,0,0,1,1,2,2],"right_children":[2,4,6,-1,-1,-1,-1],"split_conditions":[8.1754126E-2,4.899005E-2,1.1736422E-1,3.828495E-3,2.558001E-4,-2.7746377E-3,-6.876707E-3],"split_indices":[10,10,10,0,0,0,0],"split_type":[0,0,0,0,0,0,0],"sum_hessian":[1.8243604E3,1.2936334E3,5.30727E2,5.1231555E2,7.813179E2,3.5547894E2,1.7524805E2],"tree_param":{"num_deleted":"0","num_feature":"14","num_nodes":"7","size_leaf_vector":"1"}},{"base_weights":[-5.074857E-3,2.1628737E-1,-3.189544E-1,5.138937E-3,1.3284427E-3,-2.8601615E-4,-4.5571E-3],"categories":[],"categories_nodes":[],"categories_segments":[],"categories_sizes":[],"default_left":[0,0,0,0,0,0,0],"id":45,"left_children":[1,3,5,-1,-1,-1,-1],"loss_changes":[1.2781041E2,2.5734016E1,2.9707314E1,0E0,0E0,0E0,0E0],"parents":[2147483647,0,0,1,1,2,2],"right_children":[2,4,6,-1,-1,-1,-1],"split_conditions":[6.938555E-2,3.9407335E-2,1E1,5.138937E-3,1.3284427E-3,-2.8601615E-4,-4.5571E-3],"split_indices":[10,10,13,0,0,0,0],"split_type":[0,0,0,0,0,0,0],"sum_hessian":[1.8280576E3,1.0710634E3,7.5699426E2,2.262714E2,8.44792E2,2.4665868E2,5.1033557E2],"tree_param":{"num_deleted":"0","num_feature":"14","num_nodes":"7","size_leaf_vector":"1"}},{"base_weights":[1.5445012E-2,3.2360885E-1,-1.913296E-1,5.3963796E-3,2.2237864E-3,6.8670965E-4,-3.3170914E-3],"categories":[],"categories_nodes":[],"categories_segments":[],"categories_sizes":[],"default_left":[0,0,0,0,0,0,0],"id":46,"left_children":[1,3,5,-1,-1,-1,-1],"loss_changes":[1.18064865E2,1.4930855E1,4.074049E1,0E0,0E0,0E0,0E0],"parents":[2147483647,0,0,1,1,2,2],"right_children":[2,4,6,-1,-1,-1,-1],"split_conditions":[5.5924326E-2,3.9407335E-2,1E1,5.3963796E-3,2.2237864E-3,6.8670965E-4,-3.3170914E-3],"split_indices":[10,10,13,0,0,0,0],"split_type":[0,0,0,0,0,0,0],"sum_hessian":[1.840922E3,7.4003357E2,1.1008884E3,2.260665E2,5.139671E2,3.8438663E2,7.165018E2],"tree_param":{"num_deleted":"0","num_feature":"14","num_nodes":"7","size_leaf_vector":"1"}},{"base_weights":[1.3052859E-2,2.3301437E-1,-3.4435934E-1,4.1301525E-3,4.9240526E-4,-6.7613035E-4,-4.7233673E-3],"categories":[],"categories_nodes":[],"categories_segments":[],"categories_sizes":[],"default_left":[0,0,0,0,0,0,0],"id":47,"left_children":[1,3,5,-1,-1,-1,-1],"loss_changes":[1.4510034E2,3.7310516E1,2.4164062E1,0E0,0E0,0E0,0E0],"parents":[2147483647,0,0,1,1,2,2],"right_children":[2,4,6,-1,-1,-1,-1],"split_conditions":[7.2810255E-2,5.1183935E-2,1E1,4.1301525E-3,4.9240526E-4,-6.7613035E-4,-4.7233673E-3],"split_indices":[10,10,13,0,0,0,0],"split_type":[0,0,0,0,0,0,0],"sum_hessian":[1.8369757E3,1.1399541E3,6.9702167E2,5.699889E2,5.6996515E2,2.252919E2,4.7172977E2],"tree_param":{"num_deleted":"0","num_feature":"14","num_nodes":"7","size_leaf_vector":"1"}},{"base_weights":[8.9199963E-4,1.7287804E-1,-1.0830504E-1,5.2795396E-4,2.7842084E-3,-2.515312E-5,-3.3153861E-3],"categories":[],"categories_nodes":[],"categories_segments":[],"categories_sizes":[],"default_left":[0,0,0,0,0,0,0],"id":48,"left_children":[1,3,5,-1,-1,-1,-1],"loss_changes":[3.4635906E1,8.700535E0,2.616843E1,0E0,0E0,0E0,0E0],"parents":[2147483647,0,0,1,1,2,2],"right_children":[2,4,6,-1,-1,-1,-1],"split_conditions":[1E1,1.7214E6,9E0,5.2795396E-4,2.7842084E-3,-2.515312E-5,-3.3153861E-3],"split_indices":[13,5,12,0,0,0,0],"split_type":[0,0,0,0,0,0,0],"sum_hessian":[1.8308385E3,7.134275E2,1.117411E3,3.4166727E2,3.717602E2,7.646036E2,3.528074E2],"tree_param":{"num_deleted":"0","num_feature":"14","num_nodes":"7","size_leaf_vector":"1"}},{"base_weights":[2.6381693E-3,2.0286006E-1,-3.2794246E-1,3.4300808E-3,5.5119675E-4,-2.2155668E-3,-6.258312E-3],"categories":[],"categories_nodes":[],"categories_segments":[],"categories_sizes":[],"default_left":[0,0,0,0,0,0,0],"id":49,"left_children":[1,3,5,-1,-1,-1,-1],"loss_changes":[1.218892E2,2.3316769E1,2.0436363E1,0E0,0E0,0E0,0E0],"parents":[2147483647,0,0,1,1,2,2],"right_children":[2,4,6,-1,-1,-1,-1],"split_conditions":[7.2810255E-2,5.1183935E-2,1.1736422E-1,3.4300808E-3,5.5119675E-4,-2.2155668E-3,-6.258312E-3],"split_indices":[10,10,10,0,0,0,0],"split_type":[0,0,0,0,0,0,0],"sum_hessian":[1.8333834E3,1.1449072E3,6.8847614E2,5.806857E2,5.6422156E2,5.162001E2,1.7227611E2],"tree_param":{"num_deleted":"0","num_feature":"14","num_nodes":"7","size_leaf_vector":"1"}},{"base_weights":[-1.8913237E-2,1.8263924E-1,-3.5526952E-1,5.0371373E-3,9.981085E-4,-8.7176275E-4,-4.804879E-3],"categories":[],"categories_nodes":[],"categories_segments":[],"categories_sizes":[],"default_left":[0,0,0,0,0,0,0],"id":50,"left_children":[1,3,5,-1,-1,-1,-1],"loss_changes":[1.248128E2,2.9677467E1,2.2408287E1,0E0,0E0,0E0,0E0],"parents":[2147483647,0,0,1,1,2,2],"right_children":[2,4,6,-1,-1,-1,-1],"split_conditions":[7.2810255E-2,3.9407335E-2,1E1,5.0371373E-3,9.981085E-4,-8.7176275E-4,-4.804879E-3],"split_indices":[10,10,13,0,0,0,0],"split_type":[0,0,0,0,0,0,0],"sum_hessian":[1.8287428E3,1.1430892E3,6.856536E2,2.2672733E2,9.1636194E2,2.2353375E2,4.6211984E2],"tree_param":{"num_deleted":"0","num_feature":"14","num_nodes":"7","size_leaf_vector":"1"}},{"base_weights":[-4.674412E-3,1.899375E-1,-3.4008023E-1,3.6184124E-3,4.5130236E-4,-1.3790489E-3,-5.4497365E-3],"categories":[],"categories_nodes":[],"categories_segments":[],"categories_sizes":[],"default_left":[0,0,0,0,0,0,0],"id":51,"left_children":[1,3,5,-1,-1,-1,-1],"loss_changes":[1.2054314E2,2.8521072E1,2.7072578E1,0E0,0E0,0E0,0E0],"parents":[2147483647,0,0,1,1,2,2],"right_children":[2,4,6,-1,-1,-1,-1],"split_conditions":[7.3382124E-2,4.9212214E-2,9.729382E-2,3.6184124E-3,4.5130236E-4,-1.3790489E-3,-5.4497365E-3],"split_indices":[10,10,10,0,0,0,0],"split_type":[0,0,0,0,0,0,0],"sum_hessian":[1.8344779E3,1.1603799E3,6.74098E2,5.2396747E2,6.364124E2,3.4596677E2,3.281313E2],"tree_param":{"num_deleted":"0","num_feature":"14","num_nodes":"7","size_leaf_vector":"1"}},{"base_weights":[-7.801664E-4,1.5399145E-1,-3.9825165E-1,3.450194E-3,3.8186256E-5,5.0006052E-3,-4.3659923E-3],"categories":[],"categories_nodes":[],"categories_segments":[],"categories_sizes":[],"default_left":[0,0,0,0,0,0,0],"id":52,"left_children":[1,3,5,-1,-1,-1,-1],"loss_changes":[1.1354247E2,3.7619938E1,1.8871277E1,0E0,0E0,0E0,0E0],"parents":[2147483647,0,0,1,1,2,2],"right_children":[2,4,6,-1,-1,-1,-1],"split_conditions":[8.253741E-2,5.1183935E-2,4E0,3.450194E-3,3.8186256E-5,5.0006052E-3,-4.3659923E-3],"split_indices":[10,10,13,0,0,0,0],"split_type":[0,0,0,0,0,0,0],"sum_hessian":[1.8317445E3,1.3187736E3,5.1297095E2,5.746462E2,7.4412744E2,1.7469114E1,4.9550183E2],"tree_param":{"num_deleted":"0","num_feature":"14","num_nodes":"7","size_leaf_vector":"1"}},{"base_weights":[1.1647226E-2,2.1346791E-1,-3.3258972E-1,4.9346755E-3,1.4287523E-3,-1.5249917E-3,-5.217935E-3],"categories":[],"categories_nodes":[],"categories_segments":[],"categories_sizes":[],"default_left":[0,0,0,0,0,0,0],"id":53,"left_children":[1,3,5,-1,-1,-1,-1],"loss_changes":[1.2760182E2,2.1951218E1,2.20196E1,0E0,0E0,0E0,0E0],"parents":[2147483647,0,0,1,1,2,2],"right_children":[2,4,6,-1,-1,-1,-1],"split_conditions":[7.3382124E-2,3.9407335E-2,9.729382E-2,4.9346755E-3,1.4287523E-3,-1.5249917E-3,-5.217935E-3],"split_indices":[10,10,10,0,0,0,0],"split_type":[0,0,0,0,0,0,0],"sum_hessian":[1.8282859E3,1.1555875E3,6.7269836E2,2.2379738E2,9.3179016E2,3.5198367E2,3.207147E2],"tree_param":{"num_deleted":"0","num_feature":"14","num_nodes":"7","size_leaf_vector":"1"}},{"base_weights":[-2.1052603E-3,2.4399395E-1,-2.7100796E-1,3.7007187E-3,4.6567008E-4,-1.2730579E-3,-5.077345E-3],"categories":[],"categories_nodes":[],"categories_segments":[],"categories_sizes":[],"default_left":[0,0,0,0,0,0,0],"id":54,"left_children":[1,3,5,-1,-1,-1,-1],"loss_changes":[1.2190824E2,2.3386074E1,2.9046593E1,0E0,0E0,0E0,0E0],"parents":[2147483647,0,0,1,1,2,2],"right_children":[2,4,6,-1,-1,-1,-1],"split_conditions":[6.4204276E-2,5.1183935E-2,9.729382E-2,3.7007187E-3,4.6567008E-4,-1.2730579E-3,-5.077345E-3],"split_indices":[10,10,10,0,0,0,0],"split_type":[0,0,0,0,0,0,0],"sum_hessian":[1.8317571E3,9.547323E2,8.770248E2,5.768898E2,3.7784253E2,5.531528E2,3.23872E2],"tree_param":{"num_deleted":"0","num_feature":"14","num_nodes":"7","size_leaf_vector":"1"}},{"base_weights":[-5.896377E-3,1.9305125E-1,-3.4171975E-1,3.7607618E-3,4.7992196E-4,-2.1532075E-3,-6.7921835E-3],"categories":[],"categories_nodes":[],"categories_segments":[],"categories_sizes":[],"default_left":[0,0,0,0,0,0,0],"id":55,"left_children":[1,3,5,-1,-1,-1,-1],"loss_changes":[1.235412E2,3.0230518E1,2.776329E1,0E0,0E0,0E0,0E0],"parents":[2147483647,0,0,1,1,2,2],"right_children":[2,4,6,-1,-1,-1,-1],"split_conditions":[7.3382124E-2,4.8712015E-2,1.1736422E-1,3.7607618E-3,4.7992196E-4,-2.1532075E-3,-6.7921835E-3],"split_indices":[10,10,10,0,0,0,0],"split_type":[0,0,0,0,0,0,0],"sum_hessian":[1.8369452E3,1.1530225E3,6.839227E2,5.032286E2,6.497939E2,5.056872E2,1.7823552E2],"tree_param":{"num_deleted":"0","num_feature":"14","num_nodes":"7","size_leaf_vector":"1"}},{"base_weights":[-0E0,2.056903E-1,-3.4734857E-1,3.658527E-3,4.0609948E-4,-2.2246893E-3,-6.931037E-3],"categories":[],"categories_nodes":[],"categories_segments":[],"categories_sizes":[],"default_left":[0,0,0,0,0,0,0],"id":56,"left_children":[1,3,5,-1,-1,-1,-1],"loss_changes":[1.3156287E2,3.004398E1,2.791584E1,0E0,0E0,0E0,0E0],"parents":[2147483647,0,0,1,1,2,2],"right_children":[2,4,6,-1,-1,-1,-1],"split_conditions":[7.2810255E-2,5.1183935E-2,1.1736422E-1,3.658527E-3,4.0609948E-4,-2.2246893E-3,-6.931037E-3],"split_indices":[10,10,10,0,0,0,0],"split_type":[0,0,0,0,0,0,0],"sum_hessian":[1.8300979E3,1.149505E3,6.8059296E2,5.772821E2,5.722229E2,5.0816397E2,1.7242897E2],"tree_param":{"num_deleted":"0","num_feature":"14","num_nodes":"7","size_leaf_vector":"1"}},{"base_weights":[-4.8305202E-4,1.174698E-1,-3.8324574E-1,2.622589E-3,-2.2478055E-4,-6.727857E-4,-5.027949E-3],"categories":[],"categories_nodes":[],"categories_segments":[],"categories_sizes":[],"default_left":[0,0,0,0,0,0,0],"id":57,"left_children":[1,3,5,-1,-1,-1,-1],"loss_changes":[8.260782E1,2.8479486E1,1.5565098E1,0E0,0E0,0E0,0E0],"parents":[2147483647,0,0,1,1,2,2],"right_children":[2,4,6,-1,-1,-1,-1],"split_conditions":[8.857866E-2,5.4645553E-2,1E1,2.622589E-3,-2.2478055E-4,-6.727857E-4,-5.027949E-3],"split_indices":[9,9,13,0,0,0,0],"split_type":[0,0,0,0,0,0,0],"sum_hessian":[1.8138412E3,1.3872092E3,4.2663205E2,6.831758E2,7.0403345E2,1.2155148E2,3.0508057E2],"tree_param":{"num_deleted":"0","num_feature":"14","num_nodes":"7","size_leaf_vector":"1"}},{"base_weights":[1.4974536E-2,2.6825526E-1,-2.2411698E-1,5.010965E-3,1.998377E-3,-7.6835614E-4,-4.759662E-3],"categories":[],"categories_nodes":[],"categories_segments":[],"categories_sizes":[],"default_left":[0,0,0,0,0,0,0],"id":58,"left_children":[1,3,5,-1,-1,-1,-1],"loss_changes":[1.1242203E2,1.3183899E1,3.4604164E1,0E0,0E0,0E0,0E0],"parents":[2147483647,0,0,1,1,2,2],"right_children":[2,4,6,-1,-1,-1,-1],"split_conditions":[6.136784E-2,3.794416E-2,9.506137E-2,5.010965E-3,1.998377E-3,-7.6835614E-4,-4.759662E-3],"split_indices":[10,10,10,0,0,0,0],"split_type":[0,0,0,0,0,0,0],"sum_hessian":[1.8457651E3,8.980217E2,9.477434E2,1.9344513E2,7.045766E2,6.0464386E2,3.4309952E2],"tree_param":{"num_deleted":"0","num_feature":"14","num_nodes":"7","size_leaf_vector":"1"}},{"base_weights":[-2.131362E-3,1.23440534E-1,-4.0566552E-1,3.138292E-3,2.9205257E-6,2.6836535E-3,-4.5422995E-3],"categories":[],"categories_nodes":[],"categories_segments":[],"categories_sizes":[],"default_left":[0,0,0,0,0,0,0],"id":59,"left_children":[1,3,5,-1,-1,-1,-1],"loss_changes":[9.413704E1,3.2762726E1,1.5246071E1,0E0,0E0,0E0,0E0],"parents":[2147483647,0,0,1,1,2,2],"right_children":[2,4,6,-1,-1,-1,-1],"split_conditions":[8.801328E-2,4.9538247E-2,5E0,3.138292E-3,2.9205257E-6,2.6836535E-3,-4.5422995E-3],"split_indices":[9,9,13,0,0,0,0],"split_type":[0,0,0,0,0,0,0],"sum_hessian":[1.8422415E3,1.4057821E3,4.3645935E2,5.45921E2,8.598611E2,2.642891E1,4.1003046E2],"tree_param":{"num_deleted":"0","num_feature":"14","num_nodes":"7","size_leaf_vector":"1"}},{"base_weights":[-0E0,1.2752812E-1,-4.2056122E-1,3.3266235E-3,-1.1132044E-4,-5.018903E-3,-1.3580732E-4],"categories":[],"categories_nodes":[],"categories_segments":[],"categories_sizes":[],"default_left":[0,0,0,0,0,0,0],"id":60,"left_children":[1,3,5,-1,-1,-1,-1],"loss_changes":[9.827287E1,4.0250416E1,1.3570595E1,0E0,0E0,0E0,0E0],"parents":[2147483647,0,0,1,1,2,2],"right_children":[2,4,6,-1,-1,-1,-1],"split_conditions":[8.857866E-2,5.1183935E-2,1.05466E7,3.3266235E-3,-1.1132044E-4,-5.018903E-3,-1.3580732E-4],"split_indices":[9,10,4,0,0,0,0],"split_type":[0,0,0,0,0,0,0],"sum_hessian":[1.8197224E3,1.3981235E3,4.2159888E2,5.6398254E2,8.3414105E2,3.483609E2,7.3237976E1],"tree_param":{"num_deleted":"0","num_feature":"14","num_nodes":"7","size_leaf_vector":"1"}},{"base_weights":[-6.8154247E-3,3.3495682E-1,-1.6102523E-1,2.3414227E-3,5.134143E-3,-5.761578E-4,-4.3564006E-3],"categories":[],"categories_nodes":[],"categories_segments":[],"categories_sizes":[],"default_left":[0,0,0,0,0,0,0],"id":61,"left_children":[1,3,5,-1,-1,-1,-1],"loss_changes":[9.667623E1,8.89481E0,3.539318E1,0E0,0E0,0E0,0E0],"parents":[2147483647,0,0,1,1,2,2],"right_children":[2,4,6,-1,-1,-1,-1],"split_conditions":[5.1183935E-2,2.5355E6,9.588279E-2,2.3414227E-3,5.134143E-3,-5.761578E-4,-4.3564006E-3],"split_indices":[10,5,10,0,0,0,0],"split_type":[0,0,0,0,0,0,0],"sum_hessian":[1.8274857E3,5.6436005E2,1.2631256E3,3.7159924E2,1.9276082E2,9.246342E2,3.384914E2],"tree_param":{"num_deleted":"0","num_feature":"14","num_nodes":"7","size_leaf_vector":"1"}},{"base_weights":[-1.3477772E-2,1.1393989E-1,-4.3398038E-1,2.9007453E-3,5.2031646E-5,-5.4144603E-3,-9.1099885E-4],"categories":[],"categories_nodes":[],"categories_segments":[],"categories_sizes":[],"default_left":[0,0,0,0,0,0,0],"id":62,"left_children":[1,3,5,-1,-1,-1,-1],"loss_changes":[9.911605E1,2.6772997E1,1.4987167E1,0E0,0E0,0E0,0E0],"parents":[2147483647,0,0,1,1,2,2],"right_children":[2,4,6,-1,-1,-1,-1],"split_conditions":[8.857866E-2,4.8974354E-2,7.598E6,2.9007453E-3,5.2031646E-5,-5.4144603E-3,-9.1099885E-4],"split_indices":[9,9,4,0,0,0,0],"split_type":[0,0,0,0,0,0,0],"sum_hessian":[1.8343013E3,1.4087109E3,4.255903E2,5.310183E2,8.7769257E2,3.19607E2,1.05983315E2],"tree_param":{"num_deleted":"0","num_feature":"14","num_nodes":"7","size_leaf_vector":"1"}},{"base_weights":[6.7552268E-3,1.8035309E-1,-1.0236615E-1,2.9830995E-3,6.907819E-4,-1.5222132E-3,2.4767208E-3],"categories":[],"categories_nodes":[],"categories_segments":[],"categories_sizes":[],"default_left":[0,0,0,0,0,0,0],"id":63,"left_children":[1,3,5,-1,-1,-1,-1],"loss_changes":[3.4636326E1,8.817242E0,1.9583273E1,0E0,0E0,0E0,0E0],"parents":[2147483647,0,0,1,1,2,2],"right_children":[2,4,6,-1,-1,-1,-1],"split_conditions":[1E1,-1.5281658E-3,1.17556E7,2.9830995E-3,6.907819E-4,-1.5222132E-3,2.4767208E-3],"split_indices":[13,8,4,0,0,0,0],"split_type":[0,0,0,0,0,0,0],"sum_hessian":[1.8144373E3,7.0259717E2,1.1118401E3,3.3261642E2,3.699807E2,9.7819977E2,1.3364037E2],"tree_param":{"num_deleted":"0","num_feature":"14","num_nodes":"7","size_leaf_vector":"1"}},{"base_weights":[-1.3274724E-3,3.2984552E-1,-1.5329756E-1,2.2359458E-3,5.1216404E-3,7.788223E-4,-2.8221607E-3],"categories":[],"categories_nodes":[],"categories_segments":[],"categories_sizes":[],"default_left":[0,0,0,0,0,0,0],"id":64,"left_children":[1,3,5,-1,-1,-1,-1],"loss_changes":[9.225693E1,9.842506E0,3.7894836E1,0E0,0E0,0E0,0E0],"parents":[2147483647,0,0,1,1,2,2],"right_children":[2,4,6,-1,-1,-1,-1],"split_conditions":[5.1183935E-2,2.5355E6,1E1,2.2359458E-3,5.1216404E-3,7.788223E-4,-2.8221607E-3],"split_indices":[10,5,13,0,0,0,0],"split_type":[0,0,0,0,0,0,0],"sum_hessian":[1.8265836E3,5.706316E2,1.255952E3,3.710243E2,1.996073E2,4.47574E2,8.0837805E2],"tree_param":{"num_deleted":"0","num_feature":"14","num_nodes":"7","size_leaf_vector":"1"}},{"base_weights":[-8.351876E-3,1.3462785E-1,-3.5615963E-1,3.109477E-3,-5.2189847E-5,-5.406042E-3,-1.8228353E-3],"categories":[],"categories_nodes":[],"categories_segments":[],"categories_sizes":[],"default_left":[0,0,0,0,0,0,0],"id":65,"left_children":[1,3,5,-1,-1,-1,-1],"loss_changes":[9.189899E1,3.248311E1,1.6072762E1,0E0,0E0,0E0,0E0],"parents":[2147483647,0,0,1,1,2,2],"right_children":[2,4,6,-1,-1,-1,-1],"split_conditions":[8.1754126E-2,5.1183935E-2,1.881E6,3.109477E-3,-5.2189847E-5,-5.406042E-3,-1.8228353E-3],"split_indices":[10,10,5,0,0,0,0],"split_type":[0,0,0,0,0,0,0],"sum_hessian":[1.8337032E3,1.2996299E3,5.3407324E2,5.7530927E2,7.243207E2,2.5125243E2,2.8282083E2],"tree_param":{"num_deleted":"0","num_feature":"14","num_nodes":"7","size_leaf_vector":"1"}},{"base_weights":[-7.6274257E-3,1.5690905E-1,-3.2520044E-1,3.091752E-3,1.3936275E-4,-4.0206215E-3,1.1123817E-4],"categories":[],"categories_nodes":[],"categories_segments":[],"categories_sizes":[],"default_left":[0,0,0,0,0,0,0],"id":66,"left_children":[1,3,5,-1,-1,-1,-1],"loss_changes":[9.611026E1,2.5943995E1,1.6664879E1,0E0,0E0,0E0,0E0],"parents":[2147483647,0,0,1,1,2,2],"right_children":[2,4,6,-1,-1,-1,-1],"split_conditions":[7.594206E-2,5.1183935E-2,9.785E6,3.091752E-3,1.3936275E-4,-4.0206215E-3,1.1123817E-4],"split_indices":[10,10,4,0,0,0,0],"split_type":[0,0,0,0,0,0,0],"sum_hessian":[1.8262448E3,1.2025679E3,6.236769E2,5.7615515E2,6.264127E2,5.0928394E2,1.1439295E2],"tree_param":{"num_deleted":"0","num_feature":"14","num_nodes":"7","size_leaf_vector":"1"}},{"base_weights":[-9.4411215E-3,2.5437877E-1,-1.8573676E-1,1.5377274E-3,4.195775E-3,5.7488715E-4,-3.177671E-3],"categories":[],"categories_nodes":[],"categories_segments":[],"categories_sizes":[],"default_left":[0,0,0,0,0,0,0],"id":67,"left_children":[1,3,5,-1,-1,-1,-1],"loss_changes":[8.5432625E1,1.1306065E1,3.5806892E1,0E0,0E0,0E0,0E0],"parents":[2147483647,0,0,1,1,2,2],"right_children":[2,4,6,-1,-1,-1,-1],"split_conditions":[5.5924326E-2,3.7297E6,1E1,1.5377274E-3,4.195775E-3,5.7488715E-4,-3.177671E-3],"split_indices":[10,4,13,0,0,0,0],"split_type":[0,0,0,0,0,0,0],"sum_hessian":[1.8282507E3,7.291772E2,1.0990735E3,4.6294885E2,2.6622836E2,3.8502744E2,7.140461E2],"tree_param":{"num_deleted":"0","num_feature":"14","num_nodes":"7","size_leaf_vector":"1"}},{"base_weights":[9.383849E-3,1.8855129E-1,-2.8463423E-1,3.0004154E-3,3.409926E-4,-1.8168729E-3,-5.8041457E-3],"categories":[],"categories_nodes":[],"categories_segments":[],"categories_sizes":[],"default_left":[0,0,0,0,0,0,0],"id":68,"left_children":[1,3,5,-1,-1,-1,-1],"loss_changes":[9.6178795E1,1.920316E1,1.971946E1,0E0,0E0,0E0,0E0],"parents":[2147483647,0,0,1,1,2,2],"right_children":[2,4,6,-1,-1,-1,-1],"split_conditions":[7.2810255E-2,5.3597663E-2,1.1736422E-1,3.0004154E-3,3.409926E-4,-1.8168729E-3,-5.8041457E-3],"split_indices":[10,10,10,0,0,0,0],"split_type":[0,0,0,0,0,0,0],"sum_hessian":[1.8175006E3,1.1325481E3,6.849525E2,6.512556E2,4.8129257E2,5.166008E2,1.683517E2],"tree_param":{"num_deleted":"0","num_feature":"14","num_nodes":"7","size_leaf_vector":"1"}},{"base_weights":[-0E0,1.287235E-1,-4.2310226E-1,3.2142436E-3,-7.1110546E-5,8.5683475E-4,-4.725252E-3],"categories":[],"categories_nodes":[],"categories_segments":[],"categories_sizes":[],"default_left":[0,0,0,0,0,0,0],"id":69,"left_children":[1,3,5,-1,-1,-1,-1],"loss_changes":[1.00250854E2,3.717328E1,1.1394714E1,0E0,0E0,0E0,0E0],"parents":[2147483647,0,0,1,1,2,2],"right_children":[2,4,6,-1,-1,-1,-1],"split_conditions":[8.857866E-2,5.1183935E-2,-9.8604053E-1,3.2142436E-3,-7.1110546E-5,8.5683475E-4,-4.725252E-3],"split_indices":[9,10,7,0,0,0,0],"split_type":[0,0,0,0,0,0,0],"sum_hessian":[1.827428E3,1.4027145E3,4.247135E2,5.801784E2,8.2253613E2,3.5487244E1,3.8922626E2],"tree_param":{"num_deleted":"0","num_feature":"14","num_nodes":"7","size_leaf_vector":"1"}},{"base_weights":[-2.966622E-3,1.3647652E-1,-3.3997783E-1,2.886003E-3,1.483051E-4,3.5645515E-3,-3.8966786E-3],"categories":[],"categories_nodes":[],"categories_segments":[],"categories_sizes":[],"default_left":[0,0,0,0,0,0,0],"id":70,"left_children":[1,3,5,-1,-1,-1,-1],"loss_changes":[8.581797E1,2.3484182E1,1.9251343E1,0E0,0E0,0E0,0E0],"parents":[2147483647,0,0,1,1,2,2],"right_children":[2,4,6,-1,-1,-1,-1],"split_conditions":[8.1754126E-2,5.1183935E-2,5E0,2.886003E-3,1.483051E-4,3.5645515E-3,-3.8966786E-3],"split_indices":[10,10,13,0,0,0,0],"split_type":[0,0,0,0,0,0,0],"sum_hessian":[1.8118842E3,1.2816085E3,5.3027563E2,5.62764E2,7.1884454E2,3.1919115E1,4.983565E2],"tree_param":{"num_deleted":"0","num_feature":"14","num_nodes":"7","size_leaf_vector":"1"}},{"base_weights":[-9.631191E-3,1.5024826E-1,-2.857981E-1,4.4744443E-3,9.1289374E-4,-1.7913327E-3,-5.759829E-3],"categories":[],"categories_nodes":[],"categories_segments":[],"categories_sizes":[],"default_left":[0,0,0,0,0,0,0],"id":71,"left_children":[1,3,5,-1,-1,-1,-1],"loss_changes":[8.109791E1,1.9569643E1,1.9608242E1,0E0,0E0,0E0,0E0],"parents":[2147483647,0,0,1,1,2,2],"right_children":[2,4,6,-1,-1,-1,-1],"split_conditions":[7.3382124E-2,3.7603367E-2,1.1736422E-1,4.4744443E-3,9.1289374E-4,-1.7913327E-3,-5.759829E-3],"split_indices":[10,10,10,0,0,0,0],"split_type":[0,0,0,0,0,0,0],"sum_hessian":[1.8237976E3,1.15424E3,6.695576E2,1.828144E2,9.714256E2,4.9802756E2,1.7153008E2],"tree_param":{"num_deleted":"0","num_feature":"14","num_nodes":"7","size_leaf_vector":"1"}},{"base_weights":[1.5876867E-2,1.5162125E-1,-3.1052586E-1,3.1742807E-3,4.5867104E-4,-4.936863E-3,-1.3119637E-3],"categories":[],"categories_nodes":[],"categories_segments":[],"categories_sizes":[],"default_left":[0,0,0,0,0,0,0],"id":72,"left_children":[1,3,5,-1,-1,-1,-1],"loss_changes":[8.115932E1,2.2324232E1,1.6689503E1,0E0,0E0,0E0,0E0],"parents":[2147483647,0,0,1,1,2,2],"right_children":[2,4,6,-1,-1,-1,-1],"split_conditions":[8.1754126E-2,4.8712015E-2,1.881E6,3.1742807E-3,4.5867104E-4,-4.936863E-3,-1.3119637E-3],"split_indices":[10,10,5,0,0,0,0],"split_type":[0,0,0,0,0,0,0],"sum_hessian":[1.8250084E3,1.2930117E3,5.319967E2,4.9595856E2,7.9705316E2,2.560924E2,2.759043E2],"tree_param":{"num_deleted":"0","num_feature":"14","num_nodes":"7","size_leaf_vector":"1"}},{"base_weights":[6.1463015E-3,1.1984962E-1,-3.6140496E-1,3.0393298E-3,1.597815E-4,2.7406008E-3,-4.087572E-3],"categories":[],"categories_nodes":[],"categories_segments":[],"categories_sizes":[],"default_left":[0,0,0,0,0,0,0],"id":73,"left_children":[1,3,5,-1,-1,-1,-1],"loss_changes":[7.5692924E1,2.6225607E1,1.3550423E1,0E0,0E0,0E0,0E0],"parents":[2147483647,0,0,1,1,2,2],"right_children":[2,4,6,-1,-1,-1,-1],"split_conditions":[8.857866E-2,4.8712015E-2,5E0,3.0393298E-3,1.597815E-4,2.7406008E-3,-4.087572E-3],"split_indices":[9,10,13,0,0,0,0],"split_type":[0,0,0,0,0,0,0],"sum_hessian":[1.8067888E3,1.3845603E3,4.222285E2,4.9249396E2,8.9206635E2,2.6156235E1,3.9607224E2],"tree_param":{"num_deleted":"0","num_feature":"14","num_nodes":"7","size_leaf_vector":"1"}},{"base_weights":[3.999367E-3,2.2543176E-1,-2.2424352E-1,4.7516106E-3,1.5562252E-3,-3.032568E-5,-3.3684473E-3],"categories":[],"categories_nodes":[],"categories_segments":[],"categories_sizes":[],"default_left":[0,0,0,0,0,0,0],"id":74,"left_children":[1,3,5,-1,-1,-1,-1],"loss_changes":[9.2813385E1,1.5287243E1,2.212539E1,0E0,0E0,0E0,0E0],"parents":[2147483647,0,0,1,1,2,2],"right_children":[2,4,6,-1,-1,-1,-1],"split_conditions":[6.335312E-2,3.815356E-2,1E1,4.7516106E-3,1.5562252E-3,-3.032568E-5,-3.3684473E-3],"split_indices":[10,10,13,0,0,0,0],"split_type":[0,0,0,0,0,0,0],"sum_hessian":[1.8263964E3,9.29284E2,8.9711237E2,1.9354738E2,7.3573663E2,3.0734085E2,5.8977155E2],"tree_param":{"num_deleted":"0","num_feature":"14","num_nodes":"7","size_leaf_vector":"1"}},{"base_weights":[6.335977E-3,2.0482981E-1,-2.0308225E-1,4.3550534E-3,1.2992288E-3,-1.181764E-3,-5.364587E-3],"categories":[],"categories_nodes":[],"categories_segments":[],"categories_sizes":[],"default_left":[0,0,0,0,0,0,0],"id":75,"left_children":[1,3,5,-1,-1,-1,-1],"loss_changes":[7.614455E1,1.5442112E1,2.419133E1,0E0,0E0,0E0,0E0],"parents":[2147483647,0,0,1,1,2,2],"right_children":[2,4,6,-1,-1,-1,-1],"split_conditions":[6.4204276E-2,3.9407335E-2,1.1736422E-1,4.3550534E-3,1.2992288E-3,-1.181764E-3,-5.364587E-3],"split_indices":[10,10,10,0,0,0,0],"split_type":[0,0,0,0,0,0,0],"sum_hessian":[1.8217513E3,9.3777783E2,8.839735E2,2.2070332E2,7.1707446E2,7.123269E2,1.7164665E2],"tree_param":{"num_deleted":"0","num_feature":"14","num_nodes":"7","size_leaf_vector":"1"}},{"base_weights":[-1.9106581E-3,1.1235401E-1,-3.7446404E-1,2.7679082E-3,1.918194E-4,3.5651242E-3,-4.208618E-3],"categories":[],"categories_nodes":[],"categories_segments":[],"categories_sizes":[],"default_left":[0,0,0,0,0,0,0],"id":76,"left_children":[1,3,5,-1,-1,-1,-1],"loss_changes":[7.887405E1,2.1298822E1,1.5584587E1,0E0,0E0,0E0,0E0],"parents":[2147483647,0,0,1,1,2,2],"right_children":[2,4,6,-1,-1,-1,-1],"split_conditions":[8.857866E-2,4.8314393E-2,5E0,2.7679082E-3,1.918194E-4,3.5651242E-3,-4.208618E-3],"split_indices":[9,9,13,0,0,0,0],"split_type":[0,0,0,0,0,0,0],"sum_hessian":[1.8367229E3,1.4062303E3,4.3049252E2,5.0116013E2,9.050702E2,2.2413038E1,4.080795E2],"tree_param":{"num_deleted":"0","num_feature":"14","num_nodes":"7","size_leaf_vector":"1"}},{"base_weights":[-1.6924968E-3,1.6502187E-1,-2.3613006E-1,5.837172E-4,3.5137632E-3,-1.4602704E-3,-5.3256047E-3],"categories":[],"categories_nodes":[],"categories_segments":[],"categories_sizes":[],"default_left":[0,0,0,0,0,0,0],"id":77,"left_children":[1,3,5,-1,-1,-1,-1],"loss_changes":[7.104997E1,2.0532242E1,1.9157112E1,0E0,0E0,0E0,0E0],"parents":[2147483647,0,0,1,1,2,2],"right_children":[2,4,6,-1,-1,-1,-1],"split_conditions":[6.938555E-2,3.8478E6,1.1736422E-1,5.837172E-4,3.5137632E-3,-1.4602704E-3,-5.3256047E-3],"split_indices":[10,4,10,0,0,0,0],"split_type":[0,0,0,0,0,0,0],"sum_hessian":[1.8060695E3,1.0538591E3,7.522103E2,6.7785614E2,3.7600293E2,5.851766E2,1.6703375E2],"tree_param":{"num_deleted":"0","num_feature":"14","num_nodes":"7","size_leaf_vector":"1"}},{"base_weights":[8.040534E-3,1.2717825E-1,-3.7267914E-1,2.6341942E-3,-2.6828337E-5,1.6382544E-3,-4.2118826E-3],"categories":[],"categories_nodes":[],"categories_segments":[],"categories_sizes":[],"default_left":[0,0,0,0,0,0,0],"id":78,"left_children":[1,3,5,-1,-1,-1,-1],"loss_changes":[8.2337135E1,2.4829912E1,1.184465E1,0E0,0E0,0E0,0E0],"parents":[2147483647,0,0,1,1,2,2],"right_children":[2,4,6,-1,-1,-1,-1],"split_conditions":[8.801328E-2,5.4645553E-2,-9.8604053E-1,2.6341942E-3,-2.6828337E-5,1.6382544E-3,-4.2118826E-3],"split_indices":[9,9,7,0,0,0,0],"split_type":[0,0,0,0,0,0,0],"sum_hessian":[1.8104575E3,1.3834835E3,4.2697394E2,6.76405E2,7.0707855E2,3.270958E1,3.9426434E2],"tree_param":{"num_deleted":"0","num_feature":"14","num_nodes":"7","size_leaf_vector":"1"}},{"base_weights":[1.9195549E-3,2.5584042E-1,-1.9158928E-1,4.3518636E-3,1.8126996E-3,2.3964803E-4,-3.0693244E-3],"categories":[],"categories_nodes":[],"categories_segments":[],"categories_sizes":[],"default_left":[0,0,0,0,0,0,0],"id":79,"left_children":[1,3,5,-1,-1,-1,-1],"loss_changes":[8.889387E1,9.475441E0,2.5773117E1,0E0,0E0,0E0,0E0],"parents":[2147483647,0,0,1,1,2,2],"right_children":[2,4,6,-1,-1,-1,-1],"split_conditions":[5.8044683E-2,3.9407335E-2,1E1,4.3518636E-3,1.8126996E-3,2.3964803E-4,-3.0693244E-3],"split_indices":[9,10,13,0,0,0,0],"split_type":[0,0,0,0,0,0,0],"sum_hessian":[1.7978464E3,7.790889E2,1.01875757E3,2.1776434E2,5.613246E2,3.5347418E2,6.652834E2],"tree_param":{"num_deleted":"0","num_feature":"14","num_nodes":"7","size_leaf_vector":"1"}},{"base_weights":[-2.493969E-2,8.670711E-2,-3.8081118E-1,-8.660059E-6,2.6153913E-3,3.4734446E-3,-4.3215454E-3],"categories":[],"categories_nodes":[],"categories_segments":[],"categories_sizes":[],"default_left":[0,0,0,0,0,0,0],"id":80,"left_children":[1,3,5,-1,-1,-1,-1],"loss_changes":[7.359067E1,2.1742592E1,1.738314E1,0E0,0E0,0E0,0E0],"parents":[2147483647,0,0,1,1,2,2],"right_children":[2,4,6,-1,-1,-1,-1],"split_conditions":[8.801328E-2,2.613111E6,5E0,-8.660059E-6,2.6153913E-3,3.4734446E-3,-4.3215454E-3],"split_indices":[9,5,13,0,0,0,0],"split_type":[0,0,0,0,0,0,0],"sum_hessian":[1.8356229E3,1.3980023E3,4.376205E2,9.309475E2,4.6705487E2,2.5643278E1,4.1197723E2],"tree_param":{"num_deleted":"0","num_feature":"14","num_nodes":"7","size_leaf_vector":"1"}},{"base_weights":[5.366957E-3,1.7730808E-1,-1.8180671E-1,2.8469835E-3,5.4650696E-4,5.8851374E-4,-3.035468E-3],"categories":[],"categories_nodes":[],"categories_segments":[],"categories_sizes":[],"default_left":[0,0,0,0,0,0,0],"id":81,"left_children":[1,3,5,-1,-1,-1,-1],"loss_changes":[5.8888397E1,1.2181936E1,2.5924103E1,0E0,0E0,0E0,0E0],"parents":[2147483647,0,0,1,1,2,2],"right_children":[2,4,6,-1,-1,-1,-1],"split_conditions":[6.4204276E-2,4.8712015E-2,1E1,2.8469835E-3,5.4650696E-4,5.8851374E-4,-3.035468E-3],"split_indices":[10,10,13,0,0,0,0],"split_type":[0,0,0,0,0,0,0],"sum_hessian":[1.8199381E3,9.514891E2,8.68449E2,4.994485E2,4.520406E2,2.8984558E2,5.786034E2],"tree_param":{"num_deleted":"0","num_feature":"14","num_nodes":"7","size_leaf_vector":"1"}},{"base_weights":[1.389943E-2,1.19974844E-1,-3.233847E-1,2.87519E-3,2.6099302E-4,-4.207204E-3,3.180336E-6],"categories":[],"categories_nodes":[],"categories_segments":[],"categories_sizes":[],"default_left":[0,0,0,0,0,0,0],"id":82,"left_children":[1,3,5,-1,-1,-1,-1],"loss_changes":[6.540207E1,2.161755E1,1.4174908E1,0E0,0E0,0E0,0E0],"parents":[2147483647,0,0,1,1,2,2],"right_children":[2,4,6,-1,-1,-1,-1],"split_conditions":[8.801328E-2,4.8712015E-2,5.0684E6,2.87519E-3,2.6099302E-4,-4.207204E-3,3.180336E-6],"split_indices":[9,10,5,0,0,0,0],"split_type":[0,0,0,0,0,0,0],"sum_hessian":[1.8232827E3,1.3917617E3,4.3152094E2,4.9225122E2,8.995105E2,3.3298483E2,9.8536095E1],"tree_param":{"num_deleted":"0","num_feature":"14","num_nodes":"7","size_leaf_vector":"1"}},{"base_weights":[-1.5471268E-3,1.467988E-1,-2.467315E-1,5.5921875E-4,2.963216E-3,-1.4524764E-3,-5.3673387E-3],"categories":[],"categories_nodes":[],"categories_segments":[],"categories_sizes":[],"default_left":[0,0,0,0,0,0,0],"id":83,"left_children":[1,3,5,-1,-1,-1,-1],"loss_changes":[6.652451E1,1.499176E1,1.9263447E1,0E0,0E0,0E0,0E0],"parents":[2147483647,0,0,1,1,2,2],"right_children":[2,4,6,-1,-1,-1,-1],"split_conditions":[7.2810255E-2,3.6868E6,1.1736422E-1,5.5921875E-4,2.963216E-3,-1.4524764E-3,-5.3673387E-3],"split_indices":[10,4,10,0,0,0,0],"split_type":[0,0,0,0,0,0,0],"sum_hessian":[1.8162715E3,1.1303153E3,6.859562E2,7.114614E2,4.1885388E2,5.1625104E2,1.6970518E2],"tree_param":{"num_deleted":"0","num_feature":"14","num_nodes":"7","size_leaf_vector":"1"}},{"base_weights":[4.5335607E-4,1.4011425E-1,-3.4553716E-1,2.7546484E-3,5.0341495E-4,-5.98811E-4,-4.6709846E-3],"categories":[],"categories_nodes":[],"categories_segments":[],"categories_sizes":[],"default_left":[0,0,0,0,0,0,0],"id":84,"left_children":[1,3,5,-1,-1,-1,-1],"loss_changes":[8.729945E1,1.5305819E1,1.7345222E1,0E0,0E0,0E0,0E0],"parents":[2147483647,0,0,1,1,2,2],"right_children":[2,4,6,-1,-1,-1,-1],"split_conditions":[8.1754126E-2,4.899005E-2,1E1,2.7546484E-3,5.0341495E-4,-5.98811E-4,-4.6709846E-3],"split_indices":[10,10,13,0,0,0,0],"split_type":[0,0,0,0,0,0,0],"sum_hessian":[1.8008853E3,1.2871754E3,5.137097E2,5.0472247E2,7.82453E2,1.5803462E2,3.556751E2],"tree_param":{"num_deleted":"0","num_feature":"14","num_nodes":"7","size_leaf_vector":"1"}},{"base_weights":[-6.754588E-4,1.002877E-1,-3.2987225E-1,2.6406986E-3,2.5082677E-6,-4.1563963E-3,5.971112E-4],"categories":[],"categories_nodes":[],"categories_segments":[],"categories_sizes":[],"default_left":[0,0,0,0,0,0,0],"id":85,"left_children":[1,3,5,-1,-1,-1,-1],"loss_changes":[6.049974E1,2.2434837E1,1.4778931E1,0E0,0E0,0E0,0E0],"parents":[2147483647,0,0,1,1,2,2],"right_children":[2,4,6,-1,-1,-1,-1],"split_conditions":[8.857866E-2,4.979447E-2,1.4855952E2,2.6406986E-3,2.5082677E-6,-4.1563963E-3,5.971112E-4],"split_indices":[9,10,2,0,0,0,0],"split_type":[0,0,0,0,0,0,0],"sum_hessian":[1.8033826E3,1.3804453E3,4.2293723E2,5.165483E2,8.6389703E2,3.484564E2,7.448081E1],"tree_param":{"num_deleted":"0","num_feature":"14","num_nodes":"7","size_leaf_vector":"1"}},{"base_weights":[-2.9164816E-3,1.818323E-1,-2.2254445E-1,9.805445E-4,3.2962458E-3,-1.2983883E-3,-5.57592E-3],"categories":[],"categories_nodes":[],"categories_segments":[],"categories_sizes":[],"default_left":[0,0,0,0,0,0,0],"id":86,"left_children":[1,3,5,-1,-1,-1,-1],"loss_changes":[7.414997E1,1.1663105E1,2.4945042E1,0E0,0E0,0E0,0E0],"parents":[2147483647,0,0,1,1,2,2],"right_children":[2,4,6,-1,-1,-1,-1],"split_conditions":[6.598932E-2,3.8478E6,1.1736422E-1,9.805445E-4,3.2962458E-3,-1.2983883E-3,-5.57592E-3],"split_indices":[10,4,10,0,0,0,0],"split_type":[0,0,0,0,0,0,0],"sum_hessian":[1.8164445E3,9.845546E2,8.3188983E2,6.3798737E2,3.4656723E2,6.5936884E2,1.7252104E2],"tree_param":{"num_deleted":"0","num_feature":"14","num_nodes":"7","size_leaf_vector":"1"}},{"base_weights":[1.2428951E-2,2.4784881E-1,-1.5306726E-1,1.0265058E-3,3.9669676E-3,-8.7750255E-4,-4.7569866E-3],"categories":[],"categories_nodes":[],"categories_segments":[],"categories_sizes":[],"default_left":[0,0,0,0,0,0,0],"id":87,"left_children":[1,3,5,-1,-1,-1,-1],"loss_changes":[7.074487E1,1.55266075E1,2.16192E1,0E0,0E0,0E0,0E0],"parents":[2147483647,0,0,1,1,2,2],"right_children":[2,4,6,-1,-1,-1,-1],"split_conditions":[5.7105906E-2,1.706E6,1.1736422E-1,1.0265058E-3,3.9669676E-3,-8.7750255E-4,-4.7569866E-3],"split_indices":[9,5,10,0,0,0,0],"split_type":[0,0,0,0,0,0,0],"sum_hessian":[1.803481E3,7.459354E2,1.0575455E3,3.8527435E2,3.6066107E2,8.873585E2,1.7018704E2],"tree_param":{"num_deleted":"0","num_feature":"14","num_nodes":"7","size_leaf_vector":"1"}},{"base_weights":[-5.5342144E-3,1.9957222E-1,-1.767885E-1,6.280593E-4,3.7843843E-3,2.1729393E-4,-2.8579326E-3],"categories":[],"categories_nodes":[],"categories_segments":[],"categories_sizes":[],"default_left":[0,0,0,0,0,0,0],"id":88,"left_children":[1,3,5,-1,-1,-1,-1],"loss_changes":[6.4264084E1,1.9749046E1,2.1934256E1,0E0,0E0,0E0,0E0],"parents":[2147483647,0,0,1,1,2,2],"right_children":[2,4,6,-1,-1,-1,-1],"split_conditions":[5.9402242E-2,3.11484E6,1E1,6.280593E-4,3.7843843E-3,2.1729393E-4,-2.8579326E-3],"split_indices":[9,4,13,0,0,0,0],"split_type":[0,0,0,0,0,0,0],"sum_hessian":[1.8201903E3,8.2520245E2,9.9498785E2,4.7463174E2,3.505707E2,3.5085156E2,6.441362E2],"tree_param":{"num_deleted":"0","num_feature":"14","num_nodes":"7","size_leaf_vector":"1"}},{"base_weights":[9.428866E-3,1.1566194E-1,-3.274867E-1,5.9231225E-4,3.692033E-3,-4.010019E-3,2.561092E-4],"categories":[],"categories_nodes":[],"categories_segments":[],"categories_sizes":[],"default_left":[0,0,0,0,0,0,0],"id":89,"left_children":[1,3,5,-1,-1,-1,-1],"loss_changes":[6.498749E1,1.9305E1,1.1704712E1,0E0,0E0,0E0,0E0],"parents":[2147483647,0,0,1,1,2,2],"right_children":[2,4,6,-1,-1,-1,-1],"split_conditions":[8.801328E-2,7.7544E6,1.05466E7,5.9231225E-4,3.692033E-3,-4.010019E-3,2.561092E-4],"split_indices":[9,4,4,0,0,0,0],"split_type":[0,0,0,0,0,0,0],"sum_hessian":[1.811347E3,1.3818778E3,4.2946924E2,1.1385769E3,2.4330092E2,3.572444E2,7.2224846E1],"tree_param":{"num_deleted":"0","num_feature":"14","num_nodes":"7","size_leaf_vector":"1"}},{"base_weights":[1.1802464E-2,1.2804446E-1,-2.7397725E-1,2.595277E-3,2.3530977E-4,-4.5267325E-3,-1.2141198E-3],"categories":[],"categories_nodes":[],"categories_segments":[],"categories_sizes":[],"default_left":[0,0,0,0,0,0,0],"id":90,"left_children":[1,3,5,-1,-1,-1,-1],"loss_changes":[6.022245E1,1.7467524E1,1.3410236E1,0E0,0E0,0E0,0E0],"parents":[2147483647,0,0,1,1,2,2],"right_children":[2,4,6,-1,-1,-1,-1],"split_conditions":[8.1754126E-2,5.1183935E-2,1.7412E6,2.595277E-3,2.3530977E-4,-4.5267325E-3,-1.2141198E-3],"split_indices":[10,10,5,0,0,0,0],"split_type":[0,0,0,0,0,0,0],"sum_hessian":[1.8069713E3,1.2889464E3,5.180249E2,5.63301E2,7.256453E2,2.3103236E2,2.8699255E2],"tree_param":{"num_deleted":"0","num_feature":"14","num_nodes":"7","size_leaf_vector":"1"}},{"base_weights":[-4.170513E-3,2.2823873E-1,-1.6088086E-1,3.9975536E-3,1.5064536E-3,4.4022585E-4,-2.7342048E-3],"categories":[],"categories_nodes":[],"categories_segments":[],"categories_sizes":[],"default_left":[0,0,0,0,0,0,0],"id":91,"left_children":[1,3,5,-1,-1,-1,-1],"loss_changes":[6.6121056E1,8.855175E0,2.537676E1,0E0,0E0,0E0,0E0],"parents":[2147483647,0,0,1,1,2,2],"right_children":[2,4,6,-1,-1,-1,-1],"split_conditions":[5.619939E-2,3.9407335E-2,1E1,3.9975536E-3,1.5064536E-3,4.4022585E-4,-2.7342048E-3],"split_indices":[10,10,13,0,0,0,0],"split_type":[0,0,0,0,0,0,0],"sum_hessian":[1.8072769E3,7.243566E2,1.0829203E3,2.1514377E2,5.0921286E2,3.818449E2,7.010754E2],"tree_param":{"num_deleted":"0","num_feature":"14","num_nodes":"7","size_leaf_vector":"1"}},{"base_weights":[9.599215E-4,1.6866428E-1,-2.3123595E-1,8.2140334E-4,3.3161151E-3,-1.3755908E-3,-5.402106E-3],"categories":[],"categories_nodes":[],"categories_segments":[],"categories_sizes":[],"default_left":[0,0,0,0,0,0,0],"id":92,"left_children":[1,3,5,-1,-1,-1,-1],"loss_changes":[7.073212E1,1.43679905E1,2.094588E1,0E0,0E0,0E0,0E0],"parents":[2147483647,0,0,1,1,2,2],"right_children":[2,4,6,-1,-1,-1,-1],"split_conditions":[6.938555E-2,2.511729E6,1.1736422E-1,8.2140334E-4,3.3161151E-3,-1.3755908E-3,-5.402106E-3],"split_indices":[10,5,10,0,0,0,0],"split_type":[0,0,0,0,0,0,0],"sum_hessian":[1.8080255E3,1.0530969E3,7.549286E2,6.967726E2,3.5632437E2,5.8732294E2,1.6760565E2],"tree_param":{"num_deleted":"0","num_feature":"14","num_nodes":"7","size_leaf_vector":"1"}},{"base_weights":[5.297794E-4,1.4708E-1,-2.3664442E-1,6.004396E-4,2.945351E-3,-1.3285372E-3,-5.3127236E-3],"categories":[],"categories_nodes":[],"categories_segments":[],"categories_sizes":[],"default_left":[0,0,0,0,0,0,0],"id":93,"left_children":[1,3,5,-1,-1,-1,-1],"loss_changes":[6.312508E1,1.4017122E1,2.0143822E1,0E0,0E0,0E0,0E0],"parents":[2147483647,0,0,1,1,2,2],"right_children":[2,4,6,-1,-1,-1,-1],"split_conditions":[7.2810255E-2,3.7297E6,1.1736422E-1,6.004396E-4,2.945351E-3,-1.3285372E-3,-5.3127236E-3],"split_indices":[10,4,10,0,0,0,0],"split_type":[0,0,0,0,0,0,0],"sum_hessian":[1.8087043E3,1.1217125E3,6.869919E2,7.140556E2,4.0765686E2,5.1590063E2,1.7109128E2],"tree_param":{"num_deleted":"0","num_feature":"14","num_nodes":"7","size_leaf_vector":"1"}},{"base_weights":[-1.9084237E-3,7.298399E-2,-3.7127796E-1,1.8481012E-3,-4.6387693E-4,-4.635506E-3,5.509252E-4],"categories":[],"categories_nodes":[],"categories_segments":[],"categories_sizes":[],"default_left":[0,0,0,0,0,0,0],"id":94,"left_children":[1,3,5,-1,-1,-1,-1],"loss_changes":[5.073121E1,2.0386662E1,1.2715862E1,0E0,0E0,0E0,0E0],"parents":[2147483647,0,0,1,1,2,2],"right_children":[2,4,6,-1,-1,-1,-1],"split_conditions":[9.900096E-2,5.8044683E-2,1.7098317E2,1.8481012E-3,-4.6387693E-4,-4.635506E-3,5.509252E-4],"split_indices":[9,9,0,0,0,0,0],"split_type":[0,0,0,0,0,0,0],"sum_hessian":[1.8132218E3,1.5086388E3,3.0458298E2,7.818481E2,7.267907E2,2.519638E2,5.2619175E1],"tree_param":{"num_deleted":"0","num_feature":"14","num_nodes":"7","size_leaf_vector":"1"}},{"base_weights":[-6.292969E-3,1.9536719E-1,-1.5630588E-1,4.322577E-3,1.1658346E-3,-8.2602253E-4,-4.426692E-3],"categories":[],"categories_nodes":[],"categories_segments":[],"categories_sizes":[],"default_left":[0,0,0,0,0,0,0],"id":95,"left_children":[1,3,5,-1,-1,-1,-1],"loss_changes":[5.504406E1,1.3643261E1,2.1386692E1,0E0,0E0,0E0,0E0],"parents":[2147483647,0,0,1,1,2,2],"right_children":[2,4,6,-1,-1,-1,-1],"split_conditions":[5.7540137E-2,3.794416E-2,1.11360155E-1,4.322577E-3,1.1658346E-3,-8.2602253E-4,-4.426692E-3],"split_indices":[9,10,9,0,0,0,0],"split_type":[0,0,0,0,0,0,0],"sum_hessian":[1.8107844E3,7.689366E2,1.0418479E3,1.8313914E2,5.857974E2,8.364885E2,2.053594E2],"tree_param":{"num_deleted":"0","num_feature":"14","num_nodes":"7","size_leaf_vector":"1"}},{"base_weights":[-1.8033354E-2,1.9086412E-1,-1.6831233E-1,7.276386E-4,2.9877792E-3,5.0534937E-4,-2.8852525E-3],"categories":[],"categories_nodes":[],"categories_segments":[],"categories_sizes":[],"default_left":[0,0,0,0,0,0,0],"id":96,"left_children":[1,3,5,-1,-1,-1,-1],"loss_changes":[5.7573433E1,9.270012E0,2.844808E1,0E0,0E0,0E0,0E0],"parents":[2147483647,0,0,1,1,2,2],"right_children":[2,4,6,-1,-1,-1,-1],"split_conditions":[5.684293E-2,1.5123E6,1E1,7.276386E-4,2.9877792E-3,5.0534937E-4,-2.8852525E-3],"split_indices":[10,5,13,0,0,0,0],"split_type":[0,0,0,0,0,0,0],"sum_hessian":[1.8245656E3,7.600468E2,1.0645187E3,3.7131738E2,3.8872943E2,3.755006E2,6.8901807E2],"tree_param":{"num_deleted":"0","num_feature":"14","num_nodes":"7","size_leaf_vector":"1"}},{"base_weights":[-0E0,1.9397847E-1,-1.4357442E-1,-0E0,2.8131518E-3,5.6769635E-4,-2.5341467E-3],"categories":[],"categories_nodes":[],"categories_segments":[],"categories_sizes":[],"default_left":[0,0,0,0,0,0,0],"id":97,"left_children":[1,3,5,-1,-1,-1,-1],"loss_changes":[5.0744003E1,1.31196575E1,2.327888E1,0E0,0E0,0E0,0E0],"parents":[2147483647,0,0,1,1,2,2],"right_children":[2,4,6,-1,-1,-1,-1],"split_conditions":[5.7540137E-2,9.335E5,1E1,-0E0,2.8131518E-3,5.6769635E-4,-2.5341467E-3],"split_indices":[9,5,13,0,0,0,0],"split_type":[0,0,0,0,0,0,0],"sum_hessian":[1.8113907E3,7.7074536E2,1.0406454E3,2.4112225E2,5.296231E2,3.6613745E2,6.7450793E2],"tree_param":{"num_deleted":"0","num_feature":"14","num_nodes":"7","size_leaf_vector":"1"}},{"base_weights":[8.9142896E-4,1.9976519E-1,-1.3961399E-1,6.8178325E-4,3.235072E-3,-7.278303E-4,-4.612567E-3],"categories":[],"categories_nodes":[],"categories_segments":[],"categories_sizes":[],"default_left":[0,0,0,0,0,0,0],"id":98,"left_children":[1,3,5,-1,-1,-1,-1],"loss_changes":[5.0631645E1,1.1746223E1,2.2032232E1,0E0,0E0,0E0,0E0],"parents":[2147483647,0,0,1,1,2,2],"right_children":[2,4,6,-1,-1,-1,-1],"split_conditions":[5.7105906E-2,1.5599E6,1.1736422E-1,6.8178325E-4,3.235072E-3,-7.278303E-4,-4.612567E-3],"split_indices":[9,5,10,0,0,0,0],"split_type":[0,0,0,0,0,0,0],"sum_hessian":[1.7998289E3,7.472156E2,1.0526134E3,3.6980365E2,3.7741193E2,8.791781E2,1.7343524E2],"tree_param":{"num_deleted":"0","num_feature":"14","num_nodes":"7","size_leaf_vector":"1"}},{"base_weights":[-3.1245046E-3,1.9664599E-1,-1.3659236E-1,3.617439E-3,1.1909981E-3,-7.2617043E-4,-4.6980823E-3],"categories":[],"categories_nodes":[],"categories_segments":[],"categories_sizes":[],"default_left":[0,0,0,0,0,0,0],"id":99,"left_children":[1,3,5,-1,-1,-1,-1],"loss_changes":[4.8715767E1,8.646107E0,2.2727692E1,0E0,0E0,0E0,0E0],"parents":[2147483647,0,0,1,1,2,2],"right_children":[2,4,6,-1,-1,-1,-1],"split_conditions":[5.5924326E-2,3.9407335E-2,1.1736422E-1,3.617439E-3,1.1909981E-3,-7.2617043E-4,-4.6980823E-3],"split_indices":[10,10,10,0,0,0,0],"split_type":[0,0,0,0,0,0,0],"sum_hessian":[1.819312E3,7.247179E2,1.0945941E3,2.2163373E2,5.0308414E2,9.2591504E2,1.6867908E2],"tree_param":{"num_deleted":"0","num_feature":"14","num_nodes":"7","size_leaf_vector":"1"}},{"base_weights":[6.434366E-4,2.5290275E-1,-1.1212436E-1,3.5401308E-3,8.8722276E-4,-5.26138E-4,-4.378013E-3],"categories":[],"categories_nodes":[],"categories_segments":[],"categories_sizes":[],"default_left":[0,0,0,0,0,0,0],"id":100,"left_children":[1,3,5,-1,-1,-1,-1],"loss_changes":[5.200548E1,8.795738E0,2.376154E1,0E0,0E0,0E0,0E0],"parents":[2147483647,0,0,1,1,2,2],"right_children":[2,4,6,-1,-1,-1,-1],"split_conditions":[5.1183935E-2,6.438743E-2,1.1438963E-1,3.5401308E-3,8.8722276E-4,-5.26138E-4,-4.378013E-3],"split_indices":[10,7,10,0,0,0,0],"split_type":[0,0,0,0,0,0,0],"sum_hessian":[1.8132379E3,5.6098346E2,1.2522545E3,3.3982846E2,2.2115501E2,1.0662906E3,1.8596378E2],"tree_param":{"num_deleted":"0","num_feature":"14","num_nodes":"7","size_leaf_vector":"1"}},{"base_weights":[-2.0741129E-3,1.0105347E-1,-2.9342708E-1,1.981435E-3,-1.8159226E-4,-3.9342535E-3,-0E0],"categories":[],"categories_nodes":[],"categories_segments":[],"categories_sizes":[],"default_left":[0,0,0,0,0,0,0],"id":101,"left_children":[1,3,5,-1,-1,-1,-1],"loss_changes":[5.472697E1,1.5685115E1,1.4174103E1,0E0,0E0,0E0,0E0],"parents":[2147483647,0,0,1,1,2,2],"right_children":[2,4,6,-1,-1,-1,-1],"split_conditions":[8.457142E-2,5.6271963E-2,7.2038E6,1.981435E-3,-1.8159226E-4,-3.9342535E-3,-0E0],"split_indices":[10,9,4,0,0,0,0],"split_type":[0,0,0,0,0,0,0],"sum_hessian":[1.8050708E3,1.3330549E3,4.7201587E2,7.37496E2,5.955589E2,3.5191727E2,1.2009862E2],"tree_param":{"num_deleted":"0","num_feature":"14","num_nodes":"7","size_leaf_vector":"1"}},{"base_weights":[-7.778626E-3,8.006014E-2,-2.9712218E-1,-1.4866327E-5,2.6505417E-3,-3.806668E-3,5.879048E-4],"categories":[],"categories_nodes":[],"categories_segments":[],"categories_sizes":[],"default_left":[0,0,0,0,0,0,0],"id":102,"left_children":[1,3,5,-1,-1,-1,-1],"loss_changes":[4.6745316E1,2.1416542E1,1.3188675E1,0E0,0E0,0E0,0E0],"parents":[2147483647,0,0,1,1,2,2],"right_children":[2,4,6,-1,-1,-1,-1],"split_conditions":[8.857866E-2,2.8802E6,9.8953E6,-1.4866327E-5,2.6505417E-3,-3.806668E-3,5.879048E-4],"split_indices":[9,5,4,0,0,0,0],"split_type":[0,0,0,0,0,0,0],"sum_hessian":[1.8210182E3,1.3970599E3,4.239583E2,9.693273E2,4.2773264E2,3.4535406E2,7.8604256E1],"tree_param":{"num_deleted":"0","num_feature":"14","num_nodes":"7","size_leaf_vector":"1"}},{"base_weights":[1.3866798E-3,1.7165256E-1,-1.8417381E-1,6.408513E-4,2.8316358E-3,4.7163575E-4,-3.0261674E-3],"categories":[],"categories_nodes":[],"categories_segments":[],"categories_sizes":[],"default_left":[0,0,0,0,0,0,0],"id":103,"left_children":[1,3,5,-1,-1,-1,-1],"loss_changes":[5.708201E1,1.0899349E1,2.394362E1,0E0,0E0,0E0,0E0],"parents":[2147483647,0,0,1,1,2,2],"right_children":[2,4,6,-1,-1,-1,-1],"split_conditions":[6.4204276E-2,1.6879E6,1E1,6.408513E-4,2.8316358E-3,4.7163575E-4,-3.0261674E-3],"split_indices":[10,5,13,0,0,0,0],"split_type":[0,0,0,0,0,0,0],"sum_hessian":[1.7970935E3,9.4017505E2,8.569184E2,4.8712164E2,4.530534E2,2.8833047E2,5.685879E2],"tree_param":{"num_deleted":"0","num_feature":"14","num_nodes":"7","size_leaf_vector":"1"}},{"base_weights":[-1.5175978E-3,8.3942056E-2,-2.8616798E-1,2.2135202E-3,-9.190303E-5,7.149697E-4,-3.5074898E-3],"categories":[],"categories_nodes":[],"categories_segments":[],"categories_sizes":[],"default_left":[0,0,0,0,0,0,0],"id":104,"left_children":[1,3,5,-1,-1,-1,-1],"loss_changes":[4.46119E1,1.8156828E1,1.0203712E1,0E0,0E0,0E0,0E0],"parents":[2147483647,0,0,1,1,2,2],"right_children":[2,4,6,-1,-1,-1,-1],"split_conditions":[8.857866E-2,5.1183935E-2,2.4758757E1,2.2135202E-3,-9.190303E-5,7.149697E-4,-3.5074898E-3],"split_indices":[9,10,0,0,0,0,0],"split_type":[0,0,0,0,0,0,0],"sum_hessian":[1.8156586E3,1.3964264E3,4.1923212E2,5.656722E2,8.307542E2,6.1669895E1,3.5756223E2],"tree_param":{"num_deleted":"0","num_feature":"14","num_nodes":"7","size_leaf_vector":"1"}},{"base_weights":[8.781905E-3,1.148066E-1,-2.4729775E-1,3.5311858E-4,2.5300526E-3,-3.4579209E-3,9.925102E-4],"categories":[],"categories_nodes":[],"categories_segments":[],"categories_sizes":[],"default_left":[0,0,0,0,0,0,0],"id":105,"left_children":[1,3,5,-1,-1,-1,-1],"loss_changes":[4.9275337E1,1.3832546E1,1.8512794E1,0E0,0E0,0E0,0E0],"parents":[2147483647,0,0,1,1,2,2],"right_children":[2,4,6,-1,-1,-1,-1],"split_conditions":[8.1754126E-2,3.8478E6,8.5278E6,3.5311858E-4,2.5300526E-3,-3.4579209E-3,9.925102E-4],"split_indices":[10,4,4,0,0,0,0],"split_type":[0,0,0,0,0,0,0],"sum_hessian":[1.8095295E3,1.2844089E3,5.2512054E2,8.239623E2,4.6044666E2,4.1115945E2,1.1396113E2],"tree_param":{"num_deleted":"0","num_feature":"14","num_nodes":"7","size_leaf_vector":"1"}},{"base_weights":[-8.367374E-3,6.5610245E-2,-3.3070636E-1,-2.2988196E-4,2.1964747E-3,-4.167723E-3,9.167333E-4],"categories":[],"categories_nodes":[],"categories_segments":[],"categories_sizes":[],"default_left":[0,0,0,0,0,0,0],"id":106,"left_children":[1,3,5,-1,-1,-1,-1],"loss_changes":[4.349505E1,2.0316965E1,1.2908749E1,0E0,0E0,0E0,0E0],"parents":[2147483647,0,0,1,1,2,2],"right_children":[2,4,6,-1,-1,-1,-1],"split_conditions":[9.588279E-2,3.8478E6,1.7640886E2,-2.2988196E-4,2.1964747E-3,-4.167723E-3,9.167333E-4],"split_indices":[10,4,1,0,0,0,0],"split_type":[0,0,0,0,0,0,0],"sum_hessian":[1.803341E3,1.4674398E3,3.359012E2,9.301831E2,5.372567E2,2.8106424E2,5.483697E1],"tree_param":{"num_deleted":"0","num_feature":"14","num_nodes":"7","size_leaf_vector":"1"}},{"base_weights":[-1.0862395E-4,2.1818265E-1,-1.4600664E-1,4.2627663E-3,1.2434074E-3,-2.3359975E-3,3.314332E-4],"categories":[],"categories_nodes":[],"categories_segments":[],"categories_sizes":[],"default_left":[0,0,0,0,0,0,0],"id":107,"left_children":[1,3,5,-1,-1,-1,-1],"loss_changes":[5.784501E1,1.3357338E1,1.738701E1,0E0,0E0,0E0,0E0],"parents":[2147483647,0,0,1,1,2,2],"right_children":[2,4,6,-1,-1,-1,-1],"split_conditions":[5.5924326E-2,3.9407335E-2,3.0044E6,4.2627663E-3,1.2434074E-3,-2.3359975E-3,3.314332E-4],"split_indices":[10,10,5,0,0,0,0],"split_type":[0,0,0,0,0,0,0],"sum_hessian":[1.8085338E3,7.207792E2,1.0877546E3,2.152017E2,5.0557748E2,7.332859E2,3.5446872E2],"tree_param":{"num_deleted":"0","num_feature":"14","num_nodes":"7","size_leaf_vector":"1"}},{"base_weights":[1.9477092E-3,1.8968347E-1,-1.4306988E-1,1.7474612E-4,2.6588484E-3,5.666306E-4,-2.5417272E-3],"categories":[],"categories_nodes":[],"categories_segments":[],"categories_sizes":[],"default_left":[0,0,0,0,0,0,0],"id":108,"left_children":[1,3,5,-1,-1,-1,-1],"loss_changes":[4.9381756E1,1.0096022E1,2.2891254E1,0E0,0E0,0E0,0E0],"parents":[2147483647,0,0,1,1,2,2],"right_children":[2,4,6,-1,-1,-1,-1],"split_conditions":[5.8044683E-2,9.335E5,1E1,1.7474612E-4,2.6588484E-3,5.666306E-4,-2.5417272E-3],"split_indices":[9,5,13,0,0,0,0],"split_type":[0,0,0,0,0,0,0],"sum_hessian":[1.8021433E3,7.877281E2,1.0144152E3,2.4755154E2,5.401765E2,3.602436E2,6.5417163E2],"tree_param":{"num_deleted":"0","num_feature":"14","num_nodes":"7","size_leaf_vector":"1"}},{"base_weights":[-2.4716377E-3,1.6979443E-1,-1.2743442E-1,3.5612017E-4,3.126326E-3,-1.9594468E-3,2.3953984E-3],"categories":[],"categories_nodes":[],"categories_segments":[],"categories_sizes":[],"default_left":[0,0,0,0,0,0,0],"id":109,"left_children":[1,3,5,-1,-1,-1,-1],"loss_changes":[3.903265E1,1.4158968E1,2.6723835E1,0E0,0E0,0E0,0E0],"parents":[2147483647,0,0,1,1,2,2],"right_children":[2,4,6,-1,-1,-1,-1],"split_conditions":[5.7105906E-2,1.706E6,1.7642096E2,3.5612017E-4,3.126326E-3,-1.9594468E-3,2.3953984E-3],"split_indices":[9,5,0,0,0,0,0],"split_type":[0,0,0,0,0,0,0],"sum_hessian":[1.8051501E3,7.548138E2,1.0503364E3,3.9603006E2,3.587837E2,8.8935785E2,1.6097859E2],"tree_param":{"num_deleted":"0","num_feature":"14","num_nodes":"7","size_leaf_vector":"1"}},{"base_weights":[-6.573286E-3,7.059566E-2,-2.586027E-1,-3.1453933E-4,1.7683225E-3,-3.38248E-3,1.1293704E-3],"categories":[],"categories_nodes":[],"categories_segments":[],"categories_sizes":[],"default_left":[0,0,0,0,0,0,0],"id":110,"left_children":[1,3,5,-1,-1,-1,-1],"loss_changes":[3.5571896E1,1.5244366E1,1.3125462E1,0E0,0E0,0E0,0E0],"parents":[2147483647,0,0,1,1,2,2],"right_children":[2,4,6,-1,-1,-1,-1],"split_conditions":[8.857866E-2,1.67E6,1.05466E7,-3.1453933E-4,1.7683225E-3,-3.38248E-3,1.1293704E-3],"split_indices":[9,5,4,0,0,0,0],"split_type":[0,0,0,0,0,0,0],"sum_hessian":[1.8096378E3,1.38515E3,4.2448776E2,7.034914E2,6.816586E2,3.5214047E2,7.234727E1],"tree_param":{"num_deleted":"0","num_feature":"14","num_nodes":"7","size_leaf_vector":"1"}},{"base_weights":[-8.17731E-3,7.4677154E-2,-3.797933E-1,-5.426572E-5,2.2070268E-3,3.359962E-3,-4.3874816E-3],"categories":[],"categories_nodes":[],"categories_segments":[],"categories_sizes":[],"default_left":[0,0,0,0,0,0,0],"id":111,"left_children":[1,3,5,-1,-1,-1,-1],"loss_changes":[5.5825844E1,1.7447414E1,1.4804604E1,0E0,0E0,0E0,0E0],"parents":[2147483647,0,0,1,1,2,2],"right_children":[2,4,6,-1,-1,-1,-1],"split_conditions":[9.663642E-2,4.0047E6,-9.8604053E-1,-5.426572E-5,2.2070268E-3,3.359962E-3,-4.3874816E-3],"split_indices":[10,4,7,0,0,0,0],"split_type":[0,0,0,0,0,0,0],"sum_hessian":[1.7935984E3,1.4676742E3,3.2592426E2,9.464538E2,5.2122034E2,2.1722788E1,3.0420145E2],"tree_param":{"num_deleted":"0","num_feature":"14","num_nodes":"7","size_leaf_vector":"1"}},{"base_weights":[8.9926284E-4,1.7608398E-1,-1.5792926E-1,1.138203E-3,3.7889802E-3,-8.837294E-4,-4.5400616E-3],"categories":[],"categories_nodes":[],"categories_segments":[],"categories_sizes":[],"default_left":[0,0,0,0,0,0,0],"id":112,"left_children":[1,3,5,-1,-1,-1,-1],"loss_changes":[5.0459255E1,1.0215029E1,1.8776602E1,0E0,0E0,0E0,0E0],"parents":[2147483647,0,0,1,1,2,2],"right_children":[2,4,6,-1,-1,-1,-1],"split_conditions":[6.136784E-2,3.7841E6,1.1736422E-1,1.138203E-3,3.7889802E-3,-8.837294E-4,-4.5400616E-3],"split_indices":[10,5,10,0,0,0,0],"split_type":[0,0,0,0,0,0,0],"sum_hessian":[1.8028444E3,8.600163E2,9.428281E2,6.677534E2,1.922629E2,7.714613E2,1.7136682E2],"tree_param":{"num_deleted":"0","num_feature":"14","num_nodes":"7","size_leaf_vector":"1"}},{"base_weights":[4.4668526E-3,1.8279198E-1,-1.2431285E-1,4.8760367E-3,1.4270057E-3,1.010183E-3,-2.505312E-3],"categories":[],"categories_nodes":[],"categories_segments":[],"categories_sizes":[],"default_left":[0,0,0,0,0,0,0],"id":113,"left_children":[1,3,5,-1,-1,-1,-1],"loss_changes":[4.1805683E1,8.376568E0,3.0208208E1,0E0,0E0,0E0,0E0],"parents":[2147483647,0,0,1,1,2,2],"right_children":[2,4,6,-1,-1,-1,-1],"split_conditions":[5.7105906E-2,1.6E1,1E1,4.8760367E-3,1.4270057E-3,1.010183E-3,-2.505312E-3],"split_indices":[9,3,13,0,0,0,0],"split_type":[0,0,0,0,0,0,0],"sum_hessian":[1.8079419E3,7.605096E2,1.0474324E3,7.901444E1,6.814951E2,3.735781E2,6.7385425E2],"tree_param":{"num_deleted":"0","num_feature":"14","num_nodes":"7","size_leaf_vector":"1"}},{"base_weights":[1.1961741E-2,8.4144965E-2,-3.0430925E-1,1.0822325E-4,2.5962782E-3,3.757047E-3,-3.5951447E-3],"categories":[],"categories_nodes":[],"categories_segments":[],"categories_sizes":[],"default_left":[0,0,0,0,0,0,0],"id":114,"left_children":[1,3,5,-1,-1,-1,-1],"loss_changes":[4.122826E1,1.8760017E1,1.3229111E1,0E0,0E0,0E0,0E0],"parents":[2147483647,0,0,1,1,2,2],"right_children":[2,4,6,-1,-1,-1,-1],"split_conditions":[9.588279E-2,3.0044E6,-9.8604053E-1,1.0822325E-4,2.5962782E-3,3.757047E-3,-3.5951447E-3],"split_indices":[10,5,7,0,0,0,0],"split_type":[0,0,0,0,0,0,0],"sum_hessian":[1.8049594E3,1.4751208E3,3.2983847E2,1.048168E3,4.2695288E2,2.1226744E1,3.0861172E2],"tree_param":{"num_deleted":"0","num_feature":"14","num_nodes":"7","size_leaf_vector":"1"}},{"base_weights":[1.3536007E-2,6.5560974E-2,-4.7900406E-1,-1.244038E-4,2.4984526E-3,-5.9250654E-3,1.1886818E-3],"categories":[],"categories_nodes":[],"categories_segments":[],"categories_sizes":[],"default_left":[0,0,0,0,0,0,0],"id":115,"left_children":[1,3,5,-1,-1,-1,-1],"loss_changes":[4.6583755E1,2.4108086E1,1.2592636E1,0E0,0E0,0E0,0E0],"parents":[2147483647,0,0,1,1,2,2],"right_children":[2,4,6,-1,-1,-1,-1],"split_conditions":[1.1736422E-1,3.0044E6,1.8070699E2,-1.244038E-4,2.4984526E-3,-5.9250654E-3,1.1886818E-3],"split_indices":[10,5,0,0,0,0,0],"split_type":[0,0,0,0,0,0,0],"sum_hessian":[1.8229535E3,1.6545546E3,1.6839899E2,1.1619684E3,4.9258615E2,1.4297375E2,2.5425238E1],"tree_param":{"num_deleted":"0","num_feature":"14","num_nodes":"7","size_leaf_vector":"1"}},{"base_weights":[9.15218E-3,7.900222E-2,-3.6946064E-1,2.4107848E-3,-1.4857374E-4,1.4885083E-4,-4.4916575E-3],"categories":[],"categories_nodes":[],"categories_segments":[],"categories_sizes":[],"default_left":[0,0,0,0,0,0,0],"id":116,"left_children":[1,3,5,-1,-1,-1,-1],"loss_changes":[4.7781105E1,2.36148E1,9.073158E0,0E0,0E0,0E0,0E0],"parents":[2147483647,0,0,1,1,2,2],"right_children":[2,4,6,-1,-1,-1,-1],"split_conditions":[1.0225848E-1,5.1183935E-2,2.6004677E1,2.4107848E-3,-1.4857374E-4,1.4885083E-4,-4.4916575E-3],"split_indices":[10,10,1,0,0,0,0],"split_type":[0,0,0,0,0,0,0],"sum_hessian":[1.8071986E3,1.5312898E3,2.7590878E2,5.626025E2,9.686874E2,4.5933426E1,2.2997534E2],"tree_param":{"num_deleted":"0","num_feature":"14","num_nodes":"7","size_leaf_vector":"1"}},{"base_weights":[-1.0596003E-2,1.3578224E-1,-1.3991436E-1,4.7846406E-4,2.7931714E-3,3.0377381E-3,-1.7922348E-3],"categories":[],"categories_nodes":[],"categories_segments":[],"categories_sizes":[],"default_left":[0,0,0,0,0,0,0],"id":117,"left_children":[1,3,5,-1,-1,-1,-1],"loss_changes":[3.4276333E1,1.0281632E1,1.6973106E1,0E0,0E0,0E0,0E0],"parents":[2147483647,0,0,1,1,2,2],"right_children":[2,4,6,-1,-1,-1,-1],"split_conditions":[6.0290966E-2,3.7297E6,5E0,4.7846406E-4,2.7931714E-3,3.0377381E-3,-1.7922348E-3],"split_indices":[9,4,13,0,0,0,0],"split_type":[0,0,0,0,0,0,0],"sum_hessian":[1.80051E3,8.408035E2,9.597065E2,5.298361E2,3.1096738E2,7.329833E1,8.8640814E2],"tree_param":{"num_deleted":"0","num_feature":"14","num_nodes":"7","size_leaf_vector":"1"}},{"base_weights":[1.4072872E-3,4.4964105E-2,-4.1529033E-1,3.8170863E-3,2.2076263E-5,-5.3862734E-3,1.7475507E-3],"categories":[],"categories_nodes":[],"categories_segments":[],"categories_sizes":[],"default_left":[0,0,0,0,0,0,0],"id":118,"left_children":[1,3,5,-1,-1,-1,-1],"loss_changes":[3.2510986E1,2.3256575E1,1.3153479E1,0E0,0E0,0E0,0E0],"parents":[2147483647,0,0,1,1,2,2],"right_children":[2,4,6,-1,-1,-1,-1],"split_conditions":[1.1736422E-1,3.794416E-2,1.8046361E2,3.8170863E-3,2.2076263E-5,-5.3862734E-3,1.7475507E-3],"split_indices":[10,10,1,0,0,0,0],"split_type":[0,0,0,0,0,0,0],"sum_hessian":[1.8014963E3,1.6372203E3,1.6427606E2,1.7735661E2,1.4598638E3,1.3763644E2,2.6639608E1],"tree_param":{"num_deleted":"0","num_feature":"14","num_nodes":"7","size_leaf_vector":"1"}},{"base_weights":[-1.2215933E-2,4.9462996E-2,-4.093096E-1,1.5557731E-3,-6.378591E-4,5.0571635E-3,-4.5112893E-3],"categories":[],"categories_nodes":[],"categories_segments":[],"categories_sizes":[],"default_left":[0,0,0,0,0,0,0],"id":119,"left_children":[1,3,5,-1,-1,-1,-1],"loss_changes":[4.511311E1,1.9132168E1,1.0569275E1,0E0,0E0,0E0,0E0],"parents":[2147483647,0,0,1,1,2,2],"right_children":[2,4,6,-1,-1,-1,-1],"split_conditions":[1.0655062E-1,5.9402242E-2,4E0,1.5557731E-3,-6.378591E-4,5.0571635E-3,-4.5112893E-3],"split_indices":[9,9,13,0,0,0,0],"split_type":[0,0,0,0,0,0,0],"sum_hessian":[1.8181041E3,1.575281E3,2.4282304E2,8.168517E2,7.584294E2,7.14349E0,2.3567955E2],"tree_param":{"num_deleted":"0","num_feature":"14","num_nodes":"7","size_leaf_vector":"1"}},{"base_weights":[-1.3706547E-2,7.188166E-2,-2.9536262E-1,2.182497E-3,-1.1824757E-4,-5.160566E-3,-1.7247115E-3],"categories":[],"categories_nodes":[],"categories_segments":[],"categories_sizes":[],"default_left":[0,0,0,0,0,0,0],"id":120,"left_children":[1,3,5,-1,-1,-1,-1],"loss_changes":[4.3805347E1,1.7181845E1,1.0366306E1,0E0,0E0,0E0,0E0],"parents":[2147483647,0,0,1,1,2,2],"right_children":[2,4,6,-1,-1,-1,-1],"split_conditions":[8.857866E-2,9E0,4.63E5,2.182497E-3,-1.1824757E-4,-5.160566E-3,-1.7247115E-3],"split_indices":[9,13,11,0,0,0,0],"split_type":[0,0,0,0,0,0,0],"sum_hessian":[1.7984896E3,1.3794752E3,4.1901434E2,5.0330753E2,8.761677E2,1.4123843E2,2.7777594E2],"tree_param":{"num_deleted":"0","num_feature":"14","num_nodes":"7","size_leaf_vector":"1"}},{"base_weights":[1.0586199E-3,8.3793506E-2,-2.6724133E-1,3.9161798E-5,2.6162383E-3,4.219465E-3,-2.973384E-3],"categories":[],"categories_nodes":[],"categories_segments":[],"categories_sizes":[],"default_left":[0,0,0,0,0,0,0],"id":121,"left_children":[1,3,5,-1,-1,-1,-1],"loss_changes":[3.9952614E1,1.9399332E1,9.283163E0,0E0,0E0,0E0,0E0],"parents":[2147483647,0,0,1,1,2,2],"right_children":[2,4,6,-1,-1,-1,-1],"split_conditions":[8.857866E-2,2.8802E6,4E0,3.9161798E-5,2.6162383E-3,4.219465E-3,-2.973384E-3],"split_indices":[9,5,13,0,0,0,0],"split_type":[0,0,0,0,0,0,0],"sum_hessian":[1.7980687E3,1.3797614E3,4.1830746E2,9.5950635E2,4.2025497E2,1.3389104E1,4.0491837E2],"tree_param":{"num_deleted":"0","num_feature":"14","num_nodes":"7","size_leaf_vector":"1"}},{"base_weights":[1.5794416E-3,6.985635E-2,-3.1769887E-1,2.3141312E-3,-1.1611401E-4,-1.9376158E-3,-5.7668993E-3],"categories":[],"categories_nodes":[],"categories_segments":[],"categories_sizes":[],"default_left":[0,0,0,0,0,0,0],"id":122,"left_children":[1,3,5,-1,-1,-1,-1],"loss_changes":[3.9208683E1,1.9891521E1,8.823513E0,0E0,0E0,0E0,0E0],"parents":[2147483647,0,0,1,1,2,2],"right_children":[2,4,6,-1,-1,-1,-1],"split_conditions":[9.729382E-2,4.899005E-2,2.7E1,2.3141312E-3,-1.1611401E-4,-1.9376158E-3,-5.7668993E-3],"split_indices":[10,10,3,0,0,0,0],"split_type":[0,0,0,0,0,0,0],"sum_hessian":[1.7998972E3,1.4886013E3,3.112958E2,5.0004532E2,9.885561E2,2.1906606E2,9.2229744E1],"tree_param":{"num_deleted":"0","num_feature":"14","num_nodes":"7","size_leaf_vector":"1"}},{"base_weights":[-3.837099E-3,1.5348831E-1,-1.5753834E-1,-2.0412265E-3,1.8409056E-3,-2.2409414E-3,1.7812321E-3],"categories":[],"categories_nodes":[],"categories_segments":[],"categories_sizes":[],"default_left":[0,0,0,0,0,0,0],"id":123,"left_children":[1,3,5,-1,-1,-1,-1],"loss_changes":[4.3982742E1,9.969156E0,2.0868038E1,0E0,0E0,0E0,0E0],"parents":[2147483647,0,0,1,1,2,2],"right_children":[2,4,6,-1,-1,-1,-1],"split_conditions":[6.2272765E-2,1.8243673E1,1.7642096E2,-2.0412265E-3,1.8409056E-3,-2.2409414E-3,1.7812321E-3],"split_indices":[10,2,0,0,0,0,0],"split_type":[0,0,0,0,0,0,0],"sum_hessian":[1.8087211E3,8.9061096E2,9.1811017E2,6.539475E1,8.252162E2,7.700616E2,1.480486E2],"tree_param":{"num_deleted":"0","num_feature":"14","num_nodes":"7","size_leaf_vector":"1"}},{"base_weights":[2.4927498E-5,1.6388083E-1,-1.2409026E-1,6.873879E-4,2.8520764E-3,5.9737486E-4,-2.2817978E-3],"categories":[],"categories_nodes":[],"categories_segments":[],"categories_sizes":[],"default_left":[0,0,0,0,0,0,0],"id":124,"left_children":[1,3,5,-1,-1,-1,-1],"loss_changes":[3.6834167E1,8.589294E0,1.9868326E1,0E0,0E0,0E0,0E0],"parents":[2147483647,0,0,1,1,2,2],"right_children":[2,4,6,-1,-1,-1,-1],"split_conditions":[5.8044683E-2,3.0665E6,1E1,6.873879E-4,2.8520764E-3,5.9737486E-4,-2.2817978E-3],"split_indices":[9,4,13,0,0,0,0],"split_type":[0,0,0,0,0,0,0],"sum_hessian":[1.7992329E3,7.7824927E2,1.0209836E3,4.452042E2,3.330451E2,3.6640897E2,6.545746E2],"tree_param":{"num_deleted":"0","num_feature":"14","num_nodes":"7","size_leaf_vector":"1"}},{"base_weights":[-1.2540067E-2,3.416587E-2,-3.893763E-1,-4.0607495E-4,1.7119278E-3,-5.0382284E-3,1.3917091E-3],"categories":[],"categories_nodes":[],"categories_segments":[],"categories_sizes":[],"default_left":[0,0,0,0,0,0,0],"id":125,"left_children":[1,3,5,-1,-1,-1,-1],"loss_changes":[3.2086456E1,1.6588856E1,1.2883331E1,0E0,0E0,0E0,0E0],"parents":[2147483647,0,0,1,1,2,2],"right_children":[2,4,6,-1,-1,-1,-1],"split_conditions":[1.11360155E-1,4.0047E6,1.4855952E2,-4.0607495E-4,1.7119278E-3,-5.0382284E-3,1.3917091E-3],"split_indices":[9,4,2,0,0,0,0],"split_type":[0,0,0,0,0,0,0],"sum_hessian":[1.7940824E3,1.5979249E3,1.9615742E2,1.0313529E3,5.665721E2,1.6299083E2,3.3166595E1],"tree_param":{"num_deleted":"0","num_feature":"14","num_nodes":"7","size_leaf_vector":"1"}},{"base_weights":[-3.7902454E-3,5.423836E-2,-3.313475E-1,3.0578424E-3,1.1455702E-4,-4.1836645E-3,6.948128E-4],"categories":[],"categories_nodes":[],"categories_segments":[],"categories_sizes":[],"default_left":[0,0,0,0,0,0,0],"id":126,"left_children":[1,3,5,-1,-1,-1,-1],"loss_changes":[3.456993E1,1.613432E1,1.00547905E1,0E0,0E0,0E0,0E0],"parents":[2147483647,0,0,1,1,2,2],"right_children":[2,4,6,-1,-1,-1,-1],"split_conditions":[1.0225848E-1,3.9407335E-2,1.4855952E2,3.0578424E-3,1.1455702E-4,-4.1836645E-3,6.948128E-4],"split_indices":[10,10,2,0,0,0,0],"split_type":[0,0,0,0,0,0,0],"sum_hessian":[1.7944277E3,1.5253267E3,2.69101E2,2.1385123E2,1.3114755E3,2.2297067E2,4.6130344E1],"tree_param":{"num_deleted":"0","num_feature":"14","num_nodes":"7","size_leaf_vector":"1"}},{"base_weights":[-2.5733546E-3,4.0616434E-2,-4.291516E-1,1.925009E-3,-3.82431E-4,-6.152635E-3,1.5154733E-4],"categories":[],"categories_nodes":[],"categories_segments":[],"categories_sizes":[],"default_left":[0,0,0,0,0,0,0],"id":127,"left_children":[1,3,5,-1,-1,-1,-1],"loss_changes":[3.3776455E1,1.9879097E1,1.4599831E1,0E0,0E0,0E0,0E0],"parents":[2147483647,0,0,1,1,2,2],"right_children":[2,4,6,-1,-1,-1,-1],"split_conditions":[1.1736422E-1,5.1183935E-2,1.0698213E2,1.925009E-3,-3.82431E-4,-6.152635E-3,1.5154733E-4],"split_indices":[10,10,0,0,0,0,0],